%YAML:1.0
---
opencv_ml_svm:
   format: 3
   svmType: C_SVC
   kernel:
      type: RBF
      gamma: 5.0624999999999998e-01
   C: 1.2500000000000000e+01
   term_criteria: { epsilon:1.1920928955078125e-07, iterations:1000 }
   var_count: 144
   class_count: 5
   class_labels: !!opencv-matrix
      rows: 5
      cols: 1
      dt: i
      data: [ 0, 1, 2, 3, 4 ]
   sv_total: 77
   support_vectors:
      - [ 4.36402470e-01, 4.36402470e-01, 4.36402470e-01, 2.72272289e-01,
          2.52804726e-01, 1.52892947e-01, 1.39059797e-01, 2.30425388e-01,
          4.36402470e-01, 4.57490981e-01, 4.57490981e-01, 2.63409495e-01,
          1.78050309e-01, 2.45100081e-01, 4.57490981e-01, 2.01494247e-01,
          2.04411030e-01, 3.52124840e-01, 4.57303107e-01, 3.87228340e-01,
          5.25676683e-02, 4.78365719e-02, 4.57303107e-01, 4.57303107e-01,
          1.16292082e-01, 1.05372190e-01, 4.34084296e-01, 4.05318558e-01,
          9.55020413e-02, 3.35941836e-02, 1.75291044e-03, 4.05318558e-01,
          4.05318558e-01, 4.05318558e-01, 4.05318558e-01, 4.05318558e-01,
          4.03310061e-01, 4.03310061e-01, 4.03310061e-01, 4.03310061e-01,
          2.32370779e-01, 2.73158312e-01, 1.64320290e-01, 2.09417403e-01,
          3.81924868e-01, 4.20040846e-01, 4.20040846e-01, 8.92940313e-02,
          2.92920709e-01, 3.25823992e-01, 4.20040846e-01, 1.29756853e-01,
          3.28014880e-01, 3.77005816e-01, 4.87764418e-01, 2.91671664e-01,
          9.98565704e-02, 1.39554635e-01, 4.87764418e-01, 4.87764418e-01,
          2.26794451e-01, 2.36817777e-01, 2.43615150e-01, 4.48771417e-01,
          2.19624601e-02, 2.94204731e-03, 4.72295796e-03, 4.65862334e-01,
          4.65862334e-01, 4.65862334e-01, 2.92097330e-01, 2.38817587e-01,
          3.45652193e-01, 4.10469681e-01, 4.10469681e-01, 4.10469681e-01,
          4.10469681e-01, 1.98248282e-01, 2.15303659e-01, 2.29095146e-01,
          2.53653377e-01, 1.07727230e-01, 7.07246661e-02, 1.50555715e-01,
          5.01047313e-01, 4.04942513e-01, 1.77890182e-01, 8.33859220e-02,
          5.01047313e-01, 5.01047313e-01, 2.13899329e-01, 5.21445759e-02,
          5.57041094e-02, 4.80400860e-01, 4.80400860e-01, 7.25011751e-02,
          1.23411857e-01, 4.80400860e-01, 4.80400860e-01, 4.05747652e-01,
          8.07764158e-02, 7.51174018e-02, 2.87628382e-01, 4.05747652e-01,
          2.79093742e-01, 4.05747652e-01, 4.05747652e-01, 4.05747652e-01,
          2.54159242e-01, 3.66713494e-01, 4.23064083e-01, 4.23064083e-01,
          4.23064083e-01, 2.70075828e-01, 2.72252381e-01, 1.34282544e-01,
          3.07659745e-01, 1.60052419e-01, 1.62635058e-01, 4.13265407e-01,
          4.43819821e-01, 4.43819821e-01, 2.47601032e-01, 2.92358458e-01,
          1.87092721e-01, 4.43819821e-01, 1.28261536e-01, 5.41124977e-02,
          3.48275341e-02, 5.20795703e-01, 5.20795703e-01, 2.84445077e-01,
          1.92011148e-01, 2.06748366e-01, 5.20795703e-01, 1.57261983e-01,
          1.09121986e-02, 1.74944513e-02, 4.02248919e-01, 4.02248919e-01,
          4.02248919e-01, 4.02248919e-01, 4.02248919e-01, 4.02248919e-01 ]
      - [ 5.00440300e-01, 5.00440300e-01, 4.75417107e-01, 9.52303112e-02,
          2.18347833e-01, 2.48481184e-01, 8.72331560e-02, 1.03469588e-01,
          3.62348437e-01, 5.05358815e-01, 5.05358815e-01, 1.17377527e-01,
          5.55775315e-02, 3.61081779e-01, 5.05358815e-01, 1.06169410e-01,
          7.65326992e-02, 2.53800333e-01, 4.87108797e-01, 3.97022277e-01,
          3.62732820e-02, 5.56992553e-02, 4.87108797e-01, 4.87108797e-01,
          4.52085771e-02, 6.58763647e-02, 3.38941902e-01, 4.05829877e-01,
          1.21130519e-01, 3.74107957e-02, 1.32848591e-01, 4.05829877e-01,
          4.05829877e-01, 4.05829877e-01, 3.72472227e-01, 4.05829877e-01,
          4.23411578e-01, 4.23411578e-01, 3.33332062e-01, 1.97797433e-01,
          4.23411578e-01, 4.23411578e-01, 2.00889781e-01, 1.03072830e-01,
          2.78291345e-01, 4.17994738e-01, 4.17994738e-01, 6.57257885e-02,
          2.68432498e-01, 4.17994738e-01, 4.17994738e-01, 1.25537321e-01,
          1.73467591e-01, 4.17994738e-01, 4.01253700e-01, 2.54450649e-01,
          1.99089497e-01, 1.81359768e-01, 4.01253700e-01, 4.01253700e-01,
          2.95142859e-01, 3.57198894e-01, 4.01253700e-01, 3.56802911e-01,
          2.21394241e-01, 2.08277151e-01, 1.74291700e-01, 3.86279732e-01,
          3.86279732e-01, 3.86279732e-01, 3.86279732e-01, 3.86279732e-01,
          3.49698901e-01, 3.99429858e-01, 3.99429858e-01, 3.99429858e-01,
          3.99429858e-01, 3.99429858e-01, 1.88262790e-01, 9.10489634e-02,
          1.79628611e-01, 2.35176533e-01, 9.73550230e-02, 9.41488594e-02,
          5.22551417e-01, 5.22551417e-01, 2.13119239e-01, 1.01424962e-01,
          2.15045437e-01, 5.22551417e-01, 2.62817442e-01, 5.59735447e-02,
          7.20197856e-02, 5.21486282e-01, 5.21486282e-01, 8.32181424e-02,
          6.33600354e-02, 3.01024109e-01, 5.21486282e-01, 4.12436247e-01,
          6.30701482e-02, 5.85882589e-02, 4.12436247e-01, 4.12436247e-01,
          2.22751349e-01, 3.73059690e-01, 3.45344901e-01, 4.12436247e-01,
          3.45447868e-01, 3.63359421e-01, 4.29252207e-01, 6.48924932e-02,
          4.29252207e-01, 2.42133483e-01, 4.29252207e-01, 2.24638015e-01,
          2.79774308e-01, 3.08042586e-01, 4.02136326e-01, 4.02136326e-01,
          4.02136326e-01, 4.02136326e-01, 3.09730679e-01, 3.19452584e-01,
          1.14075653e-01, 2.07946599e-01, 1.63813040e-01, 1.80237755e-01,
          3.31477404e-01, 4.40595537e-01, 4.40595537e-01, 4.40595537e-01,
          2.79043853e-01, 1.99085981e-01, 3.55706662e-01, 1.92789719e-01,
          5.61525337e-02, 1.69625074e-01, 4.24052954e-01, 4.24052954e-01,
          4.24052954e-01, 4.07478094e-01, 2.03342617e-01, 4.24052954e-01 ]
      - [ 4.41123575e-01, 4.41123575e-01, 4.41123575e-01, 9.59599912e-02,
          2.37382457e-01, 8.30213651e-02, 6.79173740e-03, 3.80442113e-01,
          4.41123575e-01, 4.34591830e-01, 4.34591830e-01, 3.97432864e-01,
          1.18304864e-01, 2.75752395e-01, 3.05651337e-01, 1.47109687e-01,
          2.56897628e-01, 4.34591830e-01, 4.55998480e-01, 4.55998480e-01,
          1.50178000e-01, 6.17256239e-02, 4.55998480e-01, 4.55998480e-01,
          1.21173687e-01, 1.00419782e-01, 3.35523784e-01, 4.17316347e-01,
          4.17316347e-01, 4.90691029e-02, 6.11047968e-02, 4.17316347e-01,
          4.17316347e-01, 3.10499817e-01, 2.84084111e-01, 3.40534836e-01,
          4.01390761e-01, 4.01390761e-01, 4.01390761e-01, 4.01390761e-01,
          2.79535472e-01, 2.43863732e-01, 1.66151494e-01, 2.13088885e-01,
          3.75378788e-01, 4.28061455e-01, 4.28061455e-01, 6.90812618e-02,
          1.71814322e-01, 4.28061455e-01, 4.28061455e-01, 7.78544247e-02,
          1.97957411e-01, 4.28061455e-01, 4.89682585e-01, 4.28980231e-01,
          4.51978967e-02, 1.42205358e-01, 4.89682585e-01, 4.89682585e-01,
          1.21993922e-01, 1.22456372e-01, 1.98933929e-01, 4.33281988e-01,
          3.37515742e-01, 1.52698636e-01, 2.36850739e-01, 4.33281988e-01,
          4.33281988e-01, 3.98884803e-01, 2.41488114e-01, 1.47358105e-01,
          3.19565058e-01, 4.13317263e-01, 4.13317263e-01, 4.13317263e-01,
          4.13317263e-01, 1.88844994e-01, 1.43976659e-01, 2.43791923e-01,
          3.07568699e-01, 2.07937285e-01, 9.58466008e-02, 9.14018229e-02,
          4.61198300e-01, 4.61198300e-01, 2.74949789e-01, 9.05627236e-02,
          4.61198300e-01, 4.61198300e-01, 2.65804857e-01, 1.14721112e-01,
          1.03238933e-01, 4.62332636e-01, 4.62332636e-01, 1.85387671e-01,
          1.07406519e-01, 4.62332636e-01, 4.62332636e-01, 3.91851097e-01,
          1.73372537e-01, 2.15592474e-01, 4.11748230e-01, 3.24059874e-01,
          1.76805377e-01, 3.47730577e-01, 4.11748230e-01, 4.11748230e-01,
          2.32846379e-01, 4.10697281e-01, 4.10697281e-01, 3.90774637e-01,
          4.10697281e-01, 3.98483455e-01, 3.14063132e-01, 1.06109172e-01,
          1.19475916e-01, 1.84325099e-01, 2.76131600e-01, 4.02190983e-01,
          4.02190983e-01, 4.02190983e-01, 2.55054861e-01, 3.08271557e-01,
          2.80433685e-01, 4.02190983e-01, 1.26325116e-01, 8.74576792e-02,
          1.79660454e-01, 4.99141693e-01, 4.99141693e-01, 1.00133963e-01,
          1.01921804e-01, 4.13869560e-01, 4.99141693e-01, 1.79201037e-01,
          6.25474602e-02, 9.93207395e-02, 4.20841277e-01, 4.20841277e-01,
          2.53711402e-01, 4.20841277e-01, 4.20841277e-01, 4.20841277e-01 ]
      - [ 6.22468591e-01, 6.73618257e-01, 2.76439935e-01, 0.,
          9.49142501e-02, 0., 0., 0., 2.58106232e-01, 4.56651688e-01,
          4.56651688e-01, 4.56651688e-01, 2.17703611e-01, 1.52059197e-01,
          2.64292061e-01, 7.29588121e-02, 1.25001475e-01, 4.56651688e-01,
          5.03848195e-01, 5.03848195e-01, 1.21252201e-01, 1.01277918e-01,
          3.22764993e-01, 5.03848195e-01, 1.22063950e-01, 1.18669018e-01,
          2.74336427e-01, 4.39961016e-01, 4.39961016e-01, 5.51380813e-02,
          6.87683374e-02, 3.15762132e-01, 4.39961016e-01, 3.81369919e-01,
          2.02373222e-01, 3.47901195e-01, 3.62962872e-01, 4.86067384e-01,
          4.86067384e-01, 2.40940571e-01, 4.86067384e-01, 2.78648883e-02,
          7.62639865e-02, 1.16056196e-01, 2.76594788e-01, 4.03095692e-01,
          4.03095692e-01, 4.03095692e-01, 4.03095692e-01, 4.03095692e-01,
          2.25137085e-01, 1.57504722e-01, 9.25482735e-02, 3.15409184e-01,
          3.98411363e-01, 3.06545943e-01, 6.28623366e-02, 3.98411363e-01,
          3.98411363e-01, 3.98411363e-01, 1.63081735e-01, 2.79005766e-01,
          3.98411363e-01, 3.84039611e-01, 1.16527393e-01, 9.53033045e-02,
          3.84039611e-01, 3.84039611e-01, 3.84039611e-01, 2.97629625e-01,
          3.84039611e-01, 3.84039611e-01, 1.33811757e-01, 4.73086506e-01,
          4.73086506e-01, 4.73086506e-01, 4.73086506e-01, 1.51238572e-02,
          1.76693365e-01, 1.90745592e-01, 1.19551592e-01, 9.48852450e-02,
          3.28787416e-01, 4.87261146e-01, 4.87261146e-01, 4.87261146e-01,
          2.15548366e-01, 2.14568570e-01, 1.89081222e-01, 1.93665192e-01,
          1.09996699e-01, 8.37527514e-02, 2.36387700e-01, 5.08216023e-01,
          5.08216023e-01, 1.97124749e-01, 1.80854544e-01, 2.71135420e-01,
          5.08216023e-01, 2.64996022e-01, 2.86144912e-02, 7.18160272e-02,
          3.99617165e-01, 3.99617165e-01, 3.99617165e-01, 3.99617165e-01,
          3.48337471e-01, 3.99617165e-01, 0., 0., 0., 0., 0., 0., 0., 0.,
          0., 1.17882565e-01, 1.88294515e-01, 5.92152596e-01,
          1.91298246e-01, 6.71428561e-01, 1.72057599e-01, 2.39299893e-01,
          7.15913028e-02, 1.17882565e-01, 4.23247218e-02, 1.49824560e-01,
          4.52239901e-01, 4.20338094e-01, 4.52239901e-01, 4.52239901e-01,
          3.98468435e-01, 1.23856984e-01, 8.29422697e-02, 2.43518557e-02,
          5.56302071e-02, 1.71547681e-01, 4.85383123e-01, 5.91469228e-01,
          5.91469228e-01, 1.50598079e-01, 2.77897455e-02, 4.75108027e-02 ]
      - [ 6.55690372e-01, 6.55690372e-01, 2.59843320e-01, 0.,
          2.72074044e-02, 1.76640496e-01, 9.57397893e-02, 2.03183219e-02,
          1.56698972e-01, 4.21868324e-01, 4.21868324e-01, 4.21868324e-01,
          7.52975494e-02, 3.14153463e-01, 3.66147190e-01, 1.08815677e-01,
          1.83377936e-01, 4.21868324e-01, 4.43829536e-01, 4.43829536e-01,
          1.60692096e-01, 4.35638987e-02, 2.74022609e-01, 4.43829536e-01,
          2.71611780e-01, 1.76201001e-01, 4.43829536e-01, 3.91624928e-01,
          3.70612055e-01, 1.20352201e-01, 6.27195239e-02, 2.71045148e-01,
          3.91624928e-01, 3.91624928e-01, 3.91624928e-01, 3.91624928e-01,
          4.61235434e-01, 4.61235434e-01, 4.61235434e-01, 4.60927248e-01,
          1.11934029e-01, 1.38041943e-01, 1.69056699e-01, 1.85027868e-01,
          2.24331126e-01, 4.80954021e-01, 4.80954021e-01, 1.29780814e-01,
          1.63409829e-01, 3.29822719e-01, 4.80954021e-01, 1.31243512e-01,
          2.19326720e-01, 2.89115697e-01, 4.82409388e-01, 4.82409388e-01,
          7.14851692e-02, 9.02408436e-02, 4.82409388e-01, 4.82409388e-01,
          1.36401042e-01, 9.75753888e-02, 1.51415840e-01, 4.08810914e-01,
          1.84658691e-01, 1.41310751e-01, 1.16894856e-01, 4.08810914e-01,
          4.08810914e-01, 4.08810914e-01, 4.08810914e-01, 3.04223984e-01,
          3.83473039e-01, 3.83473039e-01, 3.83473039e-01, 3.83473039e-01,
          3.83473039e-01, 2.54567534e-01, 2.73082972e-01, 2.95233130e-01,
          1.85389906e-01, 2.25373894e-01, 2.25020260e-01, 1.89093351e-01,
          4.41940218e-01, 3.42061639e-01, 3.77418160e-01, 1.14094622e-01,
          4.41940218e-01, 4.41940218e-01, 1.35644838e-01, 7.13285580e-02,
          8.21754187e-02, 5.01862407e-01, 3.42118323e-01, 2.45388776e-01,
          1.78575680e-01, 5.01862407e-01, 5.01862407e-01, 2.92774826e-01,
          2.21435040e-01, 1.97976455e-01, 3.07151377e-01, 2.80454546e-01,
          3.03498238e-01, 4.30752814e-01, 4.30752814e-01, 4.30752814e-01,
          2.14543924e-01, 4.00700390e-01, 4.00700390e-01, 4.00700390e-01,
          4.00700390e-01, 4.00700390e-01, 3.22302461e-01, 1.82114869e-01,
          1.00594774e-01, 1.47055477e-01, 1.46865129e-01, 3.68247122e-01,
          4.55572128e-01, 4.55572128e-01, 2.98595756e-01, 2.39735901e-01,
          2.80003548e-01, 4.20145452e-01, 4.17147800e-02, 5.98427504e-02,
          1.26169503e-01, 4.75113213e-01, 4.75113213e-01, 2.02214509e-01,
          1.73762977e-01, 4.75113213e-01, 4.75113213e-01, 1.24358669e-01,
          1.75071269e-01, 1.36050478e-01, 3.94004911e-01, 3.94004911e-01,
          3.94004911e-01, 3.94004911e-01, 3.94004911e-01, 3.94004911e-01 ]
      - [ 4.26596135e-01, 4.26596135e-01, 4.26596135e-01, 1.25327259e-01,
          1.56556860e-01, 5.15301004e-02, 2.07232222e-01, 4.26596135e-01,
          4.26596135e-01, 4.97965664e-01, 4.87058878e-01, 2.39681259e-01,
          1.54483244e-01, 1.00367874e-01, 8.91764164e-02, 1.07541107e-01,
          3.88531923e-01, 4.97965664e-01, 4.98259783e-01, 4.22464073e-01,
          1.29520252e-01, 1.89322289e-02, 3.74941975e-01, 4.23621118e-01,
          7.37869442e-02, 1.13484457e-01, 4.61293399e-01, 4.16810513e-01,
          1.46318108e-01, 4.18667756e-02, 1.93506386e-02, 3.21939379e-01,
          4.16810513e-01, 4.16810513e-01, 4.16810513e-01, 4.16810513e-01,
          4.05370384e-01, 4.05370384e-01, 4.05370384e-01, 4.05370384e-01,
          3.71284157e-01, 1.69157714e-01, 2.09666014e-01, 2.03792900e-01,
          2.94435412e-01, 4.14033741e-01, 3.58987361e-01, 1.07258685e-01,
          3.10897261e-01, 4.14033741e-01, 4.14033741e-01, 9.27358642e-02,
          2.54036903e-01, 4.14033741e-01, 4.70868677e-01, 2.58608490e-01,
          7.45767280e-02, 9.07377228e-02, 4.70868677e-01, 4.70868677e-01,
          8.72569457e-02, 1.41917035e-01, 4.70868677e-01, 4.10370171e-01,
          8.47064182e-02, 1.13025680e-01, 1.07874677e-01, 4.10370171e-01,
          4.10370171e-01, 4.10370171e-01, 4.10370171e-01, 3.49707395e-01,
          3.88112009e-01, 4.01387215e-01, 4.01387215e-01, 4.01387215e-01,
          4.01387215e-01, 3.23924035e-01, 2.52852440e-01, 1.19944893e-01,
          1.32908478e-01, 2.18550593e-01, 9.53973085e-02, 1.02902837e-01,
          4.99413550e-01, 4.99413550e-01, 2.39854798e-01, 6.73110113e-02,
          3.42425764e-01, 4.99413550e-01, 2.78889358e-01, 9.21251625e-02,
          8.09552073e-02, 5.04268587e-01, 5.04268587e-01, 1.68160439e-01,
          1.41791254e-01, 3.01497579e-01, 5.04268587e-01, 1.63517520e-01,
          6.01882264e-02, 1.13068059e-01, 3.98512632e-01, 3.98512632e-01,
          3.98512632e-01, 3.98512632e-01, 3.98512632e-01, 3.98512632e-01,
          4.04520854e-02, 1.80201873e-01, 3.77807140e-01, 3.96796942e-01,
          5.35587728e-01, 5.35587728e-01, 2.88949400e-01, 5.61796203e-02,
          0., 1.90580085e-01, 4.61218625e-01, 4.81440157e-01,
          4.81440157e-01, 4.81440157e-01, 1.38902128e-01, 1.14284769e-01,
          7.40696043e-02, 1.13811485e-01, 1.37674123e-01, 3.16713959e-01,
          2.39948481e-01, 4.66979891e-01, 4.66979891e-01, 4.07207608e-01,
          3.30578774e-01, 1.54290318e-01, 2.88881153e-01, 1.06713183e-01,
          1.16080366e-01, 8.30527842e-02, 4.09809262e-01, 4.09809262e-01,
          4.09809262e-01, 4.09809262e-01, 3.94124240e-01, 3.70186031e-01 ]
      - [ 4.72724915e-01, 3.39639574e-01, 4.72724915e-01, 6.14400022e-02,
          1.75644398e-01, 5.97611628e-02, 3.29044968e-01, 2.51095206e-01,
          4.72724915e-01, 4.23043787e-01, 4.23043787e-01, 4.23043787e-01,
          1.44961968e-01, 3.84664267e-01, 1.59666061e-01, 2.29920805e-01,
          1.80478320e-01, 4.23043787e-01, 4.67809498e-01, 4.67809498e-01,
          1.92248404e-01, 5.25917076e-02, 2.59223312e-01, 4.65347677e-01,
          1.39748305e-01, 1.23516083e-01, 4.46519405e-01, 4.29120451e-01,
          4.29120451e-01, 9.65571925e-02, 7.75474831e-02, 2.57867545e-01,
          4.29120451e-01, 3.09131622e-01, 2.85903841e-01, 4.29120451e-01,
          3.89969677e-01, 3.89969677e-01, 3.89969677e-01, 3.89969677e-01,
          3.03745985e-01, 2.13392481e-01, 1.99421003e-01, 2.41155148e-01,
          3.89969677e-01, 4.37749296e-01, 4.00017142e-01, 1.38479039e-01,
          1.73384666e-01, 4.37749296e-01, 4.37749296e-01, 9.82345343e-02,
          2.02845335e-01, 4.00880873e-01, 4.91932541e-01, 4.91932541e-01,
          5.70004396e-02, 3.67933363e-02, 4.91932541e-01, 4.91932541e-01,
          5.89317642e-02, 5.14990538e-02, 1.27938956e-01, 4.89924878e-01,
          4.17616218e-01, 7.36467987e-02, 7.74127543e-02, 4.89924878e-01,
          4.89924878e-01, 2.30886742e-01, 1.58657640e-01, 1.03570588e-01,
          3.95998091e-01, 3.95998091e-01, 3.95998091e-01, 3.95998091e-01,
          3.95998091e-01, 2.83465922e-01, 2.30700299e-01, 1.98418081e-01,
          1.97550461e-01, 3.31782311e-01, 1.24460824e-01, 2.17534482e-01,
          4.14453655e-01, 4.14453655e-01, 3.48812252e-01, 1.19210131e-01,
          4.14453655e-01, 4.14453655e-01, 2.23527074e-01, 1.14928737e-01,
          8.46578255e-02, 4.26038891e-01, 4.26038891e-01, 4.15493131e-01,
          1.63502470e-01, 4.26038891e-01, 4.26038891e-01, 4.21962559e-01,
          2.23266229e-01, 9.69098434e-02, 2.02370718e-01, 4.21962559e-01,
          2.64752269e-01, 3.36583257e-01, 4.21962559e-01, 4.21962559e-01,
          2.86945641e-01, 3.59068751e-01, 4.48497295e-01, 4.48497295e-01,
          4.48497295e-01, 2.02754587e-01, 3.02440405e-01, 9.19717774e-02,
          1.99409008e-01, 2.03058317e-01, 2.06392795e-01, 3.06782991e-01,
          4.81542677e-01, 4.81542677e-01, 2.24912599e-01, 2.15592146e-01,
          2.75311261e-01, 4.24988419e-01, 8.06279555e-02, 5.90688400e-02,
          9.57577750e-02, 5.04353940e-01, 5.04353940e-01, 7.19373748e-02,
          4.58610579e-02, 4.53217655e-01, 5.04353940e-01, 1.75074071e-01,
          6.39893934e-02, 4.02683802e-02, 4.71390396e-01, 4.71390396e-01,
          1.84885293e-01, 1.89489394e-01, 4.71390396e-01, 4.71390396e-01 ]
      - [ 4.60838377e-01, 4.60838377e-01, 4.60838377e-01, 2.52799600e-01,
          1.45239711e-01, 8.95169154e-02, 2.12471798e-01, 8.80287141e-02,
          4.60838377e-01, 4.55384105e-01, 4.55384105e-01, 3.96540254e-01,
          2.25910693e-01, 2.13315949e-01, 1.51838750e-01, 1.19008549e-01,
          2.86924660e-01, 4.55384105e-01, 4.86441195e-01, 4.86441195e-01,
          1.29356384e-01, 9.13954079e-02, 4.06163841e-01, 4.86441195e-01,
          1.16268411e-01, 1.14771448e-01, 2.61764050e-01, 3.88044775e-01,
          3.88044775e-01, 7.75222033e-02, 6.72142282e-02, 3.88044775e-01,
          3.88044775e-01, 3.88044775e-01, 2.86572188e-01, 3.88044775e-01,
          4.24509585e-01, 4.24509585e-01, 4.24509585e-01, 4.24509585e-01,
          1.57447174e-01, 2.71613687e-01, 2.14040369e-01, 2.60195643e-01,
          2.50693470e-01, 4.59670126e-01, 4.20822740e-01, 1.16682515e-01,
          1.66848794e-01, 4.59670126e-01, 4.59670126e-01, 7.80922547e-02,
          2.23237216e-01, 2.95026004e-01, 5.16418874e-01, 3.95355195e-01,
          6.57794327e-02, 7.53740966e-02, 5.16418874e-01, 5.16418874e-01,
          8.65291581e-02, 7.02083707e-02, 1.26675501e-01, 4.21295643e-01,
          2.70939738e-01, 1.51138589e-01, 2.84330577e-01, 4.21295643e-01,
          4.21295643e-01, 4.21295643e-01, 2.71363348e-01, 1.87345341e-01,
          2.77051389e-01, 4.13334340e-01, 4.22874302e-01, 4.22874302e-01,
          2.93586046e-01, 1.76278099e-01, 2.05070838e-01, 4.05284911e-01,
          2.58749068e-01, 1.74579233e-01, 9.06654075e-02, 1.76628143e-01,
          4.55366373e-01, 4.55366373e-01, 2.97664970e-01, 8.67029130e-02,
          4.55366373e-01, 4.55366373e-01, 2.48569891e-01, 1.09015934e-01,
          9.04946700e-02, 4.68156725e-01, 4.41024631e-01, 2.08573267e-01,
          1.33960471e-01, 4.68156725e-01, 4.68156725e-01, 3.73248011e-01,
          1.60089210e-01, 2.47168511e-01, 3.57241690e-01, 3.57063323e-01,
          1.84087649e-01, 4.00400221e-01, 4.00400221e-01, 4.00400221e-01,
          2.19108939e-01, 2.55010545e-01, 4.39201802e-01, 4.39201802e-01,
          4.39201802e-01, 2.32944325e-01, 3.30417782e-01, 2.71510124e-01,
          2.58306801e-01, 6.42488822e-02, 7.68545344e-02, 1.76021546e-01,
          5.51146924e-01, 5.51146924e-01, 1.60884529e-01, 8.19669366e-02,
          2.39353225e-01, 5.06023526e-01, 8.58595818e-02, 4.15882617e-02,
          1.27314612e-01, 4.94477242e-01, 4.94477242e-01, 5.98865226e-02,
          2.59820595e-02, 4.81628597e-01, 4.94477242e-01, 1.79029375e-01,
          7.44817480e-02, 1.84514686e-01, 4.36050236e-01, 4.36050236e-01,
          2.06071600e-01, 3.47814590e-01, 4.36050236e-01, 4.36050236e-01 ]
      - [ 4.88792002e-01, 5.45727193e-01, 5.45727193e-01, 0.,
          1.88751686e-02, 0., 1.28801614e-01, 2.04284400e-01,
          3.18304986e-01, 4.03171152e-01, 4.03171152e-01, 4.03171152e-01,
          1.85718849e-01, 9.00446773e-02, 2.85677314e-02, 3.73927474e-01,
          4.03171152e-01, 4.03171152e-01, 4.18005049e-01, 4.18005049e-01,
          3.71079564e-01, 1.25824407e-01, 1.13048859e-01, 2.59598017e-01,
          2.52367228e-01, 4.17429686e-01, 4.18005049e-01, 4.25800562e-01,
          2.97779948e-01, 1.74294382e-01, 8.78407806e-02, 1.27317145e-01,
          3.57134461e-01, 4.25800562e-01, 4.25800562e-01, 4.25800562e-01,
          5.00638485e-01, 5.21766663e-01, 5.21766663e-01, 3.75334442e-01,
          1.14361495e-01, 6.73918203e-02, 6.08221143e-02, 1.52392223e-01,
          1.19375154e-01, 3.77819926e-01, 3.77819926e-01, 3.60238254e-01,
          3.53153855e-01, 3.53095800e-01, 3.77819926e-01, 1.32605419e-01,
          1.77857846e-01, 3.73628318e-01, 4.48718697e-01, 4.48718697e-01,
          7.31793046e-02, 9.87312719e-02, 4.48718697e-01, 4.48718697e-01,
          1.25825614e-01, 2.05696791e-01, 3.41873705e-01, 3.96285146e-01,
          2.51137078e-01, 8.64709169e-02, 7.40757883e-02, 3.96285146e-01,
          3.96285146e-01, 3.96285146e-01, 3.96285146e-01, 3.67147684e-01,
          2.78205216e-01, 5.05250633e-01, 5.05250633e-01, 5.05250633e-01,
          3.02008063e-01, 1.07236162e-01, 4.32547443e-02, 1.10519223e-01,
          1.86887935e-01, 3.50570172e-01, 2.82848686e-01, 3.75527471e-01,
          3.98766518e-01, 3.98766518e-01, 2.47611284e-01, 1.65725455e-01,
          2.93721348e-01, 3.98766518e-01, 1.81528330e-01, 4.94006425e-02,
          6.08947724e-02, 4.56008971e-01, 4.56008971e-01, 3.28248441e-01,
          1.29693180e-01, 4.56008971e-01, 4.56008971e-01, 1.76878572e-01,
          5.55326380e-02, 6.84688389e-02, 4.01788086e-01, 3.86988342e-01,
          4.01788086e-01, 4.01788086e-01, 4.01788086e-01, 4.01788086e-01,
          1.89020008e-01, 5.34424901e-01, 5.34424901e-01, 2.90128738e-01,
          5.34424901e-01, 6.90695569e-02, 2.62116175e-02, 3.41546685e-02,
          1.06328264e-01, 2.49334604e-01, 2.91466624e-01, 3.97457570e-01,
          3.97457570e-01, 3.97457570e-01, 3.97457570e-01, 3.77377331e-01,
          1.68653205e-01, 2.14852050e-01, 1.27649441e-01, 9.77864340e-02,
          1.84763163e-01, 4.49101835e-01, 4.49101835e-01, 4.49101835e-01,
          2.75768816e-01, 2.29568586e-01, 4.49101835e-01, 9.89883542e-02,
          2.45222673e-02, 5.13962135e-02, 4.04745817e-01, 4.04745817e-01,
          4.04745817e-01, 4.04745817e-01, 4.04745817e-01, 4.04745817e-01 ]
      - [ 4.34035122e-01, 4.34035122e-01, 4.34035122e-01, 4.34035122e-01,
          9.25752893e-02, 1.32676616e-01, 1.03011534e-01, 1.30181655e-01,
          4.34035122e-01, 4.21947390e-01, 4.21947390e-01, 4.10115421e-01,
          1.95310503e-01, 1.04367450e-01, 4.21947390e-01, 1.55003324e-01,
          2.05832720e-01, 4.21947390e-01, 5.14428854e-01, 5.14428854e-01,
          8.53673816e-02, 6.90182149e-02, 2.40862384e-01, 5.14428854e-01,
          1.76082522e-01, 1.31954342e-01, 2.87173241e-01, 3.96673352e-01,
          3.96673352e-01, 5.40077016e-02, 2.13334467e-02, 2.87485719e-01,
          3.96673352e-01, 3.96673352e-01, 3.96673352e-01, 3.51096064e-01,
          5.01747251e-01, 5.01747251e-01, 5.01747251e-01, 4.23748851e-01,
          1.68428764e-01, 8.62912014e-02, 1.12906054e-01, 5.70399314e-02,
          9.14295912e-02, 4.53220814e-01, 4.53220814e-01, 2.69919306e-01,
          1.51870236e-01, 9.92430747e-02, 4.53220814e-01, 4.10497725e-01,
          1.45923033e-01, 2.89263844e-01, 4.83517647e-01, 4.83517647e-01,
          8.51561129e-02, 7.60108978e-02, 2.73855954e-01, 4.83517647e-01,
          3.08890283e-01, 1.80081874e-01, 2.79166311e-01, 3.86224985e-01,
          2.26364523e-01, 8.15031081e-02, 1.06139436e-01, 4.35005754e-01,
          4.35005754e-01, 4.35005754e-01, 3.14321846e-01, 3.32937837e-01,
          1.89244047e-01, 5.21888018e-01, 5.21888018e-01, 5.21888018e-01,
          3.41544092e-01, 5.47915883e-02, 1.23533554e-01, 7.74053857e-02,
          3.10914088e-02, 1.33420438e-01, 4.08720315e-01, 2.97723740e-01,
          4.08720315e-01, 4.08720315e-01, 2.96926707e-01, 2.16261268e-01,
          2.93824792e-01, 4.08720315e-01, 1.46029040e-01, 4.52896915e-02,
          7.22870603e-02, 4.85274047e-01, 4.85274047e-01, 1.22957714e-01,
          9.73139554e-02, 4.85274047e-01, 4.85274047e-01, 2.28358880e-01,
          5.74373342e-02, 4.60207388e-02, 4.17853922e-01, 3.69706690e-01,
          3.21201444e-01, 4.17853922e-01, 4.17853922e-01, 4.17853922e-01,
          1.57709986e-01, 4.87547487e-01, 4.87547487e-01, 2.96936184e-01,
          4.87547487e-01, 3.91145676e-01, 7.41484761e-02, 8.40825737e-02,
          5.84496148e-02, 1.34104311e-01, 3.47309321e-01, 4.68126118e-01,
          4.68126118e-01, 4.68126118e-01, 2.70895362e-01, 1.95107535e-01,
          1.67340919e-01, 2.44614154e-01, 7.59695098e-02, 1.00630671e-01,
          2.49671489e-01, 4.70284551e-01, 4.70284551e-01, 3.34846228e-01,
          2.78723180e-01, 2.52502710e-01, 4.70284551e-01, 4.99288104e-02,
          1.33522572e-02, 5.20836785e-02, 4.06316191e-01, 4.06316191e-01,
          4.06316191e-01, 4.06316191e-01, 4.06316191e-01, 4.06316191e-01 ]
      - [ 5.21023631e-01, 5.21023631e-01, 2.40669578e-01, 1.05587333e-01,
          2.73856949e-02, 5.70023339e-03, 2.23716363e-01, 2.45963201e-01,
          5.21023631e-01, 5.35013855e-01, 5.35013855e-01, 1.88017413e-01,
          5.02730161e-02, 1.94265544e-01, 5.35013855e-01, 5.07191233e-02,
          3.30382250e-02, 2.38026589e-01, 4.88813221e-01, 4.88813221e-01,
          7.51515925e-02, 4.32372577e-02, 4.59708244e-01, 4.88813221e-01,
          6.48519173e-02, 3.58903222e-02, 2.32292995e-01, 4.68730927e-01,
          4.27687585e-01, 3.98455299e-02, 6.02479428e-02, 4.68730927e-01,
          4.68730927e-01, 2.95792371e-01, 1.37766257e-01, 2.03924730e-01,
          4.07783568e-01, 4.07783568e-01, 4.07783568e-01, 2.87383825e-01,
          2.99622506e-01, 3.98183376e-01, 1.96428195e-01, 1.50738448e-01,
          3.23797703e-01, 4.41588879e-01, 4.41588879e-01, 5.22915423e-02,
          8.62059742e-02, 4.25523549e-01, 4.41588879e-01, 1.21203020e-01,
          9.82835963e-02, 4.41588879e-01, 4.62309420e-01, 4.28449035e-01,
          6.84841722e-02, 7.28814676e-02, 4.62309420e-01, 4.62309420e-01,
          2.29387090e-01, 1.29107714e-01, 3.02216291e-01, 3.20169270e-01,
          1.13996692e-01, 8.35639834e-02, 1.47057265e-01, 6.07140124e-01,
          6.07140124e-01, 2.78914690e-01, 1.10936448e-01, 1.49956763e-01,
          2.44382009e-01, 4.03077692e-01, 4.03077692e-01, 4.03077692e-01,
          4.03077692e-01, 2.40189552e-01, 2.73833364e-01, 2.56004333e-01,
          2.96900779e-01, 2.09383756e-01, 1.10340744e-01, 7.85219297e-02,
          5.06496072e-01, 5.06496072e-01, 3.13941717e-01, 9.07270834e-02,
          2.37388894e-01, 5.06496072e-01, 1.99217096e-01, 5.70161529e-02,
          3.32396477e-02, 5.20391583e-01, 5.20391583e-01, 1.06462672e-01,
          5.36701642e-02, 3.52310508e-01, 5.20391583e-01, 3.07884157e-01,
          1.04431584e-01, 8.80166143e-02, 4.91222352e-01, 3.74432981e-01,
          8.74278396e-02, 9.95311141e-02, 4.91222352e-01, 4.91222352e-01,
          5.38922437e-02, 2.08127394e-01, 4.14911747e-01, 4.14911747e-01,
          4.14911747e-01, 4.14911747e-01, 4.14911747e-01, 2.75227994e-01,
          1.14562802e-01, 1.37520850e-01, 1.66280329e-01, 4.16781008e-01,
          5.65640271e-01, 5.65640271e-01, 2.22734213e-01, 1.28127635e-01,
          1.29262060e-01, 2.26826504e-01, 1.14566095e-01, 8.99435207e-02,
          1.59956142e-01, 5.35414517e-01, 5.35414517e-01, 1.63591027e-01,
          1.40307039e-01, 2.03464046e-01, 5.35414517e-01, 7.11377561e-02,
          6.13728575e-02, 2.01366365e-01, 4.45609242e-01, 4.45609242e-01,
          3.32122624e-01, 2.03954324e-01, 4.45609242e-01, 4.45609242e-01 ]
      - [ 4.67107296e-01, 4.67107296e-01, 4.67107296e-01, 1.13253251e-01,
          4.19146717e-02, 3.51157673e-02, 2.47291490e-01, 2.13560119e-01,
          4.67107296e-01, 4.90463108e-01, 4.90463108e-01, 1.65387020e-01,
          1.13601439e-01, 3.09217930e-01, 3.52201879e-01, 4.96775098e-02,
          1.05125606e-01, 4.90463108e-01, 4.76031929e-01, 4.76031929e-01,
          6.77777603e-02, 8.43023807e-02, 4.76031929e-01, 4.76031929e-01,
          2.55865585e-02, 1.02803521e-01, 2.56701887e-01, 4.73954409e-01,
          4.73954409e-01, 5.28671443e-02, 3.91338579e-02, 4.73954409e-01,
          4.73954409e-01, 1.39617771e-01, 1.52886122e-01, 2.22578838e-01,
          3.97790134e-01, 3.97790134e-01, 3.97790134e-01, 3.97790134e-01,
          2.57589340e-01, 3.97790134e-01, 1.25294790e-01, 1.94107234e-01,
          2.91740447e-01, 4.59980935e-01, 3.12257349e-01, 4.24919836e-02,
          1.25533491e-01, 4.59980935e-01, 4.59980935e-01, 4.85639088e-02,
          1.77899733e-01, 4.59980935e-01, 5.15121341e-01, 3.24922889e-01,
          7.54901171e-02, 1.28568903e-01, 5.15121341e-01, 5.15121341e-01,
          1.46506131e-01, 1.10229164e-01, 1.93357959e-01, 5.08925378e-01,
          2.00124651e-01, 9.26591456e-02, 1.76355451e-01, 5.08925378e-01,
          5.08925378e-01, 2.95219123e-01, 2.00480103e-01, 1.04013845e-01,
          2.13089228e-01, 2.57384211e-01, 4.37599748e-01, 4.37599748e-01,
          4.37599748e-01, 2.17118770e-01, 1.36921749e-01, 2.98774183e-01,
          3.92861933e-01, 1.14899717e-01, 5.36259413e-02, 6.38115853e-02,
          4.82410520e-01, 4.82410520e-01, 2.02392235e-01, 5.64778708e-02,
          4.82410520e-01, 4.82410520e-01, 2.04015628e-01, 1.30653724e-01,
          9.00959074e-02, 4.91500139e-01, 4.04999048e-01, 1.05522372e-01,
          1.68536484e-01, 4.91500139e-01, 4.91500139e-01, 4.79407042e-01,
          3.17203879e-01, 9.63316634e-02, 2.22453728e-01, 2.63054043e-01,
          1.29725486e-01, 2.45577961e-01, 4.79407042e-01, 4.79407042e-01,
          6.54265508e-02, 3.08987767e-01, 4.70760882e-01, 4.70760882e-01,
          4.70760882e-01, 3.17814916e-01, 3.33937854e-01, 8.86831507e-02,
          1.01543069e-01, 1.26242206e-01, 1.11181535e-01, 3.51300269e-01,
          4.77695912e-01, 4.77695912e-01, 2.59197533e-01, 1.39482945e-01,
          2.80147880e-01, 4.71179456e-01, 9.98085663e-02, 6.27909824e-02,
          1.52742073e-01, 5.15874505e-01, 5.15874505e-01, 8.98958817e-02,
          6.88564405e-02, 3.82637292e-01, 5.15874505e-01, 1.64295822e-01,
          4.71844859e-02, 2.76841912e-02, 4.86648470e-01, 4.86648470e-01,
          1.54268652e-01, 1.17623530e-01, 4.65874761e-01, 4.86648470e-01 ]
      - [ 4.51724589e-01, 4.51724589e-01, 4.51724589e-01, 3.52711499e-01,
          6.34137765e-02, 0., 8.14769641e-02, 2.10243553e-01,
          4.51724589e-01, 4.37760830e-01, 4.37760830e-01, 4.37760830e-01,
          2.51099110e-01, 2.21917361e-01, 1.70084715e-01, 2.07424641e-01,
          2.11747795e-01, 4.37760830e-01, 4.20561045e-01, 4.20561045e-01,
          1.07931502e-01, 9.62423757e-02, 2.48017028e-01, 4.20561045e-01,
          3.95821631e-01, 2.99471438e-01, 3.69326234e-01, 3.71724248e-01,
          3.71724248e-01, 1.91473827e-01, 1.74895570e-01, 3.16167921e-01,
          3.71724248e-01, 3.71724248e-01, 3.71724248e-01, 3.71724248e-01,
          4.00803775e-01, 4.00803775e-01, 4.00803775e-01, 4.00803775e-01,
          3.87455404e-01, 1.28736004e-01, 1.06755145e-01, 1.21187016e-01,
          4.00803775e-01, 4.07391131e-01, 4.07391131e-01, 1.16362385e-01,
          3.28840643e-01, 4.07391131e-01, 4.07391131e-01, 1.45346835e-01,
          1.52612701e-01, 4.07391131e-01, 4.20376748e-01, 4.20376748e-01,
          8.73668417e-02, 1.42170787e-01, 4.20376748e-01, 4.20376748e-01,
          2.23468244e-01, 1.85564473e-01, 4.20376748e-01, 3.58448833e-01,
          2.66099423e-01, 2.34186620e-01, 3.15995514e-01, 3.58448833e-01,
          3.58448833e-01, 3.58448833e-01, 3.58448833e-01, 3.58448833e-01,
          3.78198117e-01, 3.88622612e-01, 3.88622612e-01, 3.88622612e-01,
          3.88622612e-01, 3.22195381e-01, 2.25140527e-01, 1.75882474e-01,
          2.52073258e-01, 2.98232764e-01, 2.46099636e-01, 1.41617417e-01,
          4.71968234e-01, 4.71968234e-01, 3.35273713e-01, 1.17260948e-01,
          1.76923588e-01, 4.71968234e-01, 1.82913736e-01, 5.05832955e-02,
          1.06170602e-01, 4.62088108e-01, 4.62088108e-01, 2.68248796e-01,
          2.16055587e-01, 4.34605926e-01, 4.62088108e-01, 2.84927219e-01,
          3.00152767e-02, 1.35228589e-01, 3.92667174e-01, 3.53225768e-01,
          3.92667174e-01, 3.92667174e-01, 3.92667174e-01, 3.92667174e-01,
          2.35455200e-01, 3.68282199e-01, 5.30216932e-01, 1.16435044e-01,
          5.30216932e-01, 2.45770082e-01, 3.45199972e-01, 1.04565233e-01,
          1.93176344e-01, 3.43732387e-01, 3.80428642e-01, 3.80428642e-01,
          3.80428642e-01, 3.80428642e-01, 3.80428642e-01, 3.10697556e-01,
          7.19955638e-02, 2.29568139e-01, 1.59733832e-01, 1.64584354e-01,
          4.10119206e-01, 4.10119206e-01, 4.10119206e-01, 4.10119206e-01,
          4.10119206e-01, 1.85742944e-01, 2.60405183e-01, 1.99775085e-01,
          4.76573072e-02, 2.46780202e-01, 4.00793135e-01, 4.00793135e-01,
          4.00793135e-01, 4.00793135e-01, 4.00793135e-01, 2.99564093e-01 ]
      - [ 4.62285906e-01, 4.62285906e-01, 4.62285906e-01, 1.16233125e-01,
          1.62900954e-01, 2.51205891e-01, 1.87464356e-01, 4.74883243e-02,
          4.62285906e-01, 4.67521995e-01, 4.67521995e-01, 2.52219111e-01,
          8.66294578e-02, 2.85601139e-01, 4.67521995e-01, 1.89351693e-01,
          1.19207650e-01, 3.69929850e-01, 4.16538715e-01, 4.16538715e-01,
          5.66267557e-02, 5.94115928e-02, 2.90280342e-01, 4.16538715e-01,
          3.56327087e-01, 3.06906104e-01, 4.03938323e-01, 3.92784685e-01,
          2.08814919e-01, 1.64365754e-01, 1.95684835e-01, 3.40241998e-01,
          3.92784685e-01, 3.92784685e-01, 3.92784685e-01, 3.92784685e-01,
          3.97104174e-01, 3.97104174e-01, 3.97104174e-01, 3.97104174e-01,
          2.58936197e-01, 3.63938451e-01, 1.65186584e-01, 1.14563093e-01,
          3.54055882e-01, 4.59475338e-01, 4.59475338e-01, 8.43023956e-02,
          1.52780637e-01, 3.64510417e-01, 4.59475338e-01, 1.05055735e-01,
          1.75342754e-01, 3.96180928e-01, 4.42358732e-01, 4.21810895e-01,
          1.12388417e-01, 1.32563636e-01, 4.42358732e-01, 4.42358732e-01,
          3.40613753e-01, 2.31175616e-01, 1.75923184e-01, 2.33897626e-01,
          1.22671731e-01, 1.30940422e-01, 2.24181801e-01, 4.52010244e-01,
          4.52010244e-01, 4.52010244e-01, 4.52010244e-01, 2.02663824e-01,
          3.81542593e-01, 3.92658681e-01, 3.92658681e-01, 3.92658681e-01,
          3.92658681e-01, 2.17963070e-01, 1.48726061e-01, 2.16647148e-01,
          3.42368126e-01, 1.65586442e-01, 8.65700394e-02, 8.24168026e-02,
          4.64949936e-01, 4.64949936e-01, 2.89423287e-01, 7.19057471e-02,
          4.64949936e-01, 4.64949936e-01, 1.58980012e-01, 6.84450045e-02,
          4.60188724e-02, 4.77398962e-01, 4.77398962e-01, 1.29801095e-01,
          1.86190739e-01, 4.77398962e-01, 4.77398962e-01, 3.97449434e-01,
          2.61227161e-01, 3.26809362e-02, 1.99427992e-01, 3.11641037e-01,
          3.97449434e-01, 3.97449434e-01, 3.97449434e-01, 3.97449434e-01,
          2.15959221e-01, 4.13237631e-01, 4.13237631e-01, 4.13237631e-01,
          4.13237631e-01, 4.13237631e-01, 2.39333898e-01, 1.23851590e-01,
          1.50953725e-01, 1.58137709e-01, 3.20852935e-01, 3.59590948e-01,
          4.72318381e-01, 4.72318381e-01, 4.03342277e-01, 1.59387380e-01,
          1.13301262e-01, 3.01540762e-01, 1.15701914e-01, 1.29354551e-01,
          8.23051631e-02, 4.36063588e-01, 4.36063588e-01, 4.36063588e-01,
          2.60160744e-01, 3.61193955e-01, 4.36063588e-01, 1.86593190e-01,
          6.72307760e-02, 5.03932461e-02, 3.98777217e-01, 3.98777217e-01,
          3.98777217e-01, 3.98777217e-01, 3.98777217e-01, 3.98777217e-01 ]
      - [ 6.96801543e-01, 4.19352144e-01, 3.38497967e-01, 1.42829344e-01,
          4.51586135e-02, 0., 0., 8.89633000e-02, 4.31293249e-01,
          4.91211146e-01, 4.91211146e-01, 3.00493777e-01, 1.33797869e-01,
          9.28004831e-02, 1.41709924e-01, 1.40000790e-01, 3.38727683e-01,
          4.91211146e-01, 4.43185955e-01, 4.43185955e-01, 3.23745832e-02,
          1.23123629e-02, 7.20666423e-02, 4.43185955e-01, 3.17384273e-01,
          3.20611477e-01, 4.43185955e-01, 4.03919995e-01, 4.03919995e-01,
          7.43083060e-02, 7.04325959e-02, 8.10815021e-02, 4.03919995e-01,
          4.03919995e-01, 4.03919995e-01, 4.03919995e-01, 4.68579829e-01,
          4.68579829e-01, 4.68579829e-01, 4.03213799e-01, 2.06026390e-01,
          5.19804619e-02, 7.76011720e-02, 5.66353984e-02, 3.45917523e-01,
          4.78507280e-01, 4.78507280e-01, 1.30718648e-01, 1.34687796e-01,
          2.77170599e-01, 4.78507280e-01, 1.86068133e-01, 1.06617071e-01,
          3.87650251e-01, 4.71073449e-01, 4.71073449e-01, 2.41289530e-02,
          3.74164656e-02, 4.30517763e-01, 4.71073449e-01, 2.75395423e-01,
          1.19510934e-01, 2.28278428e-01, 3.68402570e-01, 3.72537255e-01,
          8.07775632e-02, 6.63363487e-02, 3.96417230e-01, 3.96417230e-01,
          3.96417230e-01, 3.96417230e-01, 2.86396980e-01, 3.99341851e-01,
          3.99341851e-01, 3.99341851e-01, 3.99341851e-01, 3.99341851e-01,
          2.96976447e-01, 1.44202098e-01, 1.52275100e-01, 2.57806152e-01,
          4.11371469e-01, 3.02479267e-01, 1.18882410e-01, 4.11371469e-01,
          4.11371469e-01, 4.11371469e-01, 1.53889686e-01, 1.43000990e-01,
          4.11371469e-01, 4.30521965e-01, 5.34836724e-02, 3.59082147e-02,
          4.30521965e-01, 4.30521965e-01, 3.06868076e-01, 1.45036623e-01,
          3.67354333e-01, 4.30521965e-01, 3.92609894e-01, 4.99838963e-02,
          6.09790012e-02, 2.54962415e-01, 3.92609894e-01, 3.92609894e-01,
          3.92609894e-01, 3.92609894e-01, 3.92609894e-01, 2.01142311e-01,
          3.08409244e-01, 4.18713719e-01, 4.18713719e-01, 4.18713719e-01,
          4.03486311e-01, 3.12679291e-01, 2.33115524e-01, 1.39165029e-01,
          9.58448276e-02, 3.02530408e-01, 2.62310654e-01, 6.04364336e-01,
          6.04364336e-01, 1.51109263e-01, 1.79563791e-01, 1.54526547e-01,
          1.22391582e-01, 1.66044801e-01, 1.11716576e-01, 1.25551492e-01,
          4.88563448e-01, 4.88563448e-01, 3.31140161e-01, 2.40312621e-01,
          2.36260429e-01, 4.88563448e-01, 1.81731716e-01, 6.17238088e-03,
          1.84716806e-02, 4.02844578e-01, 4.02844578e-01, 4.02844578e-01,
          4.02844578e-01, 4.02844578e-01, 3.88781816e-01 ]
      - [ 4.52781647e-01, 4.52781647e-01, 4.52781647e-01, 1.02959871e-01,
          2.52601445e-01, 4.95019071e-02, 5.35883792e-02, 3.09357494e-01,
          4.52781647e-01, 4.01091397e-01, 4.01091397e-01, 4.01091397e-01,
          9.71658155e-02, 3.79393727e-01, 6.29435256e-02, 1.85145482e-01,
          4.01091397e-01, 4.01091397e-01, 4.80055183e-01, 4.80055183e-01,
          2.65206397e-01, 4.77875732e-02, 1.83266610e-01, 1.68822035e-01,
          2.32977569e-01, 3.38913172e-01, 4.80055183e-01, 3.98264378e-01,
          3.31104964e-01, 2.15911880e-01, 9.72392336e-02, 1.92989290e-01,
          3.98264378e-01, 3.98264378e-01, 3.98264378e-01, 3.98264378e-01,
          4.09397930e-01, 4.09397930e-01, 4.09397930e-01, 4.09397930e-01,
          3.10282886e-01, 8.11775178e-02, 2.27924168e-01, 1.09958939e-01,
          3.98218423e-01, 4.01519269e-01, 3.54025304e-01, 1.80105940e-01,
          3.69547933e-01, 4.01519269e-01, 4.01519269e-01, 1.30826458e-01,
          1.99160084e-01, 4.01519269e-01, 4.71016020e-01, 2.51156092e-01,
          4.01687510e-02, 6.05329871e-02, 4.71016020e-01, 4.71016020e-01,
          1.25522241e-01, 1.58130556e-01, 4.69690174e-01, 4.00158167e-01,
          1.49509415e-01, 5.27973473e-02, 1.00510396e-01, 4.00158167e-01,
          4.00158167e-01, 4.00158167e-01, 4.00158167e-01, 4.00158167e-01,
          4.11785841e-01, 4.11785841e-01, 4.11785841e-01, 4.11785841e-01,
          4.11785841e-01, 2.51252800e-01, 1.68117940e-01, 1.04049198e-01,
          2.14080930e-01, 3.43063980e-01, 1.11861534e-01, 1.80739045e-01,
          4.64241177e-01, 4.64241177e-01, 2.74696678e-01, 9.32041183e-02,
          3.19038659e-01, 4.64241177e-01, 2.05658630e-01, 6.54737949e-02,
          5.98548092e-02, 4.62939113e-01, 4.62939113e-01, 2.39401937e-01,
          1.75063670e-01, 4.62939113e-01, 4.62939113e-01, 2.67288595e-01,
          9.44119990e-02, 1.22429065e-01, 3.34825069e-01, 3.97134513e-01,
          3.97134513e-01, 3.97134513e-01, 3.97134513e-01, 3.97134513e-01,
          0., 7.34368488e-02, 2.91022956e-01, 4.96068120e-01,
          6.03514135e-01, 5.36947846e-01, 7.25320950e-02, 0., 0.,
          2.11564183e-01, 3.08866054e-01, 4.73468304e-01, 4.73468304e-01,
          4.73468304e-01, 1.94398582e-01, 1.88124642e-01, 2.43540592e-02,
          3.29881579e-01, 1.91865459e-01, 1.42666921e-01, 2.39289552e-01,
          4.53333378e-01, 4.53333378e-01, 3.52378398e-01, 3.37932736e-01,
          2.51375645e-01, 4.10445005e-01, 1.87974930e-01, 1.08790971e-01,
          2.30578199e-01, 3.88628453e-01, 3.88628453e-01, 3.88628453e-01,
          3.88628453e-01, 3.88628453e-01, 3.74994308e-01 ]
      - [ 4.42897886e-01, 4.42897886e-01, 4.42897886e-01, 1.81246456e-02,
          2.97473669e-01, 3.72486487e-02, 2.80739188e-01, 2.04745457e-01,
          4.42897886e-01, 4.50507402e-01, 4.50507402e-01, 4.50507402e-01,
          1.22541331e-01, 2.45848253e-01, 6.41980246e-02, 2.46945992e-01,
          2.07631528e-01, 4.50507402e-01, 4.75672334e-01, 4.75672334e-01,
          2.35482886e-01, 1.80593327e-01, 3.04638892e-01, 2.94544786e-01,
          1.14164561e-01, 1.89196318e-01, 4.75672334e-01, 3.83361012e-01,
          2.77342975e-01, 1.86705902e-01, 5.09692319e-02, 3.83361012e-01,
          3.83361012e-01, 3.83361012e-01, 3.83361012e-01, 3.83361012e-01,
          4.18006033e-01, 4.18006033e-01, 4.18006033e-01, 3.26627314e-01,
          2.74239093e-01, 2.71002024e-01, 1.32876068e-01, 1.79637507e-01,
          4.07893419e-01, 4.65770483e-01, 3.49031717e-01, 5.82265295e-02,
          7.69365802e-02, 4.65770483e-01, 4.65770483e-01, 5.52397408e-02,
          7.58118555e-02, 4.52316016e-01, 5.24307489e-01, 3.04139316e-01,
          5.91213033e-02, 6.74126893e-02, 5.24307489e-01, 5.24307489e-01,
          8.11903849e-02, 5.63158616e-02, 2.44468540e-01, 4.63833570e-01,
          1.74684256e-01, 1.12357281e-01, 1.19003907e-01, 4.63833570e-01,
          4.63833570e-01, 4.22762334e-01, 1.95736215e-01, 2.74956286e-01,
          3.87456864e-01, 3.75213563e-01, 3.87456864e-01, 3.87456864e-01,
          3.87456864e-01, 2.03004092e-01, 1.65548801e-01, 1.90033376e-01,
          3.87456864e-01, 3.45199794e-01, 6.18636906e-02, 5.20294048e-02,
          4.57570463e-01, 4.57570463e-01, 3.80948573e-01, 7.14384317e-02,
          3.02315801e-01, 4.57570463e-01, 2.78105319e-01, 9.36091319e-02,
          8.88853073e-02, 4.79036957e-01, 4.79036957e-01, 2.33401477e-01,
          9.15147811e-02, 3.87206852e-01, 4.79036957e-01, 3.92742723e-01,
          1.84289873e-01, 1.71939671e-01, 3.50477129e-01, 3.92742723e-01,
          1.96168423e-01, 3.92742723e-01, 3.92742723e-01, 3.92742723e-01,
          2.88216144e-01, 2.67757386e-01, 3.98299903e-01, 3.98299903e-01,
          3.98299903e-01, 2.51625329e-01, 3.98299903e-01, 2.71859050e-01,
          2.63561457e-01, 1.38924271e-01, 1.26137033e-01, 3.69320452e-01,
          4.47296590e-01, 4.47296590e-01, 1.16660945e-01, 3.81740481e-01,
          2.53703713e-01, 4.47296590e-01, 1.69773877e-01, 9.25865918e-02,
          1.93292990e-01, 5.19113839e-01, 5.19113839e-01, 1.68432906e-01,
          1.40252098e-01, 2.52151251e-01, 5.19113839e-01, 2.48820052e-01,
          1.14042334e-01, 1.00415982e-01, 3.89680773e-01, 3.89680773e-01,
          3.89680773e-01, 3.89680773e-01, 3.89680773e-01, 3.89680773e-01 ]
      - [ 4.38336700e-01, 3.77405524e-01, 5.01630962e-01, 1.45610064e-01,
          9.76569280e-02, 1.07798688e-02, 4.29309309e-02, 3.52775216e-01,
          5.01630962e-01, 4.40131485e-01, 4.40131485e-01, 4.40131485e-01,
          1.55627564e-01, 1.09920271e-01, 6.20873310e-02, 1.85650349e-01,
          3.82252842e-01, 4.40131485e-01, 4.05222952e-01, 4.05222952e-01,
          2.18560651e-01, 1.85062706e-01, 2.99125552e-01, 4.05222952e-01,
          2.32402608e-01, 3.37083638e-01, 4.05222952e-01, 3.91355246e-01,
          2.72940636e-01, 1.66878670e-01, 1.86177522e-01, 3.05431604e-01,
          3.91355246e-01, 3.91355246e-01, 3.91355246e-01, 3.91355246e-01,
          4.90757853e-01, 4.90757853e-01, 4.90757853e-01, 4.90757853e-01,
          5.79978302e-02, 4.83084768e-02, 5.69080226e-02, 5.92312999e-02,
          1.38855726e-01, 3.80341649e-01, 3.80341649e-01, 2.55166978e-01,
          3.80341649e-01, 3.59975427e-01, 3.80341649e-01, 1.41340688e-01,
          2.41312534e-01, 3.80341649e-01, 4.36482489e-01, 4.10609782e-01,
          7.44494870e-02, 9.08039361e-02, 4.36482489e-01, 4.36482489e-01,
          1.47242889e-01, 2.02600941e-01, 4.23052132e-01, 3.91028017e-01,
          2.02835649e-01, 1.39180973e-01, 2.25070387e-01, 3.91028017e-01,
          3.91028017e-01, 3.91028017e-01, 3.91028017e-01, 3.46999466e-01,
          2.30588034e-01, 5.26507735e-01, 5.26507735e-01, 5.26507735e-01,
          3.01747352e-01, 3.66195254e-02, 8.09668452e-02, 8.26872066e-02,
          6.44555688e-02, 2.21720353e-01, 2.24659830e-01, 3.03984135e-01,
          4.39994574e-01, 4.39994574e-01, 2.75746226e-01, 1.35814607e-01,
          3.58188987e-01, 4.39994574e-01, 1.57845929e-01, 6.39797673e-02,
          1.71006382e-01, 4.55179304e-01, 4.55179304e-01, 2.43165746e-01,
          2.22078919e-01, 4.55179304e-01, 4.55179304e-01, 2.22209513e-01,
          7.77336136e-02, 1.85854584e-01, 3.84848326e-01, 3.74471813e-01,
          3.92993361e-01, 3.92993361e-01, 3.92993361e-01, 3.92993361e-01,
          3.47082913e-02, 3.03937584e-01, 5.72528839e-01, 4.64509010e-01,
          5.72528839e-01, 3.53681445e-02, 1.57978773e-01, 4.76031639e-02,
          2.96439398e-02, 2.39388511e-01, 3.61415744e-01, 4.02374476e-01,
          4.02374476e-01, 4.02374476e-01, 1.68396756e-01, 4.02374476e-01,
          3.22412848e-01, 1.67701289e-01, 9.01955739e-02, 7.08661824e-02,
          3.85541022e-01, 3.85541022e-01, 3.85541022e-01, 3.79780293e-01,
          3.79839092e-01, 3.85541022e-01, 3.16089600e-01, 1.17147654e-01,
          8.66525918e-02, 3.15733403e-01, 3.93721908e-01, 3.93721908e-01,
          3.93721908e-01, 3.93721908e-01, 3.93721908e-01, 3.16326171e-01 ]
      - [ 4.68728304e-01, 4.68728304e-01, 4.68728304e-01, 2.47713421e-02,
          4.68728304e-01, 2.02925876e-01, 7.24196509e-02, 8.02216455e-02,
          2.51039147e-01, 5.14024258e-01, 5.14024258e-01, 2.27160409e-01,
          5.14199911e-03, 2.67774940e-01, 5.14024258e-01, 1.52347982e-01,
          7.38454312e-02, 2.24073023e-01, 4.56344426e-01, 3.88727069e-01,
          3.18716839e-02, 5.78701608e-02, 4.56344426e-01, 4.56344426e-01,
          5.16036153e-02, 6.56086132e-02, 4.56344426e-01, 3.92776132e-01,
          5.16363904e-02, 3.69096249e-02, 2.66714394e-01, 3.92776132e-01,
          3.92776132e-01, 3.86711210e-01, 3.92776132e-01, 3.92776132e-01,
          2.74035305e-01, 5.91158152e-01, 5.91158152e-01, 9.43223983e-02,
          1.49693951e-01, 9.98781621e-02, 4.18549120e-01, 3.53175774e-02,
          4.85236645e-02, 4.59165394e-01, 4.59165394e-01, 3.70299429e-01,
          2.36538034e-02, 8.80609304e-02, 4.59165394e-01, 4.59165394e-01,
          5.79524934e-02, 5.73397279e-02, 3.79056811e-01, 3.52869332e-01,
          1.14649668e-01, 3.34895313e-01, 3.79056811e-01, 3.79056811e-01,
          1.67262137e-01, 3.79056811e-01, 3.79056811e-01, 1.82770312e-01,
          1.20740145e-01, 2.72815675e-01, 3.81614119e-01, 3.81614119e-01,
          3.81614119e-01, 3.81614119e-01, 3.81614119e-01, 3.81614119e-01,
          8.01825523e-02, 5.34397125e-01, 5.34397125e-01, 3.03706974e-01,
          6.27763718e-02, 2.99838074e-02, 5.34397125e-01, 1.79169759e-01,
          4.80978079e-02, 2.42091179e-01, 4.51827675e-01, 4.51827675e-01,
          1.62877262e-01, 4.85982224e-02, 4.51827675e-01, 4.51827675e-01,
          2.86549836e-01, 9.63537991e-02, 2.47131228e-01, 3.11493158e-01,
          3.46088439e-01, 3.46088439e-01, 3.46088439e-01, 3.46088439e-01,
          3.46088439e-01, 3.46088439e-01, 3.46088439e-01, 9.77971405e-02,
          1.37381732e-01, 4.54993814e-01, 4.54993814e-01, 1.06853090e-01,
          1.31279930e-01, 4.54993814e-01, 4.54993814e-01, 3.32095921e-01,
          1.80817202e-01, 5.15371859e-01, 5.46158016e-01, 5.46158016e-01,
          2.84742028e-01, 3.19741927e-02, 5.57207875e-02, 4.18917164e-02,
          1.12718709e-01, 7.14391619e-02, 2.16731697e-01, 4.09249932e-01,
          4.09249932e-01, 4.02942896e-01, 4.09249932e-01, 4.09249932e-01,
          3.21785420e-01, 8.93556401e-02, 2.09903926e-01, 3.83687347e-01,
          3.83687347e-01, 3.83687347e-01, 3.07411760e-01, 3.83687347e-01,
          3.83687347e-01, 3.19944382e-01, 1.38422266e-01, 1.27855852e-01,
          4.28456128e-01, 4.28456128e-01, 2.64540434e-01, 1.20293617e-01,
          3.94299626e-01, 4.28456128e-01, 4.28456128e-01, 7.17626587e-02 ]
      - [ 3.89633030e-01, 3.89633030e-01, 3.89633030e-01, 3.23579073e-01,
          1.74241170e-01, 2.99704313e-01, 2.54937798e-01, 3.14599246e-01,
          3.89633030e-01, 4.67662424e-01, 3.68946493e-01, 8.24743137e-02,
          5.95541410e-02, 4.67662424e-01, 4.67662424e-01, 8.25685486e-02,
          5.38938753e-02, 4.27799314e-01, 4.78924572e-01, 9.31730047e-02,
          4.78551351e-02, 1.63491040e-01, 4.78924572e-01, 4.66441929e-01,
          1.07962959e-01, 2.00463444e-01, 4.78924572e-01, 3.91337961e-01,
          4.60467488e-02, 2.68265568e-02, 2.72723585e-01, 3.91337961e-01,
          3.91337961e-01, 3.91337961e-01, 3.91337961e-01, 3.91337961e-01,
          4.37145054e-01, 4.37145054e-01, 4.37145054e-01, 8.50031674e-02,
          9.72563028e-02, 4.37145054e-01, 4.37145054e-01, 1.26675427e-01,
          8.61588940e-02, 4.29666579e-01, 4.29666579e-01, 7.02762827e-02,
          1.04232728e-01, 4.29666579e-01, 4.29666579e-01, 2.23801702e-01,
          8.21626559e-02, 4.29666579e-01, 3.94881278e-01, 1.18809640e-01,
          1.51528642e-01, 3.94881278e-01, 3.94881278e-01, 3.94881278e-01,
          1.52941808e-01, 3.94881278e-01, 3.94881278e-01, 3.34894240e-01,
          1.66674659e-01, 8.78101587e-02, 3.31288427e-01, 3.84385943e-01,
          3.84385943e-01, 3.84385943e-01, 3.84385943e-01, 3.84385943e-01,
          3.00126284e-01, 4.47398752e-01, 4.47398752e-01, 1.86246783e-01,
          7.63755590e-02, 4.47398752e-01, 4.47398752e-01, 2.38425896e-01,
          8.61663744e-02, 3.96694154e-01, 3.96694154e-01, 1.88302323e-01,
          2.54991621e-01, 3.96694154e-01, 3.96694154e-01, 3.96694154e-01,
          1.90131530e-01, 2.69401819e-01, 1.19885780e-01, 1.52669787e-01,
          4.16709393e-01, 4.16709393e-01, 3.75480741e-01, 1.08719341e-01,
          3.32812220e-01, 4.16709393e-01, 4.16709393e-01, 1.43306091e-01,
          1.68046370e-01, 4.71325964e-01, 2.79703170e-01, 1.28012165e-01,
          2.70021141e-01, 4.71325964e-01, 4.71325964e-01, 3.35468620e-01,
          1.03835426e-01, 2.81670213e-01, 4.14386958e-01, 4.14386958e-01,
          4.14386958e-01, 4.14386958e-01, 4.14386958e-01, 2.07538232e-01,
          6.39206991e-02, 2.71918952e-01, 3.61881673e-01, 3.64853293e-01,
          3.57767224e-01, 3.64853293e-01, 3.64853293e-01, 3.64853293e-01,
          3.41527641e-01, 1.19776130e-01, 3.16513032e-02, 4.39799607e-01,
          4.39799607e-01, 3.68527144e-01, 2.00806171e-01, 2.05940410e-01,
          4.39799607e-01, 4.39487278e-01, 5.13634831e-02, 5.44997454e-02,
          3.53272498e-01, 4.72720623e-01, 1.70806110e-01, 1.95390075e-01,
          3.39168102e-01, 4.72720623e-01, 4.72720623e-01, 1.21347778e-01 ]
      - [ 4.36955065e-01, 4.36955065e-01, 4.36955065e-01, 6.89804107e-02,
          1.21842377e-01, 4.36955065e-01, 3.41310412e-01, 1.76868752e-01,
          2.54041702e-01, 4.63374764e-01, 4.63374764e-01, 5.83990589e-02,
          5.83676733e-02, 4.63374764e-01, 4.63374764e-01, 5.21290675e-02,
          6.79960027e-02, 3.49783987e-01, 5.00084102e-01, 5.04821129e-02,
          4.46258448e-02, 3.46281528e-01, 5.00084102e-01, 3.31600755e-01,
          5.12793101e-02, 8.78285393e-02, 5.00084102e-01, 3.65723699e-01,
          6.79409206e-02, 3.63346711e-02, 4.32376385e-01, 4.32376385e-01,
          2.23893240e-01, 2.40967497e-01, 4.32376385e-01, 4.32376385e-01,
          2.72629678e-01, 4.69047457e-01, 4.69047457e-01, 5.77921085e-02,
          1.20079920e-01, 4.69047457e-01, 4.69047457e-01, 1.42749369e-01,
          5.31918742e-02, 4.15495127e-01, 4.15495127e-01, 7.47540370e-02,
          1.02749877e-01, 4.15495127e-01, 4.15495127e-01, 4.15495127e-01,
          1.23445578e-01, 3.18251342e-01, 4.10973638e-01, 1.35210797e-01,
          1.19573653e-01, 4.10973638e-01, 4.10973638e-01, 3.27273548e-01,
          1.08212106e-01, 4.10973638e-01, 4.10973638e-01, 2.01219469e-01,
          8.97173658e-02, 2.03090698e-01, 3.94062072e-01, 3.94062072e-01,
          3.60353142e-01, 3.94062072e-01, 3.94062072e-01, 3.94062072e-01,
          1.48397520e-01, 4.94757026e-01, 4.94757026e-01, 1.15725376e-01,
          4.58961204e-02, 2.53843069e-01, 4.94757026e-01, 3.94587755e-01,
          5.52137494e-02, 4.58258718e-01, 4.58258718e-01, 1.27585515e-01,
          1.34711996e-01, 2.61017680e-01, 4.58258718e-01, 4.58258718e-01,
          2.07999051e-01, 9.79762971e-02, 2.34851524e-01, 1.30416602e-01,
          4.00183439e-01, 4.00183439e-01, 4.00183439e-01, 3.00800294e-01,
          1.80620342e-01, 4.00183439e-01, 4.00183439e-01, 9.05406848e-02,
          1.01807863e-01, 4.61750269e-01, 4.61750269e-01, 4.88348231e-02,
          7.52822012e-02, 4.61750269e-01, 4.61750269e-01, 3.40470135e-01,
          1.20914660e-01, 4.22801763e-01, 4.40665931e-01, 4.40665931e-01,
          1.99100941e-01, 3.05803746e-01, 4.40665931e-01, 2.79801160e-01,
          9.06169116e-02, 1.74430355e-01, 2.91477382e-01, 3.67650896e-01,
          3.86242688e-01, 3.16690683e-01, 3.99811566e-01, 3.99811566e-01,
          3.99811566e-01, 1.28177881e-01, 2.24437043e-01, 4.28584725e-01,
          4.28584725e-01, 4.07562643e-01, 3.12714219e-01, 1.57551736e-01,
          4.28584725e-01, 2.88183719e-01, 1.50074273e-01, 8.79772827e-02,
          4.29791093e-01, 4.92152214e-01, 1.87909618e-01, 1.20042481e-01,
          1.50448114e-01, 4.92152214e-01, 4.92152214e-01, 6.02325164e-02 ]
      - [ 4.43481356e-01, 4.43481356e-01, 4.43481356e-01, 2.29431257e-01,
          2.79681981e-01, 6.80045038e-02, 2.48492107e-01, 1.07859597e-01,
          4.43481356e-01, 4.21862453e-01, 4.21862453e-01, 4.21862453e-01,
          1.82424188e-01, 2.10698321e-01, 3.36115628e-01, 2.07954586e-01,
          2.23658383e-01, 4.21862453e-01, 4.53910172e-01, 4.53910172e-01,
          1.33552492e-01, 8.11841115e-02, 4.53910172e-01, 4.53910172e-01,
          8.66325200e-02, 8.24343339e-02, 3.64143640e-01, 3.99675876e-01,
          1.69905722e-01, 6.97272047e-02, 2.21937492e-01, 3.99675876e-01,
          3.99675876e-01, 3.38107884e-01, 3.99675876e-01, 3.99675876e-01,
          4.62221920e-01, 4.62221920e-01, 4.62221920e-01, 2.99848408e-01,
          4.62221920e-01, 1.00787036e-01, 9.19862762e-02, 8.23903605e-02,
          1.59593478e-01, 4.78587598e-01, 4.78587598e-01, 2.38606542e-01,
          5.62339909e-02, 9.44177359e-02, 4.78587598e-01, 4.78587598e-01,
          5.10936417e-02, 8.61102715e-02, 4.29181725e-01, 4.29181725e-01,
          3.29737663e-02, 8.56062174e-02, 4.29181725e-01, 4.29181725e-01,
          3.05238187e-01, 1.52892247e-01, 3.66009414e-01, 3.70906562e-01,
          1.35254994e-01, 1.62712559e-01, 3.70906562e-01, 3.70906562e-01,
          3.70906562e-01, 3.55098635e-01, 3.70906562e-01, 3.70906562e-01,
          1.18394867e-01, 6.75622404e-01, 6.75622404e-01, 1.25327349e-01,
          1.65386662e-01, 7.38254637e-02, 1.30656078e-01, 2.01032311e-02,
          1.79310087e-02, 4.35457766e-01, 4.35457766e-01, 4.35457766e-01,
          4.44539934e-02, 1.83916792e-01, 4.35457766e-01, 4.35457766e-01,
          5.10767214e-02, 9.55113247e-02, 3.81594419e-01, 1.76593319e-01,
          2.37473622e-01, 3.81594419e-01, 3.81594419e-01, 3.81594419e-01,
          1.86876744e-01, 3.81594419e-01, 3.81594419e-01, 1.43064886e-01,
          8.77011493e-02, 4.57604736e-01, 4.57604736e-01, 1.30109102e-01,
          8.70693401e-02, 3.24271679e-01, 4.57604736e-01, 4.57604736e-01,
          8.53176489e-02, 4.71682549e-01, 4.71682549e-01, 4.71682549e-01,
          4.71682549e-01, 2.71086514e-01, 1.48417369e-01, 2.03941800e-02,
          4.62647937e-02, 1.24557503e-01, 3.50751281e-01, 4.03740883e-01,
          4.03302044e-01, 4.03740883e-01, 4.03740883e-01, 4.03740883e-01,
          1.77925199e-01, 1.05303407e-01, 3.19284707e-01, 3.51508021e-01,
          3.51508021e-01, 3.51508021e-01, 3.51508021e-01, 3.51508021e-01,
          3.29073727e-01, 3.51508021e-01, 2.11916491e-01, 1.49562478e-01,
          4.15450096e-01, 4.15450096e-01, 4.15450096e-01, 1.22892961e-01,
          2.92412668e-01, 4.15450096e-01, 4.15450096e-01, 9.93941426e-02 ]
      - [ 4.29139704e-01, 4.29139704e-01, 4.29139704e-01, 2.32190013e-01,
          2.03735709e-01, 2.39031792e-01, 2.70280123e-01, 1.82925150e-01,
          4.29139704e-01, 4.35931593e-01, 4.35931593e-01, 1.01553194e-01,
          9.34351459e-02, 4.35931593e-01, 4.35931593e-01, 1.33499414e-01,
          9.27278474e-02, 4.35931593e-01, 5.28980792e-01, 8.75841305e-02,
          1.86255053e-02, 1.21466912e-01, 5.28980792e-01, 3.24043870e-01,
          8.71821120e-02, 1.40989184e-01, 5.28980792e-01, 4.23828691e-01,
          3.64656262e-02, 1.46320276e-02, 1.96751520e-01, 4.23828691e-01,
          2.39493817e-01, 4.23828691e-01, 4.23828691e-01, 4.23828691e-01,
          4.36746508e-01, 4.36746508e-01, 4.36746508e-01, 1.01831891e-01,
          1.12765051e-01, 4.36746508e-01, 4.36746508e-01, 9.79736671e-02,
          9.59964171e-02, 4.36995953e-01, 4.36995953e-01, 1.08221069e-01,
          8.82956311e-02, 4.36995953e-01, 4.36995953e-01, 4.36995953e-01,
          5.69644086e-02, 1.34367719e-01, 4.53393281e-01, 1.33185118e-01,
          1.40481025e-01, 2.65274197e-01, 4.53393281e-01, 4.53393281e-01,
          2.34232873e-01, 1.35501117e-01, 4.44641024e-01, 2.71637022e-01,
          1.36411414e-01, 1.51908129e-01, 3.83123487e-01, 3.83123487e-01,
          3.83123487e-01, 3.83123487e-01, 3.83123487e-01, 3.83123487e-01,
          1.25866815e-01, 4.72408593e-01, 4.72408593e-01, 1.63428187e-01,
          5.98298125e-02, 2.29118347e-01, 4.72408593e-01, 4.72408593e-01,
          6.30554110e-02, 3.50438416e-01, 3.50438416e-01, 3.05146962e-01,
          2.09128171e-01, 3.50438416e-01, 3.50438416e-01, 3.50438416e-01,
          3.50438416e-01, 3.50438416e-01, 3.54070812e-01, 1.11206785e-01,
          1.78104550e-01, 4.49114799e-01, 3.79164666e-01, 1.67198017e-01,
          2.21869573e-01, 4.49114799e-01, 4.49114799e-01, 2.21495122e-01,
          4.65912335e-02, 1.58809647e-01, 1.59953102e-01, 4.11818713e-01,
          1.06896624e-01, 4.87194747e-01, 4.87194747e-01, 4.87194747e-01,
          2.03918666e-01, 4.23192322e-01, 4.23192322e-01, 4.23192322e-01,
          2.14513555e-01, 1.29021570e-01, 4.23192322e-01, 3.84934276e-01,
          1.64273381e-01, 2.24923596e-01, 3.60669881e-01, 3.60669881e-01,
          3.60669881e-01, 3.60669881e-01, 3.60669881e-01, 3.60669881e-01,
          3.47029120e-01, 2.11849779e-01, 8.51221383e-02, 3.47177625e-01,
          4.06879395e-01, 4.06879395e-01, 1.79618582e-01, 9.18350145e-02,
          4.06879395e-01, 4.06879395e-01, 4.06518519e-01, 1.31981432e-01,
          2.12093562e-01, 4.64585453e-01, 1.86307907e-01, 1.50949717e-01,
          2.50507146e-01, 4.64585453e-01, 4.64585453e-01, 4.06432807e-01 ]
      - [ 4.34836149e-01, 4.34836149e-01, 4.34836149e-01, 1.06912516e-01,
          8.43790174e-02, 1.90915227e-01, 1.03260510e-01, 4.16731238e-01,
          4.34836149e-01, 4.25751895e-01, 4.25751895e-01, 4.25751895e-01,
          3.20404112e-01, 1.16608419e-01, 2.97082722e-01, 1.60865068e-01,
          2.00739369e-01, 4.25751895e-01, 4.73910809e-01, 2.96176314e-01,
          8.17722902e-02, 5.09076566e-02, 4.73910809e-01, 4.40171868e-01,
          1.11725122e-01, 1.35128677e-01, 4.73910809e-01, 4.80965227e-01,
          1.14440940e-01, 1.13966800e-01, 1.95062906e-01, 4.80965227e-01,
          3.55632931e-01, 1.91877097e-01, 2.71637976e-01, 4.80965227e-01,
          4.43962634e-01, 4.65578169e-01, 4.65578169e-01, 1.13304436e-01,
          4.33268458e-01, 3.27862710e-01, 1.49145156e-01, 7.79648498e-02,
          1.68358520e-01, 4.47527796e-01, 4.47527796e-01, 3.96660388e-01,
          3.67946886e-02, 1.47559673e-01, 4.47527796e-01, 4.47527796e-01,
          8.21123496e-02, 8.48271996e-02, 4.54882145e-01, 4.49960589e-01,
          4.92387824e-02, 8.00705999e-02, 4.54882145e-01, 4.54882145e-01,
          2.42643505e-01, 1.02081619e-01, 3.06767583e-01, 4.55503315e-01,
          9.06831324e-02, 8.74577165e-02, 2.70687580e-01, 4.55503315e-01,
          4.55503315e-01, 2.35928044e-01, 1.43913358e-01, 4.55503315e-01,
          2.23799899e-01, 6.42307222e-01, 6.42307222e-01, 2.09126234e-01,
          2.47968748e-01, 7.19562694e-02, 5.37349954e-02, 2.59890854e-02,
          6.64897859e-02, 2.18018040e-01, 4.62854713e-01, 4.62854713e-01,
          7.23840669e-02, 5.62176257e-02, 3.89823884e-01, 4.62854713e-01,
          3.78003806e-01, 4.34979759e-02, 3.58578831e-01, 3.58578831e-01,
          8.13339874e-02, 3.58578831e-01, 3.58578831e-01, 3.58578831e-01,
          3.58578831e-01, 2.99584657e-01, 3.58578831e-01, 2.88906097e-01,
          1.37174159e-01, 2.88622886e-01, 4.58135128e-01, 2.81993508e-01,
          1.82202742e-01, 2.59722173e-01, 4.58135128e-01, 4.58135128e-01,
          1.88735619e-01, 5.30627549e-01, 5.30627549e-01, 5.30627549e-01,
          2.91787028e-01, 4.09444533e-02, 1.23678967e-02, 2.84959264e-02,
          1.63100913e-01, 3.09894025e-01, 3.75325501e-01, 3.75325501e-01,
          3.75325501e-01, 2.24886835e-01, 3.75325501e-01, 3.75325501e-01,
          3.55736345e-01, 1.36921570e-01, 2.67035812e-01, 3.95600230e-01,
          3.41241568e-01, 3.95600230e-01, 2.95790672e-01, 3.95600230e-01,
          3.95600230e-01, 2.50762224e-01, 1.78667039e-01, 5.96454069e-02,
          4.34721798e-01, 4.34721798e-01, 4.34721798e-01, 9.75258499e-02,
          1.03166468e-01, 4.34721798e-01, 4.34721798e-01, 1.64408043e-01 ]
      - [ 4.49723393e-01, 4.49723393e-01, 4.04895961e-01, 1.29932836e-01,
          2.69030541e-01, 4.49723393e-01, 2.80438811e-01, 1.02437928e-01,
          2.15440094e-01, 4.68323708e-01, 4.68323708e-01, 5.76674230e-02,
          7.48519003e-02, 4.68323708e-01, 4.68323708e-01, 1.72518671e-01,
          4.54826504e-02, 2.77946413e-01, 4.60269839e-01, 3.48989330e-02,
          3.00227627e-02, 3.69971961e-01, 4.60269839e-01, 4.60269839e-01,
          5.78858778e-02, 7.52325729e-02, 4.60269839e-01, 4.30853426e-01,
          4.87802736e-02, 4.16184403e-02, 4.30853426e-01, 4.30853426e-01,
          2.38299102e-01, 2.65345812e-01, 3.49071741e-01, 4.30853426e-01,
          1.67128161e-01, 4.84508574e-01, 4.84508574e-01, 5.96892275e-02,
          8.66338983e-02, 4.84508574e-01, 4.84508574e-01, 1.26386657e-01,
          3.45388353e-02, 4.13157135e-01, 4.13157135e-01, 2.42831513e-01,
          7.73437247e-02, 3.72245997e-01, 4.13157135e-01, 4.13157135e-01,
          2.22627401e-01, 2.44945258e-01, 4.22895491e-01, 1.67512089e-01,
          1.00088932e-01, 3.15332204e-01, 4.22895491e-01, 3.50706756e-01,
          1.84236899e-01, 4.05959159e-01, 4.22895491e-01, 2.54130155e-01,
          1.92588225e-01, 1.53512821e-01, 4.00071532e-01, 4.00071532e-01,
          2.65477896e-01, 4.00071532e-01, 4.00071532e-01, 4.00071532e-01,
          2.33978674e-01, 4.73704726e-01, 4.73704726e-01, 1.50152728e-01,
          5.71015403e-02, 1.63217530e-01, 4.73704726e-01, 4.60885644e-01,
          4.97208722e-02, 4.44661856e-01, 4.44661856e-01, 1.90678224e-01,
          8.32430571e-02, 3.21978807e-01, 4.44661856e-01, 4.44661856e-01,
          1.92597955e-01, 1.43561184e-01, 3.82662296e-01, 1.41153291e-01,
          2.91973561e-01, 3.82662296e-01, 3.82662296e-01, 3.82662296e-01,
          1.11452892e-01, 3.82662296e-01, 3.82662296e-01, 1.10987268e-01,
          9.98715088e-02, 4.36515868e-01, 4.36515868e-01, 1.41958013e-01,
          2.15520505e-02, 4.36515868e-01, 4.36515868e-01, 4.36515868e-01,
          1.70144051e-01, 4.29914623e-01, 4.29914623e-01, 4.29914623e-01,
          2.01520428e-01, 3.35122138e-01, 4.29914623e-01, 2.54856676e-01,
          9.78818685e-02, 2.05062374e-01, 3.22589427e-01, 4.39910173e-01,
          2.60261625e-01, 3.01268429e-01, 4.39910173e-01, 4.39910173e-01,
          3.07249546e-01, 1.26598895e-01, 3.79894018e-01, 3.79894018e-01,
          3.79894018e-01, 3.79894018e-01, 2.55050361e-01, 3.66456568e-01,
          3.79894018e-01, 2.40793139e-01, 1.31471574e-01, 1.13858007e-01,
          4.49850410e-01, 4.49850410e-01, 2.09982648e-01, 5.71941100e-02,
          3.48463297e-01, 4.49850410e-01, 4.49850410e-01, 6.55028448e-02 ]
      - [ 4.26592588e-01, 4.26592588e-01, 4.26592588e-01, 1.29137874e-01,
          1.78407475e-01, 4.17243659e-01, 2.96004742e-01, 1.68721095e-01,
          3.33333522e-01, 4.70226049e-01, 4.70226049e-01, 1.16031758e-01,
          3.69932353e-02, 4.70226049e-01, 4.70226049e-01, 1.59741476e-01,
          4.54613641e-02, 2.61605114e-01, 4.68214244e-01, 6.84044957e-02,
          5.39096706e-02, 3.33437711e-01, 4.68214244e-01, 4.57476944e-01,
          6.01200014e-02, 7.73561001e-02, 4.68214244e-01, 3.52087945e-01,
          1.04919188e-01, 5.96021712e-02, 4.24009293e-01, 4.24009293e-01,
          1.78658694e-01, 3.25858265e-01, 4.24009293e-01, 4.24009293e-01,
          2.15690896e-01, 5.08853376e-01, 5.08853376e-01, 4.81481180e-02,
          1.84071451e-01, 3.41541260e-01, 5.08853376e-01, 1.21808112e-01,
          6.25446439e-02, 4.01663631e-01, 4.09872293e-01, 4.09872293e-01,
          3.22026052e-02, 3.17269415e-01, 4.09872293e-01, 4.09872293e-01,
          1.84694335e-01, 1.63651466e-01, 3.95830452e-01, 2.10923970e-01,
          2.45737508e-01, 3.37490767e-01, 3.95830452e-01, 3.95830452e-01,
          2.50874192e-01, 2.95981109e-01, 3.95830452e-01, 2.09734380e-01,
          2.25057930e-01, 3.36232513e-01, 3.69550258e-01, 3.69550258e-01,
          3.69550258e-01, 3.69550258e-01, 3.55900139e-01, 3.40120018e-01,
          1.24043688e-01, 4.94529217e-01, 4.94529217e-01, 1.52880371e-01,
          1.15826830e-01, 5.28168604e-02, 4.94529217e-01, 4.52786177e-01,
          3.74602526e-02, 4.04091358e-01, 4.04091358e-01, 3.91905814e-01,
          5.91153093e-02, 2.33084559e-01, 4.04091358e-01, 4.04091358e-01,
          3.09386611e-01, 1.88866615e-01, 3.89686108e-01, 1.83102310e-01,
          1.84284836e-01, 3.89686108e-01, 3.89686108e-01, 3.89686108e-01,
          1.32242188e-01, 3.89686108e-01, 3.89686108e-01, 1.87571555e-01,
          1.22066237e-01, 4.26292241e-01, 4.26292241e-01, 1.64188802e-01,
          1.00374423e-01, 4.26292241e-01, 4.26292241e-01, 4.26292241e-01,
          1.82787031e-01, 3.66680503e-01, 4.22452927e-01, 4.22452927e-01,
          2.94797122e-01, 1.18681684e-01, 4.22452927e-01, 4.03447002e-01,
          1.69571862e-01, 1.70962140e-01, 3.84510636e-01, 3.84510636e-01,
          3.84510636e-01, 2.56619513e-01, 3.84510636e-01, 3.84510636e-01,
          3.84510636e-01, 1.18263766e-01, 1.93902075e-01, 3.72965068e-01,
          3.72965068e-01, 3.72965068e-01, 3.61873060e-01, 3.72965068e-01,
          3.72965068e-01, 3.41893703e-01, 1.23764306e-01, 8.25141892e-02,
          4.42832053e-01, 4.42832053e-01, 1.92526832e-01, 1.34264171e-01,
          3.52319658e-01, 4.42832053e-01, 4.42832053e-01, 1.58570126e-01 ]
      - [ 4.25566524e-01, 4.25566524e-01, 4.25566524e-01, 1.73095286e-01,
          3.55050087e-01, 1.14101887e-01, 2.32772842e-01, 2.19308898e-01,
          4.25566524e-01, 3.65206808e-01, 3.65206808e-01, 3.65206808e-01,
          3.28161359e-01, 2.74705917e-01, 2.19460487e-01, 3.13297033e-01,
          3.65206808e-01, 3.65206808e-01, 4.70466375e-01, 4.70466375e-01,
          1.66070655e-01, 1.00914404e-01, 3.51554930e-01, 4.70466375e-01,
          1.23871632e-01, 1.96007803e-01, 3.40834111e-01, 4.29743439e-01,
          2.32802719e-01, 5.87947145e-02, 5.70666753e-02, 4.29743439e-01,
          4.29743439e-01, 2.43472770e-01, 3.69864911e-01, 4.29743439e-01,
          4.51847941e-01, 4.51847941e-01, 4.51847941e-01, 2.46250793e-01,
          4.51847941e-01, 1.55616716e-01, 1.80933699e-01, 7.03272820e-02,
          2.37237379e-01, 4.95280117e-01, 4.95280117e-01, 2.60010421e-01,
          9.79467258e-02, 1.80143267e-01, 4.95280117e-01, 3.70879978e-01,
          5.29010482e-02, 9.56290215e-02, 4.86791104e-01, 4.86791104e-01,
          5.55689894e-02, 3.34081054e-02, 4.86791104e-01, 4.86791104e-01,
          1.65956795e-01, 3.58378626e-02, 1.19355574e-01, 4.80590820e-01,
          2.15425193e-01, 1.43637791e-01, 1.03035837e-01, 4.80590820e-01,
          4.80590820e-01, 3.41356099e-01, 1.92250311e-01, 2.66752511e-01,
          1.60800055e-01, 6.19345546e-01, 6.19345546e-01, 1.95223302e-01,
          1.56386435e-01, 9.91412811e-03, 3.45075995e-01, 7.25495666e-02,
          1.17361143e-01, 4.38223094e-01, 4.38223094e-01, 4.38223094e-01,
          3.40050943e-02, 9.18440744e-02, 4.38223094e-01, 4.38223094e-01,
          1.42391548e-01, 7.45528415e-02, 4.12268877e-01, 2.87309468e-01,
          1.23206712e-01, 2.81451344e-01, 4.12268877e-01, 4.12268877e-01,
          2.12791294e-01, 3.06263745e-01, 4.12268877e-01, 2.22224265e-01,
          1.17151231e-01, 3.94553423e-01, 4.21896547e-01, 3.34071308e-01,
          1.53740719e-01, 3.28291059e-01, 4.21896547e-01, 4.21896547e-01,
          4.01841626e-02, 5.60472429e-01, 5.60472429e-01, 5.60472429e-01,
          1.49805397e-01, 6.01272434e-02, 1.44789666e-01, 5.35957664e-02,
          2.25142892e-02, 2.89879411e-01, 4.07172918e-01, 4.07172918e-01,
          4.07172918e-01, 2.33462617e-01, 4.07172918e-01, 4.07172918e-01,
          1.33464381e-01, 1.03130274e-01, 3.59092206e-01, 3.59092206e-01,
          3.59092206e-01, 3.59092206e-01, 3.59092206e-01, 3.59092206e-01,
          3.59092206e-01, 2.49023631e-01, 1.78238988e-01, 7.44171664e-02,
          4.35032099e-01, 4.35032099e-01, 4.35032099e-01, 9.85413343e-02,
          1.26290753e-01, 4.35032099e-01, 4.35032099e-01, 1.34878278e-01 ]
      - [ 4.25816298e-01, 4.25816298e-01, 4.25816298e-01, 2.13521048e-01,
          3.45590502e-01, 1.85774907e-01, 1.65672272e-01, 2.08529860e-01,
          4.25816298e-01, 5.26548028e-01, 5.26548028e-01, 1.47037104e-01,
          5.88485450e-02, 2.03080535e-01, 5.26548028e-01, 2.73346990e-01,
          5.11744656e-02, 1.38999850e-01, 4.74443913e-01, 3.34530324e-01,
          6.57804236e-02, 9.47146416e-02, 4.74443913e-01, 4.74443913e-01,
          2.37379387e-01, 2.23785996e-01, 2.97207743e-01, 3.42797965e-01,
          1.06756672e-01, 2.12374344e-01, 3.70200664e-01, 3.70200664e-01,
          3.70200664e-01, 3.70200664e-01, 3.70200664e-01, 3.70200664e-01,
          2.93907106e-01, 4.62046444e-01, 4.62046444e-01, 1.22529924e-01,
          1.34222031e-01, 4.62046444e-01, 4.62046444e-01, 7.95087144e-02,
          1.25319958e-01, 4.45693225e-01, 4.79243606e-01, 1.71284556e-01,
          6.59162253e-02, 9.87508520e-02, 4.79243606e-01, 4.79243606e-01,
          8.37381110e-02, 2.38956735e-01, 3.73682827e-01, 2.05384165e-01,
          2.14167833e-01, 2.65298218e-01, 3.73682827e-01, 3.73682827e-01,
          3.73682827e-01, 3.73682827e-01, 3.73682827e-01, 3.55171561e-01,
          1.36207238e-01, 1.95447892e-01, 3.72025937e-01, 3.72025937e-01,
          3.48378599e-01, 3.72025937e-01, 3.72025937e-01, 3.72025937e-01,
          2.30997488e-01, 4.95790005e-01, 4.95790005e-01, 1.19174674e-01,
          4.35099676e-02, 4.13110107e-01, 4.95790005e-01, 1.03316821e-01,
          8.26761574e-02, 3.90042603e-01, 3.90042603e-01, 1.76870435e-01,
          2.05174074e-01, 3.90042603e-01, 3.90042603e-01, 3.90042603e-01,
          9.96223614e-02, 3.90042603e-01, 2.47274622e-01, 5.61246723e-02,
          3.27887386e-01, 4.42938387e-01, 4.42938387e-01, 1.49350181e-01,
          1.29180208e-01, 4.42938387e-01, 4.42938387e-01, 2.18805224e-01,
          1.37422234e-01, 3.61970872e-01, 3.56035888e-01, 8.92588422e-02,
          2.46034905e-01, 4.48136300e-01, 4.48136300e-01, 4.48136300e-01,
          1.60629749e-01, 4.28763002e-01, 4.28763002e-01, 4.28763002e-01,
          1.76906779e-01, 4.28763002e-01, 4.28763002e-01, 1.16036728e-01,
          7.72387534e-02, 2.33375773e-01, 3.47064108e-01, 3.96838367e-01,
          3.86773348e-01, 3.14005375e-01, 4.05392408e-01, 4.05392408e-01,
          2.30496138e-01, 1.83151186e-01, 1.32960156e-01, 4.22948837e-01,
          4.22948837e-01, 4.22948837e-01, 1.86276630e-01, 1.38960078e-01,
          4.22948837e-01, 4.22948837e-01, 1.72217891e-01, 5.67295626e-02,
          2.90161788e-01, 5.05969107e-01, 2.65294194e-01, 6.34300560e-02,
          2.18213707e-01, 5.05969107e-01, 5.05969107e-01, 1.32283032e-01 ]
      - [ 3.73435378e-01, 3.73435378e-01, 3.73435378e-01, 2.86092222e-01,
          3.73435378e-01, 8.08915049e-02, 2.82991529e-01, 3.61279279e-01,
          3.73435378e-01, 3.81063074e-01, 3.81063074e-01, 3.81063074e-01,
          2.10129336e-01, 3.56598109e-01, 8.25073123e-02, 3.03353965e-01,
          3.81063074e-01, 3.81063074e-01, 4.80582684e-01, 2.46525139e-01,
          1.85342535e-01, 1.30753741e-01, 4.80582684e-01, 1.69396743e-01,
          1.38072133e-01, 3.77277970e-01, 4.80582684e-01, 4.33940232e-01,
          5.88754527e-02, 8.36717263e-02, 1.49246559e-01, 4.33940232e-01,
          1.46297306e-01, 4.33940232e-01, 4.33940232e-01, 4.33940232e-01,
          3.86705339e-01, 5.15633523e-01, 5.15633523e-01, 3.41055363e-01,
          2.80240208e-01, 1.92838982e-01, 1.66818932e-01, 1.76150918e-01,
          1.50517836e-01, 4.68543380e-01, 4.68543380e-01, 2.82514393e-01,
          6.71581030e-02, 2.15342849e-01, 4.68543380e-01, 4.29809183e-01,
          7.95534626e-02, 1.22309111e-01, 4.69770193e-01, 2.57059574e-01,
          6.18405566e-02, 8.30530152e-02, 4.69770193e-01, 4.69770193e-01,
          1.39117286e-01, 1.33758858e-01, 4.68197525e-01, 3.90334696e-01,
          1.06629044e-01, 1.15772210e-01, 2.39082620e-01, 3.90334696e-01,
          3.90334696e-01, 3.90334696e-01, 3.90334696e-01, 3.90334696e-01,
          1.22961186e-01, 6.20858312e-01, 6.20858312e-01, 1.34486020e-01,
          8.40581730e-02, 7.28014484e-02, 4.07104194e-01, 9.76504534e-02,
          4.50545661e-02, 4.24221247e-01, 4.24221247e-01, 4.24221247e-01,
          4.56350893e-02, 1.42703831e-01, 4.24221247e-01, 4.24221247e-01,
          1.64008006e-01, 2.15866759e-01, 3.79081964e-01, 2.18882531e-01,
          1.89888060e-01, 3.79081964e-01, 3.79081964e-01, 3.79081964e-01,
          2.23667279e-01, 3.79081964e-01, 3.79081964e-01, 1.63436174e-01,
          1.52588248e-01, 3.21636617e-01, 4.11627203e-01, 2.92554349e-01,
          2.00164974e-01, 4.27082390e-01, 4.27082390e-01, 4.27082390e-01,
          9.84502137e-02, 5.43883264e-01, 5.43883264e-01, 5.43883264e-01,
          2.43029386e-01, 1.04226254e-01, 1.31587639e-01, 7.35122338e-02,
          6.93067983e-02, 2.58851767e-01, 3.97710621e-01, 4.03644770e-01,
          4.03644770e-01, 3.10168028e-01, 4.03644770e-01, 4.03644770e-01,
          1.08762927e-01, 1.05069824e-01, 2.67360330e-01, 3.48869294e-01,
          3.48869294e-01, 3.48869294e-01, 3.48869294e-01, 3.48869294e-01,
          3.48869294e-01, 3.48869294e-01, 2.70304143e-01, 1.27468288e-01,
          2.46013194e-01, 4.67724860e-01, 4.20919478e-01, 6.80657998e-02,
          2.48751357e-01, 4.67724860e-01, 4.67724860e-01, 1.36288270e-01 ]
      - [ 4.17959183e-01, 4.17959183e-01, 4.17959183e-01, 8.28071460e-02,
          2.15880930e-01, 1.15670979e-01, 2.35656396e-01, 4.17959183e-01,
          4.17959183e-01, 4.96418566e-01, 4.96418566e-01, 1.60291806e-01,
          7.50564486e-02, 3.34281445e-01, 4.62847412e-01, 1.02959156e-01,
          1.25277981e-01, 3.44362170e-01, 4.78161305e-01, 2.56847590e-01,
          3.34244557e-02, 6.75436109e-02, 4.78161305e-01, 4.78161305e-01,
          7.30872452e-02, 6.06590994e-02, 4.78161305e-01, 4.38258171e-01,
          1.45760197e-02, 2.05516573e-02, 2.52521366e-01, 4.38258171e-01,
          2.55634844e-01, 3.51339877e-01, 4.07701880e-01, 4.38258171e-01,
          4.34872121e-01, 4.34872121e-01, 4.34872121e-01, 1.09380737e-01,
          1.89714745e-01, 4.34872121e-01, 3.87563139e-01, 1.28860265e-01,
          1.56317070e-01, 4.85197783e-01, 4.85197783e-01, 5.23935854e-02,
          3.23848687e-02, 4.56088036e-01, 4.85197783e-01, 1.98987186e-01,
          3.30137871e-02, 1.90807000e-01, 4.72767025e-01, 1.80633962e-01,
          7.16154575e-02, 1.41263664e-01, 4.72767025e-01, 4.72767025e-01,
          1.36985466e-01, 1.57370418e-01, 4.72767025e-01, 3.84659261e-01,
          5.01787998e-02, 1.08520932e-01, 3.85471523e-01, 3.85471523e-01,
          3.85471523e-01, 3.85471523e-01, 3.01579267e-01, 3.85471523e-01,
          3.69085103e-01, 4.73896891e-01, 4.73896891e-01, 9.75151584e-02,
          9.05730203e-02, 3.43158215e-01, 4.73896891e-01, 2.06414431e-01,
          8.50345790e-02, 4.17399466e-01, 4.17399466e-01, 2.40320414e-01,
          6.71628565e-02, 4.17399466e-01, 4.17399466e-01, 4.17399466e-01,
          1.10273108e-01, 2.24263251e-01, 4.23264802e-01, 5.70029281e-02,
          1.98758259e-01, 4.23264802e-01, 4.23264802e-01, 2.31392100e-01,
          6.09081350e-02, 4.23264802e-01, 4.23264802e-01, 1.62511319e-01,
          6.58247843e-02, 4.43714201e-01, 4.43714201e-01, 1.57306224e-01,
          7.66335353e-02, 3.82985383e-01, 4.43714201e-01, 4.43714201e-01,
          1.39484018e-01, 3.83500665e-01, 4.75778252e-01, 4.75778252e-01,
          1.58747748e-01, 1.76159769e-01, 4.75778252e-01, 2.94204563e-01,
          8.26738104e-02, 1.16389200e-01, 1.86182171e-01, 4.43508238e-01,
          2.40149990e-01, 3.04428160e-01, 4.43508238e-01, 4.43508238e-01,
          4.43508238e-01, 1.01058468e-01, 3.05059642e-01, 3.97282690e-01,
          3.97282690e-01, 3.97282690e-01, 3.97282690e-01, 1.98999017e-01,
          2.54159957e-01, 3.63718390e-01, 1.87474594e-01, 6.01319820e-02,
          4.49997008e-01, 4.49997008e-01, 3.74313653e-01, 5.88329993e-02,
          1.52584091e-01, 4.49997008e-01, 4.49997008e-01, 1.22662872e-01 ]
      - [ 4.57221717e-01, 4.57221717e-01, 3.56837988e-01, 1.92307755e-01,
          2.90344059e-01, 4.57221717e-01, 1.15505554e-01, 1.60468072e-01,
          2.83850759e-01, 4.38159138e-01, 4.38159138e-01, 8.86015147e-02,
          1.08703248e-01, 4.38159138e-01, 4.38159138e-01, 8.07964057e-02,
          9.75265130e-02, 4.38159138e-01, 4.00344044e-01, 1.29375458e-01,
          5.28963134e-02, 1.27718911e-01, 4.00344044e-01, 4.00344044e-01,
          4.00344044e-01, 3.98466736e-01, 4.00344044e-01, 3.56180757e-01,
          3.40490162e-01, 1.18623376e-01, 1.04847640e-01, 3.81660670e-01,
          3.81660670e-01, 3.81660670e-01, 3.81660670e-01, 3.81660670e-01,
          4.88736540e-01, 4.88736540e-01, 1.47707641e-01, 5.96242435e-02,
          6.61435723e-02, 4.88736540e-01, 4.88736540e-01, 5.02296388e-02,
          8.59915391e-02, 4.37390655e-01, 4.37390655e-01, 1.01187326e-01,
          1.15139201e-01, 4.37390655e-01, 4.37390655e-01, 2.83420056e-01,
          8.98850709e-02, 3.44218612e-01, 3.78245205e-01, 2.11848184e-01,
          1.52369201e-01, 2.64023542e-01, 3.78245205e-01, 3.78245205e-01,
          3.78245205e-01, 3.78245205e-01, 3.78245205e-01, 2.08308265e-01,
          1.86270088e-01, 2.59692580e-01, 7.19320774e-02, 4.14753288e-01,
          4.14753288e-01, 4.14753288e-01, 4.14753288e-01, 3.96323442e-01,
          4.06241566e-01, 4.06241566e-01, 4.06241566e-01, 9.26623717e-02,
          1.12149425e-01, 4.06241566e-01, 4.06241566e-01, 3.74649107e-01,
          9.62025598e-02, 3.83345872e-01, 3.33599538e-01, 1.43028721e-01,
          3.83345872e-01, 3.83345872e-01, 3.83345872e-01, 1.27682775e-01,
          3.36676896e-01, 3.83345872e-01, 1.40941754e-01, 1.36233196e-01,
          4.21372145e-01, 4.21372145e-01, 2.31042325e-01, 1.27333358e-01,
          4.21372145e-01, 4.21372145e-01, 4.21372145e-01, 3.69407922e-01,
          1.93256423e-01, 3.69407922e-01, 9.97580737e-02, 3.60882908e-01,
          3.69407922e-01, 3.69407922e-01, 3.69407922e-01, 3.69407922e-01,
          2.16848880e-01, 3.22084963e-01, 4.01400775e-01, 4.01400775e-01,
          1.85917780e-01, 4.01400775e-01, 4.01400775e-01, 3.98705274e-01,
          8.48901123e-02, 1.87945455e-01, 3.74021977e-01, 3.74021977e-01,
          3.74021977e-01, 3.74021977e-01, 3.74021977e-01, 3.74021977e-01,
          3.03695679e-01, 1.71330616e-01, 6.58970773e-02, 4.36508954e-01,
          4.73951548e-01, 2.91814238e-01, 7.65402466e-02, 1.43492967e-01,
          4.73951548e-01, 4.73951548e-01, 1.22021288e-01, 1.88026264e-01,
          1.10631928e-01, 2.12025166e-01, 2.24705294e-01, 3.79877776e-01,
          3.00109655e-01, 4.53891665e-01, 4.53891665e-01, 4.53891665e-01 ]
      - [ 4.01522785e-01, 4.01522785e-01, 4.01522785e-01, 2.70299107e-01,
          4.01522785e-01, 1.72566473e-02, 2.56379306e-01, 2.25380316e-01,
          4.01522785e-01, 4.50802326e-01, 4.50802326e-01, 2.04850942e-01,
          1.48470730e-01, 4.50802326e-01, 2.43372455e-01, 1.75451577e-01,
          1.69071630e-01, 4.50802326e-01, 5.10990798e-01, 2.31605008e-01,
          1.32358760e-01, 1.38001561e-01, 5.10990798e-01, 2.86949158e-01,
          9.10015851e-02, 1.75318867e-01, 5.10990798e-01, 4.53431934e-01,
          1.69461429e-01, 1.15185775e-01, 2.73446262e-01, 4.53431934e-01,
          1.00099660e-01, 2.96387672e-01, 4.05025691e-01, 4.53431934e-01,
          4.43611294e-01, 4.48444933e-01, 4.48444933e-01, 1.96556747e-01,
          1.69098601e-01, 1.72120601e-01, 4.48444933e-01, 2.11191446e-01,
          2.32303455e-01, 4.07204926e-01, 4.07204926e-01, 3.70880842e-01,
          6.29582778e-02, 4.07204926e-01, 4.07204926e-01, 4.07204926e-01,
          7.79901445e-02, 1.38759077e-01, 4.74717110e-01, 1.29480913e-01,
          8.67360532e-02, 2.11825207e-01, 4.74717110e-01, 4.74717110e-01,
          1.46487191e-01, 5.67114204e-02, 4.74717110e-01, 3.66194665e-01,
          8.50996450e-02, 1.17081910e-01, 4.26277697e-01, 4.26277697e-01,
          2.97372341e-01, 2.94967085e-01, 3.46582383e-01, 4.26277697e-01,
          1.37351379e-01, 4.96782839e-01, 4.96782839e-01, 3.01775575e-01,
          8.43592882e-02, 5.07143028e-02, 4.96782839e-01, 3.28479916e-01,
          1.64734915e-01, 4.00635213e-01, 4.00635213e-01, 4.00635213e-01,
          6.14118837e-02, 1.97999656e-01, 3.88943851e-01, 4.00635213e-01,
          3.42445254e-01, 2.06014633e-01, 4.06212568e-01, 2.07672343e-01,
          9.39462334e-02, 3.83946270e-01, 4.06212568e-01, 3.10553461e-01,
          2.00238481e-01, 4.06212568e-01, 4.06212568e-01, 3.51775914e-01,
          1.30346164e-01, 3.54170322e-01, 3.77826422e-01, 3.77826422e-01,
          1.27625331e-01, 3.77826422e-01, 3.77826422e-01, 3.77826422e-01,
          2.04120710e-01, 4.26746041e-01, 4.26746041e-01, 4.26746041e-01,
          4.19865280e-01, 2.80545533e-01, 3.28211665e-01, 1.58891588e-01,
          1.40617713e-01, 3.83698612e-01, 3.08690131e-01, 3.83698612e-01,
          3.51716608e-01, 3.83698612e-01, 3.83698612e-01, 3.83698612e-01,
          1.27828494e-01, 1.57192260e-01, 2.88527995e-01, 2.33008996e-01,
          3.59363437e-01, 3.59363437e-01, 3.59363437e-01, 3.59363437e-01,
          2.89854407e-01, 3.59363437e-01, 3.59363437e-01, 6.71167895e-02,
          2.63729155e-01, 4.74764824e-01, 3.70433360e-01, 1.08397827e-01,
          8.07545558e-02, 4.74764824e-01, 4.74764824e-01, 2.99170882e-01 ]
      - [ 4.48860228e-01, 4.48860228e-01, 4.48860228e-01, 1.45360053e-01,
          2.20250383e-01, 8.73603113e-03, 2.24869847e-01, 2.63309807e-01,
          4.48860228e-01, 4.98606682e-01, 4.98606682e-01, 2.31949911e-01,
          8.90100747e-02, 1.59106940e-01, 4.98606682e-01, 1.90607280e-01,
          1.44692913e-01, 3.23864937e-01, 5.07195830e-01, 5.07195830e-01,
          5.74264191e-02, 3.18994112e-02, 4.40257043e-01, 5.07195830e-01,
          6.79792464e-02, 3.29137743e-02, 1.39088437e-01, 4.32891458e-01,
          4.32891458e-01, 1.05822735e-01, 6.72187805e-02, 4.32891458e-01,
          4.32891458e-01, 3.72063249e-01, 1.82544142e-01, 2.42126957e-01,
          4.86747801e-01, 4.86747801e-01, 3.15267503e-01, 1.07332841e-01,
          1.27840117e-01, 4.86747801e-01, 2.54885077e-01, 1.46991417e-01,
          2.65590370e-01, 5.44882298e-01, 5.44882298e-01, 8.74268934e-02,
          6.24675602e-02, 2.07052127e-01, 5.44882298e-01, 1.92353085e-01,
          5.72640821e-02, 9.57776234e-02, 4.49184626e-01, 4.49184626e-01,
          2.46993959e-01, 1.25886753e-01, 3.83359998e-01, 4.49184626e-01,
          3.83963555e-01, 9.09041911e-02, 1.03454635e-01, 4.74285901e-01,
          4.93143469e-01, 1.35065958e-01, 4.03884202e-02, 8.35550651e-02,
          4.93143469e-01, 4.93143469e-01, 8.84046629e-02, 7.67147020e-02,
          3.60079259e-01, 3.60079259e-01, 3.60079259e-01, 3.60079259e-01,
          3.60079259e-01, 3.60079259e-01, 2.29475081e-01, 1.90116435e-01,
          3.60079259e-01, 3.15848738e-01, 1.29293308e-01, 6.31977394e-02,
          4.43817198e-01, 4.43817198e-01, 4.43817198e-01, 1.21776566e-01,
          2.69019186e-01, 4.43817198e-01, 2.50736892e-01, 3.66220742e-01,
          3.66220742e-01, 3.66220742e-01, 3.26900721e-01, 1.47994295e-01,
          3.66220742e-01, 3.66220742e-01, 3.66220742e-01, 1.45943686e-01,
          3.88489634e-01, 3.88489634e-01, 2.36206502e-01, 1.16106316e-01,
          3.88489634e-01, 3.88489634e-01, 3.88489634e-01, 3.88489634e-01,
          1.70467377e-01, 2.22129926e-01, 4.17184889e-01, 4.91178364e-01,
          4.91178364e-01, 1.89401746e-01, 6.53049946e-02, 8.94304588e-02,
          4.60437089e-01, 1.41001567e-01, 9.58828479e-02, 1.77332938e-01,
          5.16607940e-01, 5.16607940e-01, 3.34756553e-01, 6.43368065e-02,
          1.32160395e-01, 5.16607940e-01, 1.89616501e-01, 8.34938437e-02,
          2.92257726e-01, 5.19081533e-01, 5.19081533e-01, 9.13473591e-02,
          4.97956835e-02, 2.17519850e-01, 5.19081533e-01, 8.62588957e-02,
          4.82057929e-02, 2.38567561e-01, 4.75040972e-01, 4.75040972e-01,
          1.11014277e-01, 1.16603293e-01, 4.75040972e-01, 4.75040972e-01 ]
      - [ 4.29695815e-01, 4.29695815e-01, 4.29695815e-01, 2.52859771e-01,
          1.49011612e-01, 1.21770352e-02, 1.88728631e-01, 3.67755979e-01,
          4.29695815e-01, 4.51176792e-01, 4.51176792e-01, 4.51176792e-01,
          8.20042193e-02, 1.47322744e-01, 3.52635473e-01, 1.81005388e-01,
          2.17272356e-01, 3.89950186e-01, 5.10631025e-01, 5.10631025e-01,
          1.47221833e-01, 6.66878223e-02, 3.41877401e-01, 5.10631025e-01,
          1.55257210e-01, 5.71166389e-02, 2.05668330e-01, 4.05816555e-01,
          4.05816555e-01, 7.14203343e-02, 6.95840418e-02, 3.36797297e-01,
          4.05816555e-01, 4.05816555e-01, 2.85824537e-01, 3.63492429e-01,
          4.05413240e-01, 4.05413240e-01, 4.05413240e-01, 4.05413240e-01,
          2.50847727e-01, 2.83989847e-01, 2.04428539e-01, 2.22201228e-01,
          3.22135299e-01, 4.48500842e-01, 4.48500842e-01, 8.62494260e-02,
          1.95890903e-01, 3.24968636e-01, 4.48500842e-01, 1.42759904e-01,
          1.38241902e-01, 4.48500842e-01, 4.44350332e-01, 4.44350332e-01,
          2.09639549e-01, 1.11179903e-01, 4.44350332e-01, 4.44350332e-01,
          1.37254715e-01, 1.32272243e-01, 3.36345017e-01, 4.06083435e-01,
          4.06083435e-01, 2.11645588e-01, 9.03413668e-02, 2.70595193e-01,
          4.06083435e-01, 4.06083435e-01, 3.69229645e-01, 2.71699160e-01,
          3.95942330e-01, 4.03529465e-01, 4.03529465e-01, 4.03529465e-01,
          4.03529465e-01, 2.30762839e-01, 2.39225090e-01, 1.77936643e-01,
          2.13805750e-01, 3.06026250e-01, 1.82645231e-01, 1.30888760e-01,
          4.59901661e-01, 4.59901661e-01, 3.90806049e-01, 1.34395987e-01,
          2.14342833e-01, 4.59901661e-01, 2.88418502e-01, 2.94132978e-01,
          4.07212943e-01, 4.18646961e-01, 4.18646961e-01, 1.18568994e-01,
          1.52488172e-01, 3.11751515e-01, 4.18646961e-01, 1.33652627e-01,
          2.90276170e-01, 3.57432455e-01, 3.57432455e-01, 3.57432455e-01,
          3.57432455e-01, 3.57432455e-01, 3.57432455e-01, 3.57432455e-01,
          1.70870334e-01, 4.03014272e-01, 4.03014272e-01, 4.03014272e-01,
          4.03014272e-01, 3.69233876e-01, 3.80297393e-01, 1.43265516e-01,
          1.24941655e-01, 2.05576628e-01, 1.54988736e-01, 4.25568670e-01,
          4.25568670e-01, 4.25568670e-01, 2.37591833e-01, 4.07903045e-01,
          1.98875919e-01, 3.51785779e-01, 1.50479332e-01, 1.78889528e-01,
          1.77188337e-01, 5.37783206e-01, 5.37783206e-01, 4.07074660e-01,
          2.22107157e-01, 8.34697336e-02, 3.28874022e-01, 9.38579813e-02,
          1.19901888e-01, 1.77510068e-01, 4.05418009e-01, 4.05418009e-01,
          3.94524902e-01, 4.05418009e-01, 4.05418009e-01, 3.57979506e-01 ]
      - [ 5.28116286e-01, 3.00526470e-01, 5.28116286e-01, 1.17028661e-01,
          9.99905244e-02, 6.06463775e-02, 6.28508627e-02, 1.90702215e-01,
          5.28116286e-01, 4.16864485e-01, 4.16864485e-01, 4.16864485e-01,
          3.01561177e-01, 3.33170474e-01, 3.00079472e-02, 1.23702303e-01,
          2.87379891e-01, 4.16864485e-01, 3.87900442e-01, 3.87900442e-01,
          2.62932330e-01, 1.05474450e-01, 3.51100296e-01, 3.66525769e-01,
          3.44693482e-01, 2.96715587e-01, 3.87900442e-01, 3.75693768e-01,
          3.00323069e-01, 2.35947683e-01, 5.92156276e-02, 3.75693768e-01,
          3.75693768e-01, 3.75693768e-01, 3.75693768e-01, 3.75693768e-01,
          3.99138898e-01, 3.99138898e-01, 3.99138898e-01, 3.61931622e-01,
          3.05059373e-01, 1.48174286e-01, 2.06451282e-01, 2.64824241e-01,
          3.99138898e-01, 4.52697098e-01, 4.52697098e-01, 1.46644577e-01,
          1.31498188e-01, 4.27797198e-01, 4.52697098e-01, 1.24734752e-01,
          1.52457088e-01, 3.46504569e-01, 4.53773230e-01, 4.53773230e-01,
          6.65585846e-02, 3.67502943e-02, 4.53773230e-01, 4.53773230e-01,
          2.42261186e-01, 1.97576627e-01, 2.61379600e-01, 3.87099385e-01,
          2.45801538e-01, 1.68840870e-01, 9.01760086e-02, 3.87099385e-01,
          3.87099385e-01, 3.87099385e-01, 3.87099385e-01, 3.87099385e-01,
          3.99960488e-01, 3.99960488e-01, 3.99960488e-01, 3.99960488e-01,
          3.99960488e-01, 2.27738902e-01, 2.09518030e-01, 1.94248930e-01,
          2.50333875e-01, 3.72308731e-01, 3.53199691e-01, 1.33991525e-01,
          3.72308731e-01, 3.72308731e-01, 3.72308731e-01, 1.47966132e-01,
          3.72308731e-01, 3.72308731e-01, 3.12234253e-01, 3.46422166e-01,
          2.42879480e-01, 3.46422166e-01, 3.46422166e-01, 3.46422166e-01,
          3.46422166e-01, 3.46422166e-01, 3.46422166e-01, 2.37882748e-01,
          3.42112750e-01, 3.34055930e-01, 1.19363554e-01, 3.00709248e-01,
          3.89298886e-01, 3.89298886e-01, 3.89298886e-01, 3.89298886e-01,
          1.38944358e-01, 2.24367723e-01, 4.72472042e-01, 4.72472042e-01,
          4.72472042e-01, 4.27461416e-01, 2.32510418e-01, 7.63500407e-02,
          1.15460746e-01, 1.65064231e-01, 2.05397576e-01, 2.86190003e-01,
          4.91900206e-01, 4.91900206e-01, 1.94279492e-01, 1.48939401e-01,
          2.40671992e-01, 4.91900206e-01, 6.33400679e-02, 1.02883250e-01,
          1.36122480e-01, 4.37803358e-01, 4.37803358e-01, 2.72859246e-01,
          3.48369360e-01, 4.37803358e-01, 4.37803358e-01, 6.12009391e-02,
          9.29599479e-02, 1.61435947e-01, 3.99491429e-01, 3.99491429e-01,
          3.99491429e-01, 3.99491429e-01, 3.99491429e-01, 3.99491429e-01 ]
      - [ 4.92025673e-01, 4.92025673e-01, 3.25722545e-01, 2.34216556e-01,
          2.12241739e-01, 1.34774327e-01, 1.21036977e-01, 1.73218697e-01,
          4.92025673e-01, 4.58608538e-01, 4.58608538e-01, 1.29139349e-01,
          1.59789354e-01, 3.85410845e-01, 4.58608538e-01, 8.42518285e-02,
          8.18358287e-02, 3.99883866e-01, 4.80982512e-01, 4.80982512e-01,
          8.16330016e-02, 8.17275643e-02, 4.80982512e-01, 4.80982512e-01,
          9.30629298e-02, 7.33542964e-02, 2.05996305e-01, 4.50619310e-01,
          4.50619310e-01, 9.99139324e-02, 1.41005188e-01, 4.50619310e-01,
          4.50619310e-01, 2.23391682e-01, 1.81761801e-01, 2.65445501e-01,
          4.62078631e-01, 4.62078631e-01, 1.75481245e-01, 3.12063277e-01,
          2.12395996e-01, 4.62078631e-01, 2.46228009e-01, 2.35380128e-01,
          2.55955905e-01, 4.81082290e-01, 4.81082290e-01, 5.90953343e-02,
          1.00848772e-01, 4.81082290e-01, 4.81082290e-01, 1.07248053e-01,
          1.03157192e-01, 1.83379084e-01, 4.39062446e-01, 4.39062446e-01,
          2.59066850e-01, 2.29486480e-01, 4.39062446e-01, 4.39062446e-01,
          1.97459385e-01, 1.55603960e-01, 2.03785062e-01, 4.17016804e-01,
          4.17016804e-01, 1.17576323e-01, 1.31952971e-01, 4.17016804e-01,
          4.17016804e-01, 3.17512482e-01, 2.55882084e-01, 3.20462823e-01,
          2.58544505e-01, 2.65302092e-01, 2.47383982e-01, 4.48699385e-01,
          2.50243574e-01, 3.09096903e-01, 1.86902389e-01, 4.48699385e-01,
          4.48699385e-01, 1.36316568e-01, 5.90905100e-02, 7.63028190e-02,
          4.87587690e-01, 4.43572551e-01, 2.12773085e-01, 1.09452039e-01,
          4.87587690e-01, 4.87587690e-01, 3.26288879e-01, 3.62063617e-01,
          3.62063617e-01, 2.91351110e-01, 1.35986775e-01, 3.62063617e-01,
          3.62063617e-01, 3.62063617e-01, 3.62063617e-01, 3.70734394e-01,
          3.70734394e-01, 3.25045317e-01, 1.59326524e-01, 3.70734394e-01,
          3.70734394e-01, 3.70734394e-01, 3.70734394e-01, 2.01476336e-01,
          2.44262442e-01, 2.27130398e-01, 4.58337754e-01, 4.58337754e-01,
          4.58337754e-01, 2.55092531e-01, 2.08703831e-01, 1.90493226e-01,
          3.30199718e-01, 1.02237858e-01, 5.44579215e-02, 1.50164768e-01,
          5.16751349e-01, 5.16751349e-01, 7.92461783e-02, 8.59676823e-02,
          3.79612058e-01, 5.16751349e-01, 1.27720550e-01, 5.62911294e-02,
          4.38543141e-01, 4.38543141e-01, 4.38543141e-01, 4.13238034e-02,
          1.13270462e-01, 4.38543141e-01, 4.38543141e-01, 2.01402470e-01,
          6.35320246e-02, 1.82745740e-01, 4.52191740e-01, 4.52191740e-01,
          1.56645998e-01, 2.73935258e-01, 4.52191740e-01, 4.52191740e-01 ]
      - [ 4.00726885e-01, 4.00726885e-01, 4.00726885e-01, 9.21686366e-02,
          3.70861590e-01, 1.31148219e-01, 2.96948880e-01, 3.19776177e-01,
          4.00726885e-01, 4.03921127e-01, 4.03921127e-01, 4.03921127e-01,
          1.62522063e-01, 2.84556538e-01, 2.31652558e-01, 4.03921127e-01,
          1.38400495e-01, 4.03921127e-01, 4.52179193e-01, 4.52179193e-01,
          5.32168783e-02, 6.80949762e-02, 2.45576590e-01, 4.52179193e-01,
          2.52331764e-01, 2.14874655e-01, 4.52179193e-01, 3.70818377e-01,
          3.70818377e-01, 9.54891592e-02, 1.56949967e-01, 3.70818377e-01,
          3.70818377e-01, 3.70818377e-01, 3.70818377e-01, 3.70818377e-01,
          3.72984886e-01, 3.72984886e-01, 3.72984886e-01, 3.72984886e-01,
          2.96317846e-01, 2.45046720e-01, 3.02434176e-01, 2.47722626e-01,
          3.72984886e-01, 4.09748554e-01, 4.09748554e-01, 1.27216488e-01,
          3.10353398e-01, 4.09748554e-01, 4.09748554e-01, 1.13809288e-01,
          1.76015675e-01, 4.09748554e-01, 4.22950655e-01, 4.22950655e-01,
          2.05688328e-01, 6.08892515e-02, 4.22950655e-01, 4.22950655e-01,
          3.11737239e-01, 1.81972802e-01, 3.22360903e-01, 3.73495072e-01,
          3.73495072e-01, 1.29212752e-01, 5.55220135e-02, 3.73495072e-01,
          3.73495072e-01, 3.73495072e-01, 3.73495072e-01, 3.73495072e-01,
          3.85517627e-01, 3.85517627e-01, 3.85517627e-01, 3.85517627e-01,
          3.85517627e-01, 2.76656330e-01, 3.18611383e-01, 1.31307930e-01,
          2.40282387e-01, 3.65036100e-01, 1.44172639e-01, 1.73159465e-01,
          4.30280507e-01, 4.30280507e-01, 3.68536502e-01, 1.05529279e-01,
          3.30607086e-01, 4.30280507e-01, 2.76796520e-01, 3.22613776e-01,
          3.56807202e-01, 3.56807202e-01, 3.56807202e-01, 2.30481923e-01,
          3.55049849e-01, 3.56807202e-01, 3.56807202e-01, 1.98336124e-01,
          2.07341358e-01, 2.39885032e-01, 2.35856757e-01, 4.00125474e-01,
          4.00125474e-01, 4.00125474e-01, 4.00125474e-01, 4.00125474e-01,
          2.87175477e-01, 3.28235745e-01, 5.18000364e-01, 2.08490267e-01,
          5.18000364e-01, 2.19943374e-01, 3.06609035e-01, 1.43571988e-01,
          2.48000532e-01, 1.60810709e-01, 3.02800447e-01, 3.94975305e-01,
          3.94975305e-01, 3.94975305e-01, 3.94975305e-01, 3.39386225e-01,
          3.24308425e-01, 1.84729666e-01, 1.18170418e-01, 1.88239604e-01,
          2.66747087e-01, 5.17459333e-01, 5.17459333e-01, 3.78058523e-01,
          1.92755148e-01, 2.86262989e-01, 2.76987493e-01, 2.07684323e-01,
          1.24208435e-01, 1.68555558e-01, 2.62759596e-01, 4.14460391e-01,
          4.14460391e-01, 4.14460391e-01, 3.90814573e-01, 4.14460391e-01 ]
      - [ 4.72070456e-01, 4.72070456e-01, 4.72070456e-01, 1.67560816e-01,
          2.65745312e-01, 3.52185778e-02, 3.56489383e-02, 5.17152622e-02,
          4.72070456e-01, 4.46735591e-01, 4.46735591e-01, 2.17596442e-01,
          2.77874261e-01, 2.20799476e-01, 4.31279600e-01, 6.44880533e-02,
          1.90937936e-01, 4.43237484e-01, 5.13295531e-01, 5.13295531e-01,
          6.67071044e-02, 8.40519816e-02, 3.80706280e-01, 5.13295531e-01,
          5.80730587e-02, 7.79066533e-02, 1.96374595e-01, 3.97824496e-01,
          3.97824496e-01, 6.11757636e-02, 1.05068639e-01, 3.97824496e-01,
          3.97824496e-01, 3.97824496e-01, 3.06080282e-01, 3.10220718e-01,
          4.26769346e-01, 4.26769346e-01, 3.66698176e-01, 2.66095430e-01,
          2.07270846e-01, 4.26769346e-01, 2.12977558e-01, 1.60548046e-01,
          3.60513628e-01, 4.73020643e-01, 4.73020643e-01, 4.60460670e-02,
          6.57741502e-02, 4.70911086e-01, 4.73020643e-01, 8.12923834e-02,
          8.54973942e-02, 2.86195368e-01, 4.49168891e-01, 4.49168891e-01,
          3.05993736e-01, 6.25459626e-02, 4.49168891e-01, 4.49168891e-01,
          2.40932047e-01, 1.04472749e-01, 1.48309782e-01, 4.17675704e-01,
          4.17675704e-01, 3.04156005e-01, 6.64320439e-02, 1.40949517e-01,
