%YAML:1.0
---
opencv_ml_svm:
   format: 3
   svmType: C_SVC
   kernel:
      type: RBF
      gamma: 5.0624999999999998e-01
   C: 1.2500000000000000e+01
   term_criteria: { epsilon:1.1920928955078125e-07, iterations:1000 }
   var_count: 144
   class_count: 4
   class_labels: !!opencv-matrix
      rows: 4
      cols: 1
      dt: i
      data: [ 0, 1, 2, 3 ]
   sv_total: 57
   support_vectors:
      - [ 4.37797070e-01, 3.25593412e-01, 4.29040670e-01, 1.24150120e-01,
          2.57348508e-01, 1.29030213e-01, 1.79584742e-01, 4.37797070e-01,
          4.37797070e-01, 4.69039053e-01, 4.69039053e-01, 4.28140134e-01,
          8.19540620e-02, 1.78729862e-01, 3.50485712e-01, 1.52633131e-01,
          1.22737519e-01, 4.14913774e-01, 4.60182279e-01, 4.60182279e-01,
          2.94469267e-01, 8.02619755e-02, 1.39263511e-01, 4.60182279e-01,
          4.60182279e-01, 8.71733204e-02, 1.67883635e-01, 4.01760489e-01,
          4.01760489e-01, 2.64469713e-01, 5.10805473e-02, 1.34782270e-01,
          4.01760489e-01, 4.01760489e-01, 4.01760489e-01, 3.13383639e-01,
          5.14712274e-01, 2.26049557e-01, 1.16462432e-01, 2.26264805e-01,
          5.14712274e-01, 2.24653065e-01, 7.55770653e-02, 1.67436287e-01,
          5.14712274e-01, 5.00989139e-01, 5.00989139e-01, 8.24401006e-02,
          4.78123873e-02, 3.20481390e-01, 5.00989139e-01, 1.37590975e-01,
          6.00990914e-02, 3.28164876e-01, 3.13226283e-01, 4.67107028e-01,
          4.67107028e-01, 4.14766595e-02, 1.04541928e-01, 4.67107028e-01,
          4.67107028e-01, 8.91939625e-02, 6.21515922e-02, 8.31936970e-02,
          4.73949105e-01, 4.73949105e-01, 4.32653353e-02, 1.62238076e-01,
          4.73949105e-01, 4.73949105e-01, 2.35666931e-01, 7.81152099e-02,
          4.74911183e-01, 5.68647943e-02, 5.87753467e-02, 4.74911183e-01,
          4.74911183e-01, 2.22763002e-01, 7.97904581e-02, 1.74402222e-01,
          4.74911183e-01, 4.40665781e-01, 9.92185399e-02, 2.57415604e-02,
          4.40665781e-01, 4.40665781e-01, 4.40665781e-01, 4.08645868e-02,
          1.11757077e-01, 4.40665781e-01, 3.60640854e-01, 3.60640854e-01,
          3.60640854e-01, 3.60640854e-01, 3.60640854e-01, 1.72665969e-01,
          3.60640854e-01, 2.36960992e-01, 3.60640854e-01, 3.92913669e-01,
          2.14202136e-01, 1.96136311e-01, 3.92913669e-01, 3.92913669e-01,
          1.32698163e-01, 3.92913669e-01, 3.49582702e-01, 3.92913669e-01,
          1.81290228e-02, 3.97776440e-02, 1.40506715e-01, 6.91051066e-01,
          6.91051066e-01, 1.17774568e-01, 3.40782814e-02, 1.03902379e-02,
          3.47174630e-02, 1.33673206e-01, 1.24539435e-01, 3.44544798e-01,
          5.56551874e-01, 5.56551874e-01, 3.67615856e-02, 2.73814853e-02,
          3.35119292e-02, 4.68645215e-01, 9.06244293e-02, 3.96627277e-01,
          3.96627277e-01, 3.96627277e-01, 3.96627277e-01, 6.90476000e-02,
          3.96627277e-01, 3.96627277e-01, 1.97934926e-01, 1.99802533e-01,
          7.59803057e-02, 1.92118555e-01, 4.30292606e-01, 4.30292606e-01,
          1.60211354e-01, 4.30292606e-01, 3.83175403e-01, 4.30292606e-01 ]
      - [ 5.10404229e-01, 5.10404229e-01, 9.25174430e-02, 3.58035713e-02,
          3.38599622e-01, 5.10404229e-01, 2.55957961e-01, 1.95002574e-02,
          1.51589006e-01, 4.79195178e-01, 2.05896884e-01, 5.04765995e-02,
          1.52257770e-01, 4.79195178e-01, 4.79195178e-01, 7.13753402e-02,
          5.90210073e-02, 4.79195178e-01, 4.07586664e-01, 3.62150222e-02,
          1.46972775e-01, 4.54555124e-01, 4.54555124e-01, 8.24199989e-02,
          4.30696346e-02, 4.21795070e-01, 4.54555124e-01, 2.39412442e-01,
          9.40430313e-02, 3.50492895e-01, 4.65909451e-01, 2.55013794e-01,
          7.83703923e-02, 2.89741188e-01, 4.65909451e-01, 4.65909451e-01,
          3.64035666e-01, 3.64035666e-01, 3.64035666e-01, 9.23080444e-02,
          3.64035666e-01, 3.64035666e-01, 3.64035666e-01, 2.45333478e-01,
          3.64035666e-01, 5.08956611e-01, 1.22888267e-01, 1.03531376e-01,
          2.22406760e-01, 5.08956611e-01, 3.20562869e-01, 1.24865703e-01,
          1.55464724e-01, 5.08956611e-01, 4.41878527e-01, 1.05447851e-01,
          3.93538594e-01, 4.41878527e-01, 4.41878527e-01, 1.12347744e-01,
          7.90537894e-02, 1.72325686e-01, 4.41878527e-01, 2.40184367e-01,
          1.59034178e-01, 4.19719279e-01, 4.19719279e-01, 1.71567142e-01,
          5.06975055e-02, 4.19719279e-01, 4.19719279e-01, 4.19719279e-01,
          2.98574686e-01, 1.84520528e-01, 3.92436057e-01, 3.92436057e-01,
          3.92436057e-01, 2.03578964e-01, 2.47811019e-01, 3.92436057e-01,
          3.92436057e-01, 3.88741851e-01, 1.97303101e-01, 9.44607258e-02,
          2.46606633e-01, 3.88741851e-01, 3.88741851e-01, 3.63110155e-01,
          3.88741851e-01, 3.88741851e-01, 4.04699475e-01, 4.04699475e-01,
          3.36285383e-01, 4.04699475e-01, 4.04699475e-01, 2.19150826e-01,
          1.14281312e-01, 5.36050461e-02, 4.04699475e-01, 2.49254331e-01,
          3.97260964e-01, 3.97260964e-01, 3.76090586e-01, 2.20461071e-01,
          3.97260964e-01, 3.97260964e-01, 2.49929026e-01, 2.23890230e-01,
          9.09530297e-02, 4.08330075e-02, 2.78832644e-01, 4.72654194e-01,
          4.72654194e-01, 8.64602402e-02, 8.06742609e-02, 4.72654194e-01,
          4.72654194e-01, 4.11788285e-01, 5.75337894e-02, 3.89653631e-02,
          4.67542470e-01, 4.67542470e-01, 1.21578440e-01, 7.67385438e-02,
          3.80097240e-01, 4.67542470e-01, 4.17474329e-01, 4.17474329e-01,
          8.69088024e-02, 2.67334044e-01, 4.17474329e-01, 4.17474329e-01,
          1.67359695e-01, 1.31817162e-01, 4.17474329e-01, 4.20437545e-01,
          4.61079746e-01, 1.57121763e-01, 1.37355089e-01, 3.21916133e-01,
          4.61079746e-01, 4.61079746e-01, 1.60201013e-01, 8.94155577e-02 ]
      - [ 2.18936771e-01, 3.86759520e-01, 3.86759520e-01, 3.86759520e-01,
          3.85260910e-01, 1.23673260e-01, 3.61046851e-01, 3.86759520e-01,
          2.36210585e-01, 5.97808883e-02, 1.46537021e-01, 4.47995007e-01,
          4.47995007e-01, 1.27013594e-01, 1.08330958e-01, 4.05536294e-01,
          4.47995007e-01, 4.19585556e-01, 5.00665456e-02, 2.62904555e-01,
          4.50916767e-01, 4.50916767e-01, 6.96284100e-02, 5.61595485e-02,
          4.50916767e-01, 4.50916767e-01, 3.20257187e-01, 1.75197702e-02,
          1.60568446e-01, 5.33207536e-01, 2.66869307e-01, 1.72469486e-02,
          1.50025124e-02, 5.33207536e-01, 5.33207536e-01, 2.09555268e-01,
          3.71819407e-01, 3.71819407e-01, 3.71819407e-01, 1.08124144e-01,
          3.71819407e-01, 3.71819407e-01, 3.52001250e-01, 1.76611438e-01,
          3.71819407e-01, 3.76910537e-01, 3.64743650e-01, 2.68407017e-01,
          3.76910537e-01, 3.76910537e-01, 3.38072151e-01, 2.44023338e-01,
          2.21513033e-01, 3.76910537e-01, 3.70341957e-01, 3.70341957e-01,
          3.70341957e-01, 1.30544841e-01, 3.35916758e-01, 3.70341957e-01,
          3.70341957e-01, 3.46569091e-01, 2.46052682e-01, 3.13287266e-02,
          4.45558399e-01, 4.45558399e-01, 3.06864101e-02, 3.14231887e-02,
          4.45558399e-01, 4.45558399e-01, 4.45558399e-01, 5.23211015e-03,
          2.85053521e-01, 3.80763322e-01, 3.80763322e-01, 3.80763322e-01,
          2.68115461e-01, 2.80014187e-01, 3.80763322e-01, 3.80763322e-01,
          1.99356824e-01, 3.25654536e-01, 2.26180747e-01, 3.47018331e-01,
          3.47018331e-01, 3.47018331e-01, 3.41751248e-01, 3.47018331e-01,
          3.47018331e-01, 3.47018331e-01, 3.90384644e-01, 3.90384644e-01,
          1.07621841e-01, 3.26644033e-01, 3.90384644e-01, 3.90384644e-01,
          3.90384644e-01, 1.22495234e-01, 3.17514032e-01, 1.27589345e-01,
          3.25543076e-01, 1.07813194e-01, 1.19548745e-01, 4.55728024e-01,
          5.09479523e-01, 5.09479523e-01, 3.24380845e-01, 1.21198624e-01,
          2.02715978e-01, 3.50017995e-01, 4.26676720e-01, 4.26676720e-01,
          4.26676720e-01, 6.51418567e-02, 2.33427271e-01, 4.26676720e-01,
          2.12573797e-01, 1.20904706e-01, 7.87656084e-02, 4.70659941e-01,
          4.70659941e-01, 1.10865541e-01, 3.48877087e-02, 2.73652077e-01,
          4.70659941e-01, 4.70659941e-01, 2.32787237e-01, 1.31277248e-01,
          4.01052505e-01, 4.31507885e-01, 1.08911969e-01, 8.22492093e-02,
          4.31507885e-01, 4.31507885e-01, 4.31507885e-01, 4.57658291e-01,
          2.65929550e-01, 1.30379707e-01, 5.51073160e-03, 3.52044761e-01,
          1.50757313e-01, 4.57658291e-01, 4.57658291e-01, 3.64231318e-01 ]
      - [ 3.57649654e-01, 3.57649654e-01, 3.57649654e-01, 1.30256280e-01,
          3.57649654e-01, 3.57649654e-01, 3.57649654e-01, 3.52922022e-01,
          2.95679629e-01, 4.61140960e-01, 1.12056643e-01, 1.05185099e-01,
          4.61140960e-01, 4.61140960e-01, 2.03964382e-01, 1.41637012e-01,
          2.43940458e-01, 4.61140960e-01, 1.67566359e-01, 7.28559494e-02,
          4.12200004e-01, 4.43221778e-01, 4.26627636e-01, 7.32185915e-02,
          1.24774240e-01, 4.43221778e-01, 4.43221778e-01, 2.19808891e-01,
          1.04816727e-01, 4.29431051e-01, 4.29431051e-01, 3.76604274e-02,
          1.13728881e-01, 4.29431051e-01, 4.29431051e-01, 4.29431051e-01,
          3.32778692e-01, 3.32778692e-01, 3.32778692e-01, 3.32778692e-01,
          3.32778692e-01, 3.32778692e-01, 3.32778692e-01, 3.32778692e-01,
          3.32778692e-01, 4.75251973e-01, 8.63806903e-02, 6.53253198e-02,
          4.75251973e-01, 4.75251973e-01, 2.43408769e-01, 8.39213133e-02,
          1.17370449e-01, 4.75251973e-01, 3.90874296e-01, 1.48598567e-01,
          3.90874296e-01, 3.90874296e-01, 3.90874296e-01, 1.39518872e-01,
          1.94555387e-01, 3.90874296e-01, 3.90874296e-01, 3.56830329e-01,
          2.89974779e-01, 3.56830329e-01, 3.56830329e-01, 3.56830329e-01,
          1.45101592e-01, 3.56830329e-01, 3.56830329e-01, 3.56830329e-01,
          1.01981036e-01, 2.76879400e-01, 4.01251227e-01, 4.01251227e-01,
          3.97610813e-01, 2.14768022e-01, 4.01251227e-01, 4.01251227e-01,
          2.46372327e-01, 3.94132376e-01, 3.59111100e-01, 2.30181143e-01,
          3.94132376e-01, 3.94132376e-01, 3.94132376e-01, 2.29657203e-01,
          9.03867260e-02, 3.63104731e-01, 3.79564375e-01, 3.79564375e-01,
          3.79564375e-01, 2.36648828e-01, 3.79564375e-01, 3.79564375e-01,
          3.79564375e-01, 1.93937570e-01, 1.95394024e-01, 1.92911446e-01,
          3.92849892e-01, 3.92849892e-01, 1.34002388e-01, 3.92849892e-01,
          3.92849892e-01, 3.92849892e-01, 3.92849892e-01, 1.22137673e-01,
          2.84596741e-01, 4.87201214e-02, 3.13437939e-01, 4.58845913e-01,
          4.04538333e-01, 8.26903507e-02, 1.08151555e-01, 4.58845913e-01,
          4.58845913e-01, 4.62614834e-01, 2.66578406e-01, 5.51744476e-02,
          2.01994032e-01, 4.62614834e-01, 4.62614834e-01, 7.49440193e-02,
          1.37123212e-01, 4.62614834e-01, 4.97275174e-01, 4.97275174e-01,
          8.71971473e-02, 7.41580725e-02, 4.49786484e-01, 4.97275174e-01,
          1.44867375e-01, 4.58728261e-02, 1.21178001e-01, 4.23663944e-01,
          4.51734453e-01, 1.32315844e-01, 9.27268490e-02, 3.15393835e-01,
          4.51734453e-01, 4.51734453e-01, 2.57474631e-01, 1.09235987e-01 ]
      - [ 4.00768101e-01, 4.00768101e-01, 4.00768101e-01, 4.00768101e-01,
          4.00768101e-01, 3.24574336e-02, 1.33441642e-01, 1.15955576e-01,
          4.00768101e-01, 3.68727177e-01, 2.59785533e-01, 3.68727177e-01,
          3.68727177e-01, 3.68727177e-01, 3.16139340e-01, 1.14565291e-01,
          3.68727177e-01, 3.68727177e-01, 3.75578374e-01, 1.78510144e-01,
          2.87720203e-01, 3.75578374e-01, 3.75578374e-01, 3.75578374e-01,
          1.87734425e-01, 3.75578374e-01, 3.75578374e-01, 2.93941498e-01,
          2.26219684e-01, 2.23549888e-01, 8.90077800e-02, 4.00132179e-01,
          4.00132179e-01, 4.00132179e-01, 4.00132179e-01, 4.00132179e-01,
          3.94409776e-01, 3.94409776e-01, 3.94409776e-01, 3.94409776e-01,
          3.80219579e-01, 7.07195774e-02, 1.49188787e-01, 2.15497062e-01,
          3.94409776e-01, 3.96875709e-01, 1.48401469e-01, 3.96875709e-01,
          3.96875709e-01, 3.96875709e-01, 1.10321321e-01, 1.29535288e-01,
          3.96875709e-01, 3.96875709e-01, 3.78873855e-01, 9.17465091e-02,
          4.29562062e-01, 4.29562062e-01, 2.88111389e-01, 1.04232848e-01,
          1.08532608e-01, 4.29562062e-01, 4.29562062e-01, 2.65729517e-01,
          1.41142145e-01, 2.19840497e-01, 2.45398015e-01, 4.12525892e-01,
          3.40712786e-01, 4.12525892e-01, 4.12525892e-01, 4.12525892e-01,
          3.96141291e-01, 1.87754229e-01, 3.96141291e-01, 3.96141291e-01,
          3.96141291e-01, 4.60779108e-02, 1.30767241e-01, 3.96141291e-01,
          3.96141291e-01, 4.37126726e-01, 3.29654291e-02, 1.17286921e-01,
          4.37126726e-01, 4.37126726e-01, 1.35585025e-01, 8.37163404e-02,
          4.37126726e-01, 4.37126726e-01, 4.12963867e-01, 9.98424217e-02,
          2.14670926e-01, 3.81245494e-01, 4.12963867e-01, 4.12963867e-01,
          1.72908813e-01, 2.87089437e-01, 4.12963867e-01, 1.86476663e-01,
          1.29573211e-01, 1.61978394e-01, 1.90930679e-01, 4.19893116e-01,
          4.19893116e-01, 4.19893116e-01, 4.19893116e-01, 4.19893116e-01,
          6.87198043e-02, 8.91386196e-02, 5.04631519e-01, 5.04631519e-01,
          4.03479964e-01, 3.37627716e-02, 6.28614649e-02, 4.54745352e-01,
          3.13536733e-01, 7.83471689e-02, 2.33323984e-02, 2.07590148e-01,
          4.91002470e-01, 4.69086379e-01, 2.21396107e-02, 3.92046794e-02,
          4.91002470e-01, 4.91002470e-01, 4.12918359e-01, 3.76154818e-02,
          9.48285386e-02, 4.61099148e-01, 4.61099148e-01, 8.11516494e-02,
          9.70730707e-02, 4.00798440e-01, 4.61099148e-01, 3.98831934e-01,
          1.87374670e-02, 7.12226704e-02, 3.91340166e-01, 3.98831934e-01,
          2.05208108e-01, 3.98831934e-01, 3.98831934e-01, 3.98831934e-01 ]
      - [ 5.22665322e-01, 5.22665322e-01, 1.25307217e-01, 5.70593253e-02,
          2.45857671e-01, 5.22665322e-01, 2.56538272e-01, 7.82846734e-02,
          1.54592901e-01, 4.31931227e-01, 3.98260385e-01, 5.17779365e-02,
          2.95947582e-01, 4.31931227e-01, 4.31931227e-01, 7.17957467e-02,
          1.19549803e-01, 4.09472346e-01, 1.93917185e-01, 6.16156049e-02,
          3.47096533e-01, 4.53100741e-01, 4.53100741e-01, 9.66463983e-02,
          5.52814826e-02, 4.53100741e-01, 4.53100741e-01, 1.94674090e-01,
          1.00947835e-01, 4.19256955e-01, 4.59113598e-01, 1.70807928e-01,
          8.68701264e-02, 3.20111811e-01, 4.59113598e-01, 4.59113598e-01,
          4.04307276e-01, 4.04307276e-01, 4.04307276e-01, 1.17175303e-01,
          1.54578954e-01, 4.04307276e-01, 4.04307276e-01, 3.25236052e-01,
          1.87712520e-01, 4.29215819e-01, 2.54579335e-01, 1.51278868e-01,
          1.75297633e-01, 4.29215819e-01, 4.29215819e-01, 2.78923422e-01,
          2.50168353e-01, 4.29215819e-01, 3.69937062e-01, 2.82983154e-01,
          3.69937062e-01, 3.69937062e-01, 3.69937062e-01, 1.64803341e-01,
          2.60660321e-01, 3.69937062e-01, 3.69937062e-01, 3.85591447e-01,
          1.86299726e-01, 3.85591447e-01, 3.27034712e-01, 3.15575033e-01,
          1.67783916e-01, 3.85591447e-01, 3.85591447e-01, 3.63354295e-01,
          3.83028567e-01, 1.51300505e-01, 2.85864919e-01, 3.83028567e-01,
          3.83028567e-01, 2.42688507e-01, 3.14818442e-01, 3.83028567e-01,
          3.83028567e-01, 5.01618028e-01, 2.97629498e-02, 2.90457942e-02,
          2.04661012e-01, 5.01618028e-01, 4.12260920e-01, 5.10333404e-02,
          1.54755294e-01, 5.01618028e-01, 4.23497111e-01, 4.23497111e-01,
          2.19805181e-01, 1.01123877e-01, 4.23497111e-01, 4.23497111e-01,
          1.97644621e-01, 3.76391858e-02, 4.23497111e-01, 3.74287099e-01,
          3.74287099e-01, 3.74287099e-01, 8.56821612e-02, 3.74287099e-01,
          3.74287099e-01, 3.74287099e-01, 2.46844292e-01, 2.95706093e-01,
          1.33935824e-01, 5.47766425e-02, 1.79427594e-01, 4.96710539e-01,
          4.96710539e-01, 1.58588767e-01, 6.68416247e-02, 4.14877534e-01,
          4.96710539e-01, 4.60141867e-01, 5.29843941e-02, 6.06378093e-02,
          4.60141867e-01, 4.60141867e-01, 2.69482732e-01, 5.10134660e-02,
          2.58406997e-01, 4.60141867e-01, 4.52732861e-01, 3.43648463e-01,
          8.81307274e-02, 2.21945018e-01, 4.52732861e-01, 4.52732861e-01,
          2.21898884e-01, 3.77877057e-02, 3.93432289e-01, 4.17637289e-01,
          4.33572024e-01, 1.27942175e-01, 1.11192122e-01, 4.28900093e-01,
          4.33572024e-01, 4.33572024e-01, 1.96208760e-01, 7.81526342e-02 ]
      - [ 3.98693085e-01, 3.98693085e-01, 3.98693085e-01, 3.98693085e-01,
          2.28280067e-01, 2.81667680e-01, 1.83164746e-01, 1.90363929e-01,
          3.98693085e-01, 3.97260040e-01, 3.97260040e-01, 1.04294218e-01,
          3.97260040e-01, 3.97260040e-01, 3.97260040e-01, 1.21257722e-01,
          1.53484732e-01, 3.97260040e-01, 4.46185827e-01, 3.50509256e-01,
          4.41371016e-02, 1.78036854e-01, 4.46185827e-01, 4.46185827e-01,
          1.03776991e-01, 1.78729355e-01, 4.46185827e-01, 4.41647142e-01,
          2.42124557e-01, 5.23548648e-02, 8.77217352e-02, 4.41647142e-01,
          4.41647142e-01, 4.41647142e-01, 3.03874552e-01, 2.32334837e-01,
          3.58202964e-01, 3.58202964e-01, 3.58202964e-01, 3.58202964e-01,
          3.58202964e-01, 2.54144043e-01, 1.83484346e-01, 3.58202964e-01,
          3.58202964e-01, 4.22340155e-01, 2.02754930e-01, 1.00083575e-01,
          4.22340155e-01, 4.22340155e-01, 4.22340155e-01, 7.20557719e-02,
          2.18189701e-01, 4.22340155e-01, 3.86831522e-01, 1.04189731e-01,
          1.79080710e-01, 3.86831522e-01, 3.86831522e-01, 3.86831522e-01,
          2.35326052e-01, 3.86831522e-01, 3.86831522e-01, 3.25382829e-01,
          1.03542186e-01, 2.28307471e-01, 1.37764633e-01, 4.02065903e-01,
          4.02065903e-01, 4.02065903e-01, 4.02065903e-01, 4.02065903e-01,
          3.57598066e-01, 3.57598066e-01, 3.57598066e-01, 3.57598066e-01,
          3.57598066e-01, 2.67883152e-01, 1.97222367e-01, 3.57598066e-01,
          3.44253987e-01, 3.99656922e-01, 1.37690246e-01, 1.10252827e-01,
          3.99656922e-01, 3.99656922e-01, 3.99656922e-01, 8.08651373e-02,
          3.99656922e-01, 3.99656922e-01, 3.94229710e-01, 9.58976075e-02,
          1.13229863e-01, 3.94229710e-01, 3.94229710e-01, 3.94229710e-01,
          2.03817993e-01, 3.94229710e-01, 3.94229710e-01, 3.89567673e-01,
          1.33485064e-01, 2.17255265e-01, 2.67851055e-01, 3.89567673e-01,
          3.17066282e-01, 3.89567673e-01, 3.89567673e-01, 3.89567673e-01,
          2.23328695e-01, 3.93576473e-01, 3.93576473e-01, 3.93576473e-01,
          3.93576473e-01, 3.11062753e-01, 3.21583986e-01, 2.09816784e-01,
          2.87025005e-01, 1.16471350e-01, 1.57499954e-01, 3.16339582e-01,
          4.44555134e-01, 4.44555134e-01, 1.95988074e-01, 1.67893857e-01,
          4.44555134e-01, 4.44555134e-01, 9.60230827e-02, 4.75163981e-02,
          1.20486028e-01, 4.90615934e-01, 4.90615934e-01, 5.52262105e-02,
          5.69104105e-02, 4.90615934e-01, 4.90615934e-01, 1.46362007e-01,
          5.65439239e-02, 1.68288112e-01, 4.26982135e-01, 4.26982135e-01,
          1.76709265e-01, 4.26982135e-01, 4.26982135e-01, 4.26982135e-01 ]
      - [ 4.87182707e-01, 4.87182707e-01, 4.17506248e-01, 6.08623810e-02,
          4.95915152e-02, 1.33642614e-01, 2.36411482e-01, 2.04003543e-01,
          4.73916650e-01, 5.26145875e-01, 5.26145875e-01, 1.46046743e-01,
          8.87548402e-02, 2.10694000e-01, 5.26145875e-01, 2.03446567e-01,
          5.98622859e-02, 2.13738129e-01, 3.83055240e-01, 3.83055240e-01,
          3.60204637e-01, 9.29324999e-02, 3.83055240e-01, 3.83055240e-01,
          3.83055240e-01, 1.48169920e-01, 3.19653541e-01, 3.85138273e-01,
          3.32183480e-01, 3.85138273e-01, 1.70333520e-01, 2.53633589e-01,
          2.41261110e-01, 3.85138273e-01, 3.85138273e-01, 3.75406533e-01,
          4.76811796e-01, 4.76811796e-01, 1.23101987e-01, 6.93094283e-02,
          3.16876143e-01, 4.76811796e-01, 2.70873040e-01, 1.01650991e-01,
          3.30326378e-01, 4.71044213e-01, 4.71044213e-01, 6.12680577e-02,
          9.30172205e-02, 3.60878915e-01, 4.71044213e-01, 2.12331519e-01,
          8.99010599e-02, 3.65842581e-01, 3.57702494e-01, 3.57702494e-01,
          3.57702494e-01, 1.50650084e-01, 3.57702494e-01, 3.57702494e-01,
          3.57702494e-01, 2.79415697e-01, 3.57702494e-01, 3.82078499e-01,
          3.82078499e-01, 3.82078499e-01, 1.12316236e-01, 2.61082530e-01,
          1.98745802e-01, 3.82078499e-01, 3.82078499e-01, 3.82078499e-01,
          4.51772988e-01, 3.65932375e-01, 4.79360707e-02, 2.47395113e-01,
          4.51772988e-01, 4.51772988e-01, 2.24419504e-01, 4.81087491e-02,
          3.64833593e-01, 4.97834176e-01, 5.58068790e-02, 4.38855067e-02,
          2.63071179e-01, 4.97834176e-01, 4.11058038e-01, 8.07995722e-02,
          4.20370735e-02, 4.97834176e-01, 3.83354276e-01, 3.60638440e-01,
          3.83354276e-01, 2.58335352e-01, 3.83354276e-01, 1.84784487e-01,
          3.83354276e-01, 1.74427733e-01, 3.83354276e-01, 3.76705348e-01,
          1.95026636e-01, 3.76705348e-01, 3.46371204e-01, 3.76705348e-01,
          2.29072273e-01, 3.76705348e-01, 2.76078999e-01, 3.76705348e-01,
          1.22024007e-01, 4.25876640e-02, 9.71128121e-02, 5.15318155e-01,
          6.47990704e-01, 4.61318880e-01, 2.57744521e-01, 4.93097939e-02,
          1.65123865e-02, 8.98209438e-02, 3.19130301e-01, 5.41537166e-01,
          2.90128887e-01, 5.41537166e-01, 3.74278784e-01, 2.44869545e-01,
          8.67384151e-02, 8.00688043e-02, 8.05262178e-02, 4.47423190e-01,
          4.47423190e-01, 3.26295316e-01, 2.42030725e-01, 1.41901553e-01,
          4.47423190e-01, 4.47423190e-01, 5.57926781e-02, 1.87504560e-01,
          3.39227289e-01, 4.31525677e-01, 2.81800658e-01, 3.33693802e-01,
          2.85176277e-01, 4.31525677e-01, 4.31525677e-01, 1.21344261e-01 ]
      - [ 3.78095716e-01, 3.78095716e-01, 3.78095716e-01, 2.42157802e-01,
          2.27256507e-01, 3.78095716e-01, 3.78095716e-01, 3.78095716e-01,
          1.67924240e-01, 4.04581636e-01, 4.04581636e-01, 1.47993460e-01,
          2.01295510e-01, 4.04581636e-01, 4.04581636e-01, 2.24439383e-01,
          2.54424274e-01, 4.04581636e-01, 4.29187655e-01, 6.94398582e-02,
          1.62843436e-01, 4.36642796e-01, 4.36642796e-01, 1.28639176e-01,
          3.03396098e-02, 4.36642796e-01, 4.36642796e-01, 1.72542468e-01,
          4.91757169e-02, 4.70247269e-01, 4.70247269e-01, 1.63699493e-01,
          5.48258536e-02, 2.20863134e-01, 4.70247269e-01, 4.70247269e-01,
          3.66154671e-01, 3.66154671e-01, 3.66154671e-01, 1.92696273e-01,
          3.66154671e-01, 3.66154671e-01, 3.66154671e-01, 3.55918527e-01,
          1.67679846e-01, 4.62477177e-01, 1.06879629e-01, 1.21657275e-01,
          3.57506067e-01, 4.62477177e-01, 3.86955112e-01, 1.06784165e-01,
          1.96351424e-01, 4.62477177e-01, 4.85174567e-01, 4.35735248e-02,
          1.38399929e-01, 4.85174567e-01, 4.85174567e-01, 1.28925309e-01,
          5.22716604e-02, 1.14758037e-01, 4.85174567e-01, 3.20310473e-01,
          1.61384970e-01, 3.79176110e-01, 3.79176110e-01, 3.79176110e-01,
          7.01482669e-02, 3.79176110e-01, 3.79176110e-01, 3.79176110e-01,
          7.18727633e-02, 2.12903589e-01, 4.55749273e-01, 4.55749273e-01,
          7.95596391e-02, 1.22883365e-01, 4.55749273e-01, 4.55749273e-01,
          3.04457724e-01, 2.86374390e-01, 1.36934355e-01, 2.79553384e-01,
          3.92068386e-01, 3.92068386e-01, 2.20416948e-01, 3.92068386e-01,
          3.92068386e-01, 3.92068386e-01, 3.71793449e-01, 3.71793449e-01,
          3.71793449e-01, 3.71793449e-01, 3.71793449e-01, 3.71793449e-01,
          2.36454651e-01, 2.16726586e-01, 2.53025949e-01, 1.77952334e-01,
          4.64543074e-01, 4.64543074e-01, 1.55545145e-01, 1.14006460e-01,
          4.64543074e-01, 4.64543074e-01, 2.43599162e-01, 6.29259944e-02,
          8.93436521e-02, 1.02363795e-01, 4.64358330e-01, 4.64358330e-01,
          3.10109913e-01, 9.22855213e-02, 9.84980911e-02, 4.64358330e-01,
          4.64358330e-01, 3.30950022e-01, 2.03723162e-02, 9.08246413e-02,
          4.66581315e-01, 4.66581315e-01, 6.46641999e-02, 4.66227606e-02,
          4.66581315e-01, 4.66581315e-01, 4.32835400e-01, 4.32835400e-01,
          2.26774290e-02, 2.05048695e-01, 4.32835400e-01, 4.32835400e-01,
          8.91821459e-02, 9.18223485e-02, 4.32835400e-01, 4.71759796e-01,
          4.71759796e-01, 1.05551660e-01, 7.94881806e-02, 2.70073831e-01,
          4.71759796e-01, 4.71759796e-01, 9.39770192e-02, 7.63384327e-02 ]
      - [ 4.41551775e-01, 4.14362401e-01, 4.41551775e-01, 8.61258283e-02,
          7.29334578e-02, 5.70204807e-03, 1.76781625e-01, 4.41551775e-01,
          4.41551775e-01, 3.93346876e-01, 3.93346876e-01, 3.85124892e-01,
          1.50769562e-01, 3.93346876e-01, 3.17312568e-01, 2.64599979e-01,
          1.88229099e-01, 3.93346876e-01, 4.38952744e-01, 4.38952744e-01,
          1.51342064e-01, 5.24935164e-02, 1.69394866e-01, 4.38952744e-01,
          4.38952744e-01, 2.95070946e-01, 2.88921654e-01, 4.21667904e-01,
          4.21667904e-01, 4.83610258e-02, 1.20369578e-02, 6.92453310e-02,
          3.49523902e-01, 4.21667904e-01, 4.21667904e-01, 3.93861532e-01,
          4.31794316e-01, 4.31794316e-01, 1.16869241e-01, 1.34582594e-01,
          4.31794316e-01, 4.31794316e-01, 1.48095757e-01, 9.87512618e-02,
          4.31794316e-01, 4.40272897e-01, 4.40272897e-01, 1.18420728e-01,
          4.83893305e-02, 4.40272897e-01, 4.40272897e-01, 8.99094343e-02,
          4.41842079e-02, 4.40272897e-01, 4.26662922e-01, 4.26662922e-01,
          4.26662922e-01, 4.10406329e-02, 1.94547802e-01, 4.26662922e-01,
          4.26662922e-01, 1.38350159e-01, 1.63882941e-01, 4.39325809e-01,
          2.43597105e-01, 1.45215362e-01, 4.31697704e-02, 1.13334969e-01,
          4.39325809e-01, 4.39325809e-01, 3.58395517e-01, 4.39325809e-01,
          4.49542582e-01, 1.87980950e-01, 7.78429285e-02, 4.49542582e-01,
          4.49542582e-01, 3.50875080e-01, 1.25001252e-01, 8.37888643e-02,
          4.49542582e-01, 4.36945498e-01, 2.41568968e-01, 2.45738700e-01,
          3.49733591e-01, 4.36945498e-01, 3.93671870e-01, 1.46836132e-01,
          7.26379827e-02, 4.36945498e-01, 3.70805234e-01, 3.70805234e-01,
          3.70805234e-01, 2.58024305e-01, 3.70805234e-01, 2.45467812e-01,
          3.70805234e-01, 2.10915536e-01, 3.70805234e-01, 4.72599983e-01,
          3.87869589e-02, 4.49731313e-02, 4.72599983e-01, 4.72599983e-01,
          1.24102905e-01, 1.40107736e-01, 2.51630187e-01, 4.72599983e-01,
          6.08814247e-02, 1.40946344e-01, 2.07235485e-01, 5.85788906e-01,
          5.85788906e-01, 4.37951356e-01, 1.49060354e-01, 1.42269865e-01,
          8.41033831e-02, 7.90351555e-02, 4.19901580e-01, 4.19901580e-01,
          4.19901580e-01, 4.19901580e-01, 1.40443757e-01, 4.19901580e-01,
          2.54787534e-01, 1.52745277e-01, 6.94118440e-02, 4.11986262e-01,
          4.11986262e-01, 2.56182104e-01, 4.11986262e-01, 2.68135339e-01,
          4.11986262e-01, 4.11986262e-01, 6.98367432e-02, 1.43000111e-01,
          8.37105960e-02, 8.81827995e-02, 5.42963743e-01, 5.42963743e-01,
          2.23364934e-01, 3.81969839e-01, 2.74950773e-01, 3.13584030e-01 ]
      - [ 3.48630756e-01, 3.48630756e-01, 3.48630756e-01, 3.48630756e-01,
          1.58965319e-01, 3.47048730e-01, 3.48630756e-01, 3.48630756e-01,
          3.48630756e-01, 1.97298557e-01, 3.29520762e-01, 3.80105615e-01,
          3.80105615e-01, 3.80105615e-01, 1.72928035e-01, 3.10461670e-01,
          3.80105615e-01, 3.80105615e-01, 1.55243844e-01, 1.37826338e-01,
          4.21031445e-01, 4.21031445e-01, 2.49578476e-01, 6.38010502e-02,
          4.21031445e-01, 4.21031445e-01, 4.21031445e-01, 1.77226365e-01,
          9.09163058e-02, 4.16809410e-01, 2.61292696e-01, 2.45213196e-01,
          1.69476327e-02, 4.66634572e-01, 4.66634572e-01, 4.66634572e-01,
          3.90459865e-01, 3.90459865e-01, 3.90459865e-01, 3.28049004e-01,
          2.38725081e-01, 2.85866201e-01, 2.32076377e-01, 2.93392152e-01,
          3.90459865e-01, 3.69364947e-01, 2.89582700e-01, 3.69364947e-01,
          3.69364947e-01, 3.69364947e-01, 1.99122325e-01, 2.32850477e-01,
          3.69364947e-01, 3.69364947e-01, 3.04915756e-01, 4.01795596e-01,
          4.01795596e-01, 3.19188356e-01, 1.44682854e-01, 1.78458959e-01,
          4.01795596e-01, 4.01795596e-01, 3.20299536e-01, 9.41691324e-02,
          4.08749223e-01, 4.56069678e-01, 8.03211480e-02, 3.37843597e-01,
          1.11475684e-01, 4.56069678e-01, 4.56069678e-01, 2.49971136e-01,
          1.37480453e-01, 4.10074711e-01, 4.11664724e-01, 4.11664724e-01,
          2.68922925e-01, 1.59260854e-01, 4.11664724e-01, 4.11664724e-01,
          1.82402194e-01, 1.81374252e-01, 1.30076751e-01, 3.95276219e-01,
          3.95276219e-01, 3.95276219e-01, 9.36747640e-02, 3.95276219e-01,
          3.95276219e-01, 3.95276219e-01, 3.61378938e-01, 3.61378938e-01,
          2.24247277e-01, 3.61378938e-01, 3.61378938e-01, 3.61378938e-01,
          3.61378938e-01, 2.22913414e-01, 3.35922509e-01, 8.82162675e-02,
          3.00172061e-01, 2.17267022e-01, 3.19034792e-02, 3.41563940e-01,
          5.22597015e-01, 5.22597015e-01, 4.29242224e-01, 3.92752662e-02,
          1.00646131e-01, 2.67861605e-01, 4.47329849e-01, 4.47329849e-01,
          4.10066575e-01, 8.38958193e-03, 2.43729398e-01, 4.47329849e-01,
          2.92764753e-01, 9.90455970e-02, 9.21591669e-02, 4.22028273e-01,
          4.22028273e-01, 2.94857085e-01, 9.67175525e-04, 4.22028273e-01,
          4.22028273e-01, 4.22028273e-01, 1.25030011e-01, 1.16529226e-01,
          3.85022610e-01, 4.00075525e-01, 4.00075525e-01, 1.35082215e-01,
          4.00075525e-01, 4.00075525e-01, 4.00075525e-01, 1.46155760e-01,
          1.72154248e-01, 2.71996737e-01, 3.23810756e-01, 4.86291885e-01,
          2.28149995e-01, 4.86291885e-01, 4.86291885e-01, 6.17812052e-02 ]
      - [ 3.61477703e-01, 3.61477703e-01, 2.80126065e-01, 3.61477703e-01,
          3.61477703e-01, 3.61477703e-01, 7.47491196e-02, 3.58236879e-01,
          3.61477703e-01, 4.69929308e-01, 2.81501651e-01, 4.22987342e-02,
          8.46471265e-02, 4.69929308e-01, 4.69929308e-01, 7.03436136e-02,
          1.37209177e-01, 4.69929308e-01, 5.15067935e-01, 3.60543132e-01,
          5.75986244e-02, 8.90035182e-02, 5.15067935e-01, 5.15067935e-01,
          8.24918002e-02, 5.21688461e-02, 2.19576955e-01, 4.02741551e-01,
          2.18827680e-01, 5.20392098e-02, 1.10814884e-01, 4.27453279e-01,
          4.27453279e-01, 4.27453279e-01, 4.27453279e-01, 1.99475676e-01,
          3.98254573e-01, 2.63985962e-01, 2.70717829e-01, 3.98254573e-01,
          3.98254573e-01, 2.34697744e-01, 7.02016950e-02, 3.98254573e-01,
          3.98254573e-01, 4.36264277e-01, 4.89387996e-02, 7.47064948e-02,
          4.36264277e-01, 4.36264277e-01, 1.81755349e-01, 5.47585450e-02,
          4.36264277e-01, 4.36264277e-01, 4.34173495e-01, 1.08762696e-01,
          1.64217293e-01, 2.95158744e-01, 4.34173495e-01, 2.72045881e-01,
          2.04235524e-01, 4.34173495e-01, 4.34173495e-01, 3.57148796e-01,
          1.87350437e-01, 3.57148796e-01, 2.99416959e-01, 3.57148796e-01,
          3.26112688e-01, 3.57148796e-01, 3.57148796e-01, 3.57148796e-01,
          3.75568688e-01, 3.60666126e-01, 3.11867416e-01, 3.75568688e-01,
          3.75568688e-01, 3.21074724e-01, 1.26180455e-01, 2.92726278e-01,
          3.75568688e-01, 4.49346751e-01, 4.80533354e-02, 4.80063409e-02,
          4.49346751e-01, 4.49346751e-01, 3.47284943e-01, 2.27739550e-02,
          2.49243364e-01, 4.49346751e-01, 3.79489541e-01, 1.02599703e-01,
          1.06946446e-01, 3.46186697e-01, 4.23164368e-01, 4.23164368e-01,
          1.85972393e-01, 3.71700436e-01, 4.23164368e-01, 3.64427418e-01,
          1.59043610e-01, 2.92765647e-01, 2.97503620e-01, 3.64427418e-01,
          3.64427418e-01, 3.64427418e-01, 3.64427418e-01, 3.64427418e-01,
          1.99490815e-01, 7.40537867e-02, 3.43205065e-01, 4.93738413e-01,
          4.93738413e-01, 1.17110401e-01, 1.53106228e-01, 2.52010137e-01,
          4.93738413e-01, 2.77312487e-01, 6.97347894e-02, 1.59729481e-01,
          5.00773191e-01, 5.00773191e-01, 1.13511659e-01, 1.37957513e-01,
          3.21685284e-01, 5.00773191e-01, 2.06279874e-01, 3.74015607e-02,
          7.88055062e-02, 4.91278172e-01, 4.91278172e-01, 8.99049938e-02,
          3.48021872e-02, 4.59973693e-01, 4.91278172e-01, 1.46528557e-01,
          8.56182724e-02, 2.06921682e-01, 4.62461382e-01, 4.62461382e-01,
          1.51362345e-01, 2.13003099e-01, 4.62461382e-01, 4.62461382e-01 ]
      - [ 3.83621454e-01, 2.92851955e-01, 3.83621454e-01, 3.32830608e-01,
          2.57542551e-01, 4.28535976e-02, 3.77892524e-01, 3.83621454e-01,
          3.83621454e-01, 4.37930197e-01, 4.37930197e-01, 3.27544212e-01,
          1.28788128e-01, 2.23642960e-01, 4.37930197e-01, 1.88057244e-01,
          1.44168541e-01, 4.36164051e-01, 4.73093033e-01, 4.73093033e-01,
          2.87335873e-01, 5.19183278e-02, 2.59902596e-01, 4.73093033e-01,
          3.88506591e-01, 7.32485950e-02, 1.21301807e-01, 3.85691613e-01,
          4.20332968e-01, 2.92189211e-01, 3.85607444e-02, 1.76199362e-01,
          4.20332968e-01, 4.20332968e-01, 4.07856703e-01, 1.80967003e-01,
          3.92583400e-01, 3.92583400e-01, 3.92583400e-01, 3.92583400e-01,
          3.92583400e-01, 1.51968792e-01, 1.81518301e-01, 1.23710103e-01,
          3.92583400e-01, 4.34015244e-01, 2.77910143e-01, 3.98665853e-02,
          3.49676400e-01, 4.34015244e-01, 4.34015244e-01, 1.26942068e-01,
          1.58038914e-01, 4.34015244e-01, 3.74127030e-01, 3.74127030e-01,
          3.74127030e-01, 1.36136696e-01, 3.34945112e-01, 3.74127030e-01,
          3.74127030e-01, 1.60357893e-01, 3.74127030e-01, 1.29361719e-01,
          4.72880840e-01, 4.72880840e-01, 4.81446832e-02, 1.29941657e-01,
          3.92996550e-01, 4.72880840e-01, 3.24422508e-01, 1.69689819e-01,
          4.09795612e-01, 3.24015260e-01, 3.77041370e-01, 4.34780508e-01,
          4.34780508e-01, 3.31976652e-01, 1.57583475e-01, 1.43060163e-01,
          2.16801643e-01, 2.90486783e-01, 7.27648288e-02, 9.64506790e-02,
          5.08781195e-01, 5.08781195e-01, 2.60684282e-01, 1.03093185e-01,
          2.01938987e-01, 5.08781195e-01, 2.46814802e-01, 3.45861703e-01,
          3.77026469e-01, 3.77026469e-01, 3.77026469e-01, 1.15268901e-01,
          3.77026469e-01, 3.02760303e-01, 3.77026469e-01, 1.85254604e-01,
          2.43639916e-01, 3.71922225e-01, 2.69532323e-01, 3.71922225e-01,
          3.71922225e-01, 3.71922225e-01, 3.71922225e-01, 3.71922225e-01,
          0., 3.80779169e-02, 1.52751356e-01, 2.70212263e-01,
          9.30856764e-01, 1.44140422e-01, 2.05465239e-02, 0., 0.,
          4.39486891e-01, 4.48496580e-01, 4.48496580e-01, 2.43757024e-01,
          4.48496580e-01, 2.83539534e-01, 1.87753260e-01, 4.86784652e-02,
          1.46596909e-01, 1.06710009e-01, 5.04514635e-01, 5.04514635e-01,
          1.75682575e-01, 2.30631009e-01, 2.17020959e-01, 5.04514635e-01,
          2.94674069e-01, 4.45358306e-02, 1.22612352e-02, 3.44208181e-01,
          4.88209158e-01, 1.31815180e-01, 2.58427918e-01, 2.75602371e-01,
          4.88209158e-01, 4.88209158e-01, 3.65075730e-02 ]
      - [ 6.32778227e-01, 1.41422465e-01, 2.29808882e-01, 5.08023687e-02,
          7.96396360e-02, 8.60463604e-02, 2.40964249e-01, 2.13686869e-01,
          6.32778227e-01, 4.72117633e-01, 4.72117633e-01, 2.83987671e-01,
          7.40032122e-02, 1.26381367e-01, 4.72117633e-01, 1.11412130e-01,
          2.93324571e-02, 4.59596008e-01, 4.73701566e-01, 4.73701566e-01,
          2.25964129e-01, 6.08264282e-02, 1.62824795e-01, 4.73701566e-01,
          4.73701566e-01, 6.56364560e-02, 1.10073350e-01, 4.54162747e-01,
          4.54162747e-01, 1.13149591e-01, 2.48145796e-02, 1.73042759e-01,
          4.54162747e-01, 4.54162747e-01, 2.87372530e-01, 2.10862845e-01,
          4.71086472e-01, 1.00757368e-01, 7.20281303e-02, 4.71086472e-01,
          4.71086472e-01, 2.28140950e-01, 9.23439041e-02, 1.78013936e-01,
          4.71086472e-01, 4.40689653e-01, 4.40689653e-01, 3.73792835e-02,
          1.40473574e-01, 4.40689653e-01, 4.40689653e-01, 3.77287231e-02,
          4.48063836e-02, 4.40689653e-01, 4.25379276e-01, 4.25379276e-01,
          4.25379276e-01, 4.38735969e-02, 1.65851787e-01, 4.25379276e-01,
          4.25379276e-01, 1.20079689e-01, 2.17168450e-01, 3.21071029e-01,
          4.17681694e-01, 3.57348800e-01, 2.87795551e-02, 9.51773226e-02,
          4.17681694e-01, 4.17681694e-01, 2.39423946e-01, 4.17681694e-01,
          4.15517777e-01, 7.28917941e-02, 1.35888919e-01, 4.73854631e-01,
          4.73854631e-01, 2.45430648e-01, 1.06525287e-01, 2.31591359e-01,
          4.73854631e-01, 4.66245323e-01, 9.47021171e-02, 1.13685802e-01,
          4.66245323e-01, 4.66245323e-01, 3.09292287e-01, 4.95186746e-02,
          7.61408061e-02, 4.66245323e-01, 3.28028888e-01, 3.63210469e-01,
          3.63210469e-01, 3.63210469e-01, 3.63210469e-01, 1.93603322e-01,
          3.63210469e-01, 2.44448215e-01, 3.63210469e-01, 4.31533307e-01,
          7.80882388e-02, 8.60731006e-02, 4.31533307e-01, 4.31533307e-01,
          2.86691457e-01, 3.35210085e-01, 2.06739426e-01, 4.31533307e-01,
          2.19107538e-01, 1.88390225e-01, 4.07854140e-01, 4.07854140e-01,
          4.07854140e-01, 3.69661361e-01, 3.16169828e-01, 2.96960324e-01,
          2.97646075e-01, 1.03141248e-01, 5.08607984e-01, 5.08607984e-01,
          3.63289565e-01, 5.08607984e-01, 1.95847765e-01, 1.59293011e-01,
          8.25391263e-02, 7.55873248e-02, 3.83114032e-02, 4.52244133e-01,
          4.52244133e-01, 2.23188519e-01, 2.88944185e-01, 3.39804620e-01,
          4.52244133e-01, 3.62237155e-01, 2.13508159e-02, 2.14534968e-01,
          1.14052437e-01, 1.78616062e-01, 4.26355928e-01, 4.26355928e-01,
          4.26355928e-01, 4.26355928e-01, 3.65485370e-01, 2.10016832e-01 ]
      - [ 4.35812771e-01, 4.35812771e-01, 1.02416687e-01, 1.52101874e-01,
          4.35812771e-01, 4.35812771e-01, 1.08178996e-01, 1.09677896e-01,
          4.22563136e-01, 4.79255021e-01, 2.71014065e-01, 3.68343070e-02,
          3.00635304e-02, 4.79255021e-01, 4.79255021e-01, 1.57803316e-02,
          2.26613581e-02, 4.79255021e-01, 5.03830731e-01, 2.42777899e-01,
          6.57743812e-02, 3.66258472e-02, 5.03830731e-01, 5.03830731e-01,
          3.77880223e-02, 6.87286034e-02, 4.03325379e-01, 4.50039864e-01,
          2.86923945e-01, 9.25374627e-02, 7.74340928e-02, 4.50039864e-01,
          4.50039864e-01, 2.51643836e-01, 1.58593580e-01, 4.50039864e-01,
          3.89965147e-01, 3.89965147e-01, 2.17923597e-01, 3.89965147e-01,
          3.89965147e-01, 3.89965147e-01, 1.38988897e-01, 1.29841417e-01,
          3.89965147e-01, 4.83480066e-01, 9.10381600e-02, 2.36783288e-02,
          2.36327171e-01, 4.83480066e-01, 4.77648109e-01, 1.63080283e-02,
          2.82719191e-02, 4.83480066e-01, 4.84505326e-01, 1.22444212e-01,
          1.31593272e-01, 1.45895928e-01, 4.84505326e-01, 4.84505326e-01,
          2.79473588e-02, 4.24639173e-02, 4.84505326e-01, 4.69201863e-01,
          2.29613017e-02, 3.97468545e-02, 7.12153912e-02, 4.69201863e-01,
          4.69201863e-01, 2.52689958e-01, 2.08999842e-01, 4.69201863e-01,
          3.69012713e-01, 3.69012713e-01, 3.69012713e-01, 3.69012713e-01,
          3.69012713e-01, 3.26970935e-01, 2.03109130e-01, 1.76431000e-01,
          3.69012713e-01, 4.43999052e-01, 5.70565611e-02, 2.63039563e-02,
          4.43999052e-01, 4.43999052e-01, 3.88940603e-01, 5.23425192e-02,
          2.21500635e-01, 4.43999052e-01, 4.29605722e-01, 1.14776470e-01,
          8.99395719e-02, 4.29486126e-01, 4.29605722e-01, 4.19158757e-01,
          1.23592138e-01, 2.12920561e-01, 4.29605722e-01, 4.15483147e-01,
          1.27944812e-01, 1.39265209e-01, 2.56861567e-01, 4.15483147e-01,
          4.15483147e-01, 2.36244962e-01, 3.84435028e-01, 4.15483147e-01,
          2.11822614e-01, 1.63534850e-01, 4.36931193e-01, 4.36931193e-01,
          4.36931193e-01, 8.63628536e-02, 2.57991105e-01, 2.93886960e-01,
          4.36931193e-01, 2.27544710e-01, 8.78802687e-02, 1.03824332e-01,
          5.29906213e-01, 5.29906213e-01, 1.33035734e-01, 1.30393550e-01,
          2.17545927e-01, 5.29906213e-01, 2.80262649e-01, 4.13712263e-02,
          7.02281892e-02, 5.39113462e-01, 5.39113462e-01, 7.64466077e-02,
          7.24403784e-02, 1.62491769e-01, 5.39113462e-01, 2.96078324e-01,
          6.11282885e-02, 9.82461274e-02, 4.66844559e-01, 4.66844559e-01,
          2.18175992e-01, 2.41647646e-01, 3.66687506e-01, 4.66844559e-01 ]
      - [ 2.44681507e-01, 3.79465520e-01, 3.79465520e-01, 3.79465520e-01,
          3.79465520e-01, 3.79465520e-01, 3.75739694e-01, 1.66750088e-01,
          2.17677519e-01, 1.20525651e-01, 2.61725813e-01, 4.03566569e-01,
          4.03566569e-01, 4.03566569e-01, 4.03566569e-01, 1.72717705e-01,
          4.03566569e-01, 2.62260228e-01, 1.15601912e-01, 1.93286166e-01,
          4.35024977e-01, 4.35024977e-01, 1.94312364e-01, 1.11206204e-01,
          3.71241242e-01, 4.35024977e-01, 4.35024977e-01, 9.81477946e-02,
          1.06255233e-01, 4.40280676e-01, 4.40280676e-01, 3.53382528e-02,
          6.47667348e-02, 4.40280676e-01, 4.40280676e-01, 4.40280676e-01,
          3.43432784e-01, 3.92953396e-01, 3.92953396e-01, 1.96069613e-01,
          3.92953396e-01, 1.02668390e-01, 3.92953396e-01, 3.84856761e-01,
          2.51753688e-01, 3.65101784e-01, 3.65101784e-01, 3.65101784e-01,
          1.98267207e-01, 3.65101784e-01, 1.91710845e-01, 3.47121775e-01,
          3.65101784e-01, 3.65101784e-01, 2.61627257e-01, 4.51548874e-01,
          4.51548874e-01, 2.28900135e-01, 1.15668803e-01, 1.12711750e-01,
          4.51548874e-01, 4.51548874e-01, 1.81594878e-01, 2.28975251e-01,
          3.82404864e-01, 4.83658284e-01, 1.11470938e-01, 1.66870713e-01,
          1.49663016e-01, 4.83658284e-01, 4.83658284e-01, 1.79051846e-01,
          2.89955407e-01, 6.20071232e-01, 6.20071232e-01, 1.86481476e-01,
          2.73799691e-02, 1.79054663e-02, 3.09182346e-01, 7.96762481e-02,
          5.45032509e-02, 3.68930519e-01, 3.68930519e-01, 3.68930519e-01,
          1.31369218e-01, 3.68930519e-01, 3.68930519e-01, 3.68930519e-01,
          1.62136242e-01, 3.68930519e-01, 3.74164999e-01, 3.74164999e-01,
          3.37352723e-01, 1.74550310e-01, 3.74164999e-01, 3.74164999e-01,
          3.74164999e-01, 1.09500900e-01, 3.74164999e-01, 3.31973374e-01,
          3.81701112e-01, 3.59992385e-01, 1.40700385e-01, 3.81701112e-01,
          3.81701112e-01, 3.81701112e-01, 3.42200637e-01, 1.91585734e-01,
          2.28522923e-02, 5.58100462e-01, 5.58100462e-01, 5.58100462e-01,
          2.50946470e-02, 5.26559399e-03, 2.15843290e-01, 1.10591002e-01,
          0., 1.10369973e-01, 2.91121393e-01, 4.07440424e-01,
          4.07440424e-01, 2.20998362e-01, 2.00461268e-01, 4.07440424e-01,
          4.07440424e-01, 3.82021964e-01, 3.28794539e-01, 1.21148661e-01,
          2.38282457e-01, 3.68951797e-01, 3.68951797e-01, 3.68951797e-01,
          3.68951797e-01, 3.68951797e-01, 3.68951797e-01, 2.01233014e-01,
          7.40430057e-02, 2.64462352e-01, 4.00510281e-01, 4.00510281e-01,
          4.00510281e-01, 4.00510281e-01, 4.00510281e-01, 2.79355019e-01 ]
      - [ 3.90774757e-01, 3.90774757e-01, 3.90774757e-01, 6.45400658e-02,
          3.90774757e-01, 1.80996612e-01, 3.90774757e-01, 2.07223028e-01,
          3.90774757e-01, 2.18471974e-01, 3.38942289e-01, 4.26515400e-01,
          4.26515400e-01, 4.26515400e-01, 2.15591416e-01, 2.78659075e-01,
          2.22469002e-01, 3.37281048e-01, 4.54099216e-02, 4.22758490e-01,
          4.35695380e-01, 4.35695380e-01, 8.79341066e-02, 1.97644960e-02,
          4.35695380e-01, 4.35695380e-01, 2.17752278e-01, 1.47007639e-03,
          2.56661505e-01, 5.49950659e-01, 1.14506848e-01, 0.,
          5.68424817e-04, 5.49950659e-01, 5.49950659e-01, 9.04518515e-02,
          3.76002908e-01, 3.76002908e-01, 3.76002908e-01, 1.21125132e-01,
          3.76002908e-01, 3.76002908e-01, 3.18519890e-01, 1.78460494e-01,
          3.76002908e-01, 4.50337499e-01, 3.79849017e-01, 1.25097767e-01,
          6.42357022e-02, 4.50337499e-01, 4.50337499e-01, 1.00496888e-01,
          1.00625806e-01, 4.50337499e-01, 4.02355164e-01, 4.02355164e-01,
          4.02355164e-01, 4.18093018e-02, 3.10015023e-01, 4.02355164e-01,
          4.02355164e-01, 2.72847921e-01, 1.19284496e-01, 1.17163919e-02,
          4.06277657e-01, 4.88345265e-01, 3.21758771e-03, 5.05174473e-02,
          3.28718185e-01, 4.90306228e-01, 4.90306228e-01, 2.13292241e-03,
          3.94042552e-01, 3.94042552e-01, 3.94042552e-01, 2.43558019e-01,
          2.25856096e-01, 3.91986072e-01, 3.94042552e-01, 3.08938593e-01,
          1.24730110e-01, 3.65589827e-01, 3.57812554e-01, 3.65589827e-01,
          1.80425718e-01, 3.65589827e-01, 3.65589827e-01, 3.65589827e-01,
          3.13745201e-01, 2.62771040e-01, 4.23946202e-01, 4.06094581e-01,
          1.53912887e-01, 1.65367961e-01, 4.23946202e-01, 4.23946202e-01,
          4.23946202e-01, 1.70577645e-01, 1.78320438e-01, 2.39979878e-01,
          3.03275168e-01, 9.61963311e-02, 4.81428504e-02, 4.23625141e-01,
          4.73820984e-01, 4.73820984e-01, 4.25956696e-01, 1.55626774e-01,
          1.08781517e-01, 3.44880641e-01, 4.23799723e-01, 4.23799723e-01,
          3.14268023e-01, 5.39714843e-02, 3.86791468e-01, 4.23799723e-01,
          2.73654610e-01, 1.18785873e-01, 6.68577179e-02, 4.53116506e-01,
          4.53116506e-01, 1.34546667e-01, 4.04891036e-02, 3.68637264e-01,
          4.53116506e-01, 4.53116506e-01, 3.72520477e-01, 1.91387981e-01,
          2.93002635e-01, 3.72520477e-01, 3.72520477e-01, 2.02902317e-01,
          3.72520477e-01, 3.72520477e-01, 3.72520477e-01, 2.65029043e-01,
          1.25363708e-01, 1.78572744e-01, 1.96423400e-02, 4.62726414e-01,
          1.76878944e-01, 4.62726414e-01, 4.62726414e-01, 4.51125681e-01 ]
      - [ 4.07406867e-01, 4.07406867e-01, 3.80686045e-01, 3.27139683e-02,
          4.00513530e-01, 4.07406867e-01, 4.07406867e-01, 1.24021031e-01,
          1.01116337e-01, 4.33296412e-01, 1.43218145e-01, 1.71019644e-01,
          4.33296412e-01, 4.33296412e-01, 3.96818578e-01, 9.61214155e-02,
          1.68003902e-01, 4.33296412e-01, 9.60904360e-02, 1.13922492e-01,
          4.39668268e-01, 4.39668268e-01, 3.13955873e-01, 4.01253849e-02,
          3.16204667e-01, 4.39668268e-01, 4.39668268e-01, 3.73802602e-01,
          1.13831602e-01, 4.20484066e-01, 3.22506934e-01, 1.49307340e-01,
          9.78909135e-02, 4.20484066e-01, 4.20484066e-01, 4.20484066e-01,
          3.88312995e-01, 3.88312995e-01, 2.38939419e-01, 1.21104278e-01,
          3.88312995e-01, 3.88312995e-01, 3.88312995e-01, 1.40145034e-01,
          3.88312995e-01, 5.41496217e-01, 6.40740916e-02, 6.04813099e-02,
          2.08896965e-01, 5.41496217e-01, 2.32614458e-01, 4.41658795e-02,
          8.64660069e-02, 5.41496217e-01, 3.61691058e-01, 2.78176695e-01,
          3.61691058e-01, 3.60908926e-01, 3.61691058e-01, 1.44050106e-01,
          3.37485492e-01, 3.61691058e-01, 3.61691058e-01, 3.89993608e-01,
          1.31039515e-01, 2.82258779e-01, 1.40397757e-01, 3.89993608e-01,
          3.45074058e-01, 3.89993608e-01, 3.89993608e-01, 3.89993608e-01,
          2.36915737e-01, 2.55290240e-01, 3.53586763e-01, 3.53586763e-01,
          3.53586763e-01, 3.53586763e-01, 3.53586763e-01, 3.53586763e-01,
          3.53586763e-01, 4.57204014e-01, 2.13426590e-01, 1.19051658e-01,
          2.98751116e-01, 4.57204014e-01, 3.00781131e-01, 2.03301147e-01,
          2.95887738e-01, 4.57204014e-01, 3.04433197e-01, 4.09726530e-01,
          4.09726530e-01, 1.34964481e-01, 4.09726530e-01, 4.09726530e-01,
          4.09726530e-01, 1.12192817e-01, 1.81784049e-01, 1.31146133e-01,
          4.16254282e-01, 4.16254282e-01, 6.03846572e-02, 4.16254282e-01,
          4.16254282e-01, 4.16254282e-01, 3.04731369e-01, 1.25685215e-01,
          5.83677813e-02, 6.36214614e-02, 2.39786685e-01, 5.23609102e-01,
          3.14867884e-01, 6.27050474e-02, 6.51568025e-02, 5.23609102e-01,
          5.23609102e-01, 3.99442613e-01, 2.27168784e-01, 6.94232732e-02,
          3.99442613e-01, 3.99442613e-01, 3.68901312e-01, 7.56578594e-02,
          3.99442613e-01, 3.99442613e-01, 4.60257113e-01, 4.60257113e-01,
          8.54994431e-02, 4.47843969e-02, 3.43015254e-01, 4.60257113e-01,
          4.60257113e-01, 4.89267744e-02, 1.36701569e-01, 1.82663605e-01,
          5.14554739e-01, 1.75087810e-01, 5.09168617e-02, 3.14673752e-01,
          5.14554739e-01, 5.14554739e-01, 1.41343549e-01, 1.22268155e-01 ]
      - [ 3.48734260e-01, 3.48734260e-01, 3.48734260e-01, 3.47585261e-01,
          1.56176940e-01, 3.48734260e-01, 3.48734260e-01, 3.48734260e-01,
          3.48734260e-01, 3.40143800e-01, 3.11617613e-01, 3.73365849e-01,
          3.73365849e-01, 3.14888000e-01, 7.23248497e-02, 3.48529845e-01,
          3.73365849e-01, 3.73365849e-01, 2.31909499e-01, 1.53054550e-01,
          4.01187241e-01, 4.01187241e-01, 3.34525645e-01, 4.60553467e-02,
          4.01187241e-01, 4.01187241e-01, 4.01187241e-01, 2.91291773e-01,
          3.24092805e-02, 1.89169779e-01, 3.65601659e-01, 1.64257661e-01,
          1.04297049e-01, 4.83721405e-01, 4.83721405e-01, 4.83721405e-01,
          3.61968696e-01, 3.61968696e-01, 3.61968696e-01, 3.61968696e-01,
          2.79700041e-01, 2.51198828e-01, 2.83428609e-01, 3.45850021e-01,
          3.61968696e-01, 2.99664944e-01, 2.68773168e-01, 3.90142590e-01,
          3.90142590e-01, 3.48101944e-01, 1.97194695e-01, 2.55261868e-01,
          3.90142590e-01, 3.90142590e-01, 1.29452109e-01, 3.98972541e-01,
          3.98972541e-01, 3.98972541e-01, 1.27543986e-01, 8.89625028e-02,
          3.98972541e-01, 3.98972541e-01, 3.98972541e-01, 3.32852639e-02,
          2.99881607e-01, 4.93999541e-01, 2.94209123e-01, 3.88543569e-02,
          1.71199627e-02, 4.93999541e-01, 4.93999541e-01, 2.89068937e-01,
          1.00841865e-01, 4.09020633e-01, 4.11106825e-01, 4.11106825e-01,
          2.80800700e-01, 1.36500210e-01, 3.82237554e-01, 4.11106825e-01,
          2.60408700e-01, 1.03241362e-01, 1.66479975e-01, 4.02981371e-01,
          4.02981371e-01, 3.55379164e-01, 1.39052048e-01, 4.02981371e-01,
          4.02981371e-01, 4.02981371e-01, 3.17827225e-01, 3.34597290e-01,
          3.34597290e-01, 3.34597290e-01, 3.34597290e-01, 3.34597290e-01,
          3.34597290e-01, 3.34597290e-01, 3.34597290e-01, 1.11034803e-01,
          4.16011035e-01, 3.08110505e-01, 3.76707986e-02, 2.23213151e-01,
          4.70155865e-01, 4.70155865e-01, 4.70155865e-01, 2.43988428e-02,
          9.08920839e-02, 2.15860218e-01, 4.83816236e-01, 4.83816236e-01,
          4.12539870e-01, 1.10274330e-02, 1.04305401e-01, 4.83816236e-01,
          2.38507703e-01, 1.27858639e-01, 8.71430039e-02, 4.23860162e-01,
          4.23860162e-01, 3.24759215e-01, 3.75516787e-02, 3.82512271e-01,
          4.23860162e-01, 4.23860162e-01, 1.17288031e-01, 1.06330536e-01,
          3.77740026e-01, 3.77740026e-01, 3.77740026e-01, 3.39173019e-01,
          3.77740026e-01, 3.77740026e-01, 3.77740026e-01, 7.09125176e-02,
          5.60224988e-02, 2.23144248e-01, 1.20099813e-01, 5.27460754e-01,
          5.27460754e-01, 5.27460754e-01, 2.79303789e-01, 9.84526202e-02 ]
      - [ 4.98259991e-01, 4.98259991e-01, 1.63158774e-01, 1.24745946e-02,
          4.00569737e-01, 4.98259991e-01, 1.53943956e-01, 4.48426194e-02,
          1.93112880e-01, 4.50555474e-01, 4.50555474e-01, 5.41909486e-02,
          1.98635191e-01, 4.50555474e-01, 4.50555474e-01, 1.27222359e-01,
          6.93363100e-02, 3.46573114e-01, 3.44793677e-01, 8.92968476e-02,
          1.38641015e-01, 4.50714976e-01, 4.50714976e-01, 1.85566708e-01,
          4.90828194e-02, 4.50714976e-01, 4.50714976e-01, 1.91827834e-01,
          1.10803276e-01, 3.33666086e-01, 4.82629150e-01, 1.16820522e-01,
          8.69479850e-02, 3.38779330e-01, 4.82629150e-01, 4.82629150e-01,
          3.61108005e-01, 3.61108005e-01, 3.61108005e-01, 1.03794448e-01,
          3.61108005e-01, 3.61108005e-01, 3.61108005e-01, 3.06217611e-01,
          3.30841064e-01, 4.50855970e-01, 1.79279819e-01, 1.68379515e-01,
          9.03389826e-02, 4.50855970e-01, 4.50855970e-01, 3.19898814e-01,
          1.06877632e-01, 4.50855970e-01, 3.86663258e-01, 2.70723611e-01,
          3.86663258e-01, 3.86663258e-01, 3.86663258e-01, 2.41745129e-01,
          1.42061770e-01, 3.10936093e-01, 3.86663258e-01, 2.40664721e-01,
          1.65396035e-01, 4.28737849e-01, 4.28737849e-01, 1.52280450e-01,
          6.82896674e-02, 4.28737849e-01, 4.28737849e-01, 3.83828938e-01,
          3.67618680e-01, 2.29738161e-01, 3.67618680e-01, 3.67618680e-01,
          3.67618680e-01, 1.47173494e-01, 3.33206475e-01, 3.67618680e-01,
          3.67618680e-01, 5.48954904e-01, 5.06919399e-02, 4.92629744e-02,
          2.24243939e-01, 5.48954904e-01, 1.60828933e-01, 6.54719546e-02,
          7.09182173e-02, 5.48954904e-01, 4.86973971e-01, 2.42997497e-01,
          1.10327937e-01, 1.69164494e-01, 4.86973971e-01, 4.22613680e-01,
          6.54626638e-02, 3.13189439e-02, 4.86973971e-01, 3.51509094e-01,
          3.51509094e-01, 3.51509094e-01, 1.72866762e-01, 3.51509094e-01,
          3.51509094e-01, 3.51509094e-01, 3.51509094e-01, 3.18896055e-01,
          6.71867207e-02, 6.06168807e-02, 3.51770937e-01, 4.62047249e-01,
          4.62047249e-01, 5.82139157e-02, 7.81925172e-02, 4.62047249e-01,
          4.62047249e-01, 4.70764309e-01, 7.27589503e-02, 3.62700708e-02,
          4.70764309e-01, 4.70764309e-01, 2.34987974e-01, 5.84213883e-02,
          2.08758250e-01, 4.70764309e-01, 4.50761467e-01, 4.38007176e-01,
          4.00913209e-02, 7.61409551e-02, 4.50761467e-01, 4.50761467e-01,
          5.94213717e-02, 2.29146257e-02, 4.27350998e-01, 4.53530133e-01,
          4.53530133e-01, 1.24273211e-01, 4.88213375e-02, 3.80870432e-01,
          4.53530133e-01, 4.53530133e-01, 5.87334186e-02, 7.98263699e-02 ]
      - [ 2.79550821e-01, 3.87156099e-01, 3.87156099e-01, 3.87156099e-01,
          3.87156099e-01, 2.34058365e-01, 3.87156099e-01, 2.99033582e-01,
          1.55980408e-01, 4.81790379e-02, 1.35890737e-01, 4.37314332e-01,
          4.37314332e-01, 1.67231172e-01, 1.32895961e-01, 4.05266762e-01,
          4.37314332e-01, 4.37314332e-01, 6.21266849e-02, 1.97799191e-01,
          4.40012544e-01, 4.40012544e-01, 1.48450285e-01, 8.39031190e-02,
          3.86133343e-01, 4.40012544e-01, 4.40012544e-01, 2.96223700e-01,
          1.58162653e-01, 4.10293341e-01, 3.79019320e-01, 1.82800114e-01,
          1.80840969e-01, 4.10293341e-01, 4.10293341e-01, 4.10293341e-01,
          3.02177131e-01, 2.05853939e-01, 4.47471142e-01, 3.42623681e-01,
          4.47471142e-01, 1.93101540e-02, 4.47471142e-01, 2.26857439e-01,
          3.03189963e-01, 3.74834359e-01, 2.62873977e-01, 3.74834359e-01,
          3.74834359e-01, 3.74834359e-01, 1.79738060e-01, 2.27688342e-01,
          3.74834359e-01, 3.74834359e-01, 3.31108153e-01, 3.98418635e-01,
          3.98418635e-01, 2.28190914e-01, 1.55773938e-01, 3.98418635e-01,
          3.98418635e-01, 3.98418635e-01, 1.27919599e-01, 2.15890333e-01,
          4.22030061e-01, 4.22030061e-01, 9.06554386e-02, 1.76013872e-01,
          4.22030061e-01, 4.22030061e-01, 4.22030061e-01, 1.39389083e-01,
          3.07798326e-01, 6.30033970e-01, 6.30033970e-01, 1.87497526e-01,
          4.46723737e-02, 1.77600365e-02, 2.39945099e-01, 5.91965988e-02,
          8.08694288e-02, 4.56492096e-01, 4.56492096e-01, 3.22927088e-01,
          1.14302479e-01, 2.94429421e-01, 4.56492096e-01, 3.73363584e-01,
          8.21851045e-02, 1.41756192e-01, 4.43441391e-01, 4.43441391e-01,
          1.19056091e-01, 4.93655838e-02, 4.43441391e-01, 4.43441391e-01,
          4.21285301e-01, 6.95210025e-02, 1.00416906e-01, 3.72410297e-01,
          3.72410297e-01, 2.94721186e-01, 1.26337215e-01, 3.72410297e-01,
          3.72410297e-01, 3.72410297e-01, 3.72410297e-01, 2.47631371e-01,
          2.75365505e-02, 5.34319103e-01, 5.34319103e-01, 5.34319103e-01,
          2.57561896e-02, 2.28859633e-02, 3.26498121e-01, 1.72008604e-01,
          6.30870648e-03, 1.06876239e-01, 3.79162967e-01, 3.79162967e-01,
          3.79162967e-01, 1.29880622e-01, 3.79162967e-01, 3.79162967e-01,
          3.79162967e-01, 3.24550509e-01, 2.11974084e-01, 1.50600836e-01,
          2.74376869e-01, 3.77124250e-01, 3.77124250e-01, 3.77124250e-01,
          3.77124250e-01, 3.77124250e-01, 3.77124250e-01, 2.63144910e-01,
          2.21443281e-01, 3.27201188e-01, 3.03005785e-01, 4.00283873e-01,
          4.00283873e-01, 4.00283873e-01, 4.00283873e-01, 1.94774583e-01 ]
      - [ 3.64211679e-01, 3.64211679e-01, 3.64211679e-01, 3.64211679e-01,
          3.64211679e-01, 3.35797817e-01, 2.12774068e-01, 2.05979034e-01,
          3.64211679e-01, 4.19957548e-01, 4.19957548e-01, 7.11950287e-02,
          2.45508283e-01, 4.19957548e-01, 4.19957548e-01, 1.01878829e-01,
          1.95603773e-01, 4.19957548e-01, 4.55214262e-01, 4.55214262e-01,
          7.89867118e-02, 1.11293301e-01, 4.55214262e-01, 4.55214262e-01,
          2.07464218e-01, 2.08862230e-01, 2.47554123e-01, 3.68319839e-01,
          2.07966760e-01, 1.20080411e-01, 1.34066626e-01, 4.35065418e-01,
          4.35065418e-01, 4.35065418e-01, 4.35065418e-01, 1.64995894e-01,
          3.73485804e-01, 3.73485804e-01, 3.73485804e-01, 3.73485804e-01,
          3.73485804e-01, 2.67670810e-01, 2.14937299e-01, 2.03649655e-01,
          3.73485804e-01, 4.33561623e-01, 1.20734185e-01, 6.08562157e-02,
          4.33561623e-01, 4.33561623e-01, 3.22273493e-01, 7.50347301e-02,
          3.40581566e-01, 4.33561623e-01, 3.73719633e-01, 1.39595047e-01,
          1.12831868e-01, 3.73719633e-01, 3.73719633e-01, 3.73719633e-01,
          3.55035663e-01, 3.73719633e-01, 3.73719633e-01, 9.43632573e-02,
          7.98977911e-03, 4.98717837e-02, 0., 1.63166627e-01,
          4.89141047e-01, 4.89141047e-01, 4.89141047e-01, 4.89141047e-01,
          3.66784662e-01, 3.66784662e-01, 3.66784662e-01, 3.66784662e-01,
          3.66784662e-01, 1.77752629e-01, 1.51732638e-01, 3.66784662e-01,
          3.66784662e-01, 4.11761850e-01, 9.65201706e-02, 5.56787774e-02,
          4.11761850e-01, 4.11761850e-01, 3.64276767e-01, 5.50776646e-02,
          4.11761850e-01, 4.11761850e-01, 3.77128989e-01, 1.75398305e-01,
          7.97780454e-02, 3.77128989e-01, 3.77128989e-01, 3.77128989e-01,
          3.25185537e-01, 3.77128989e-01, 3.77128989e-01, 3.85156035e-01,
          1.57461360e-01, 2.30174407e-01, 1.68246508e-01, 3.85156035e-01,
          3.85156035e-01, 3.85156035e-01, 3.85156035e-01, 3.85156035e-01,
          1.92689881e-01, 1.91347077e-01, 4.26435053e-01, 4.26435053e-01,
          4.26435053e-01, 1.40065655e-01, 2.78362393e-01, 3.92936856e-01,
          3.53487372e-01, 1.19420923e-01, 5.60001396e-02, 1.64682359e-01,
          4.84011024e-01, 4.84011024e-01, 4.09120433e-02, 1.09121405e-01,
          4.84011024e-01, 4.84011024e-01, 1.05787382e-01, 3.80974039e-02,
          7.76708424e-02, 4.92485374e-01, 4.92485374e-01, 4.14258242e-02,
          6.72508851e-02, 4.92485374e-01, 4.92485374e-01, 1.83181226e-01,
          7.36780837e-02, 7.50128105e-02, 4.13714707e-01, 4.13714707e-01,
          3.08961242e-01, 4.13714707e-01, 4.13714707e-01, 4.13714707e-01 ]
      - [ 4.44308728e-01, 3.43758076e-01, 4.21076536e-01, 1.26753613e-01,
          1.91000611e-01, 8.38039294e-02, 2.19739497e-01, 4.44308728e-01,
          4.44308728e-01, 4.33457702e-01, 4.33457702e-01, 3.35945457e-01,
          2.28432134e-01, 1.81185037e-01, 4.33457702e-01, 1.68486208e-01,
          2.78745830e-01, 3.57851952e-01, 4.41219658e-01, 4.41219658e-01,
          3.23136210e-01, 1.16654634e-01, 1.60987735e-01, 4.41219658e-01,
          4.41219658e-01, 2.33145341e-01, 1.36361435e-01, 3.81361067e-01,
          4.52454627e-01, 2.09927574e-01, 5.50164506e-02, 9.05789286e-02,
          3.73521179e-01, 4.52454627e-01, 4.52454627e-01, 2.02681720e-01,
          4.50646728e-01, 3.25246543e-01, 1.00763075e-01, 1.61932319e-01,
          4.50646728e-01, 4.50646728e-01, 1.72261879e-01, 1.06460527e-01,
          4.50646728e-01, 4.42262650e-01, 4.42262650e-01, 4.00395915e-02,
          5.47560975e-02, 4.42262650e-01, 4.42262650e-01, 1.01635538e-01,
          5.16699553e-02, 4.42262650e-01, 3.76659006e-01, 4.48738545e-01,
          4.48738545e-01, 2.80089471e-02, 1.15562610e-01, 4.48738545e-01,
          4.48738545e-01, 1.56921938e-01, 9.70406458e-02, 1.73168570e-01,
          4.66043323e-01, 4.66043323e-01, 1.22767491e-02, 5.27630262e-02,
          3.48867297e-01, 4.66043323e-01, 3.87254357e-01, 1.97887734e-01,
          4.45523173e-01, 1.28099889e-01, 7.26188943e-02, 4.45523173e-01,
          4.45523173e-01, 3.93459260e-01, 1.52113631e-01, 4.42084707e-02,
          4.45523173e-01, 4.74970400e-01, 6.49254844e-02, 5.79189286e-02,
          4.74970400e-01, 4.74970400e-01, 2.88565964e-01, 3.11217159e-02,
          3.25527862e-02, 4.74970400e-01, 3.67950708e-01, 3.67950708e-01,
          3.67950708e-01, 2.73770005e-01, 3.67950708e-01, 2.77598828e-01,
          3.67950708e-01, 1.78847685e-01, 3.67950708e-01, 5.07784545e-01,
          1.12329625e-01, 1.02412842e-01, 2.22119570e-01, 5.07784545e-01,
          1.46299601e-01, 3.35737854e-01, 1.21764027e-01, 5.07784545e-01,
          9.56078991e-02, 1.36719093e-01, 1.12370752e-01, 6.00181103e-01,
          6.25362873e-01, 4.23025221e-01, 1.17785335e-01, 7.79283121e-02,
          5.57086505e-02, 5.15349284e-02, 4.95657772e-01, 4.95657772e-01,
          4.95657772e-01, 4.95657772e-01, 8.25118423e-02, 3.25010531e-02,
          1.43902525e-02, 4.01951522e-02, 6.97797313e-02, 4.13792223e-01,
          4.13792223e-01, 3.22354883e-01, 4.13792223e-01, 4.13792223e-01,
          4.13792223e-01, 1.66253850e-01, 5.76548576e-02, 2.40390390e-01,
          2.08088830e-02, 2.97251269e-02, 3.36236835e-01, 5.29432356e-01,
          3.06686312e-01, 5.27456939e-01, 1.34847388e-01, 3.89619887e-01 ]
      - [ 4.05119717e-01, 4.05119717e-01, 4.05119717e-01, 3.13653290e-01,
          1.34130046e-01, 4.05119717e-01, 1.93211496e-01, 3.06523919e-01,
          3.02998722e-01, 5.14662445e-01, 5.14662445e-01, 1.14418961e-01,
          1.02285162e-01, 2.16257960e-01, 5.14662445e-01, 2.66216546e-01,
          1.47576183e-01, 1.93018481e-01, 5.02439976e-01, 5.02439976e-01,
          1.13204531e-01, 1.80140585e-02, 1.18209936e-01, 5.02439976e-01,
          4.46643293e-01, 5.95064536e-02, 8.65999982e-02, 2.06660688e-01,
          3.48080456e-01, 4.55897659e-01, 2.86207255e-02, 3.79810721e-01,
          4.55897659e-01, 4.55897659e-01, 1.74475282e-01, 1.80367485e-01,
          3.86797458e-01, 3.86797458e-01, 3.86797458e-01, 3.86797458e-01,
          2.55703747e-01, 2.31249169e-01, 2.42713913e-01, 3.86797458e-01,
          2.65148401e-01, 3.54307503e-01, 3.54307503e-01, 3.02919328e-01,
          3.54307503e-01, 3.54307503e-01, 3.54307503e-01, 1.61131382e-01,
          3.54307503e-01, 3.54307503e-01, 4.15906638e-01, 1.66106358e-01,
          8.12034085e-02, 5.80187663e-02, 4.15906638e-01, 4.15906638e-01,
          4.15906638e-01, 3.05617601e-01, 4.15906638e-01, 3.84279817e-01,
          3.04231167e-01, 3.84279817e-01, 2.04296261e-01, 2.38294393e-01,
          2.58318454e-01, 3.84279817e-01, 3.84279817e-01, 3.84279817e-01,
          3.86361569e-01, 3.86361569e-01, 3.86361569e-01, 3.86361569e-01,
          3.86361569e-01, 1.88031226e-01, 1.91327840e-01, 2.54482657e-01,
          3.36214453e-01, 3.83846730e-01, 2.94109166e-01, 1.33398101e-01,
          3.83846730e-01, 3.83846730e-01, 3.83846730e-01, 8.85453224e-02,
          3.83846730e-01, 3.83846730e-01, 4.57734674e-01, 1.87327579e-01,
          8.38804543e-02, 2.18098149e-01, 4.57734674e-01, 4.57734674e-01,
          1.22645289e-01, 2.29363129e-01, 4.57734674e-01, 4.30861324e-01,
          1.47596166e-01, 1.06329866e-01, 1.05017036e-01, 4.30861324e-01,
          4.30861324e-01, 3.63985598e-01, 2.76632011e-01, 4.30861324e-01,
          2.17094734e-01, 3.14062804e-01, 4.25309241e-01, 4.25309241e-01,
          4.25309241e-01, 1.26366094e-01, 2.87354708e-01, 2.78701663e-01,
          3.62085909e-01, 2.41392493e-01, 1.63846567e-01, 2.76037246e-01,
          4.50990647e-01, 4.50990647e-01, 2.56951660e-01, 1.70537278e-01,
          3.59023452e-01, 4.50990647e-01, 4.46617931e-01, 1.16911530e-01,
          1.17611974e-01, 3.70461613e-01, 4.46617931e-01, 4.46617931e-01,
          1.15543865e-01, 1.39912099e-01, 4.46617931e-01, 4.59592909e-01,
          1.06697239e-01, 1.29725918e-01, 1.89874440e-01, 4.59592909e-01,
          4.59592909e-01, 3.63354564e-01, 1.91400483e-01, 3.58896226e-01 ]
      - [ 3.91448498e-01, 3.91448498e-01, 3.91448498e-01, 3.04302961e-01,
          2.48354733e-01, 1.96560740e-01, 3.49357039e-01, 2.61141628e-01,
          3.91448498e-01, 4.80967611e-01, 4.80967611e-01, 7.77387396e-02,
          4.45872098e-02, 3.48774314e-01, 4.80967611e-01, 1.35889158e-01,
          6.46499842e-02, 3.85857701e-01, 4.66229588e-01, 4.66229588e-01,
          2.27901310e-01, 3.77556309e-02, 3.72932434e-01, 4.66229588e-01,
          3.56000066e-01, 2.68456470e-02, 1.52752548e-01, 4.63853836e-01,
          4.63853836e-01, 1.78080380e-01, 7.78744370e-02, 1.58794522e-01,
          4.63853836e-01, 4.63853836e-01, 1.74697652e-01, 2.03010529e-01,
          4.40629244e-01, 4.40629244e-01, 6.31495342e-02, 7.48409331e-02,
          4.40629244e-01, 4.40629244e-01, 9.99795049e-02, 7.24078640e-02,
          4.40629244e-01, 4.77546662e-01, 4.77546662e-01, 3.97850238e-02,
          5.15618846e-02, 4.77546662e-01, 4.77546662e-01, 6.90436736e-02,
          5.24254292e-02, 2.66964644e-01, 3.85060102e-01, 4.09243554e-01,
          4.09243554e-01, 9.04651135e-02, 3.80590141e-01, 4.09243554e-01,
          4.09243554e-01, 1.36860579e-01, 7.71739483e-02, 1.17724225e-01,
          4.55043375e-01, 4.55043375e-01, 1.17987961e-01, 2.35793948e-01,
          4.55043375e-01, 4.55043375e-01, 2.55628765e-01, 1.35911688e-01,
          4.37776059e-01, 1.32570028e-01, 5.78846447e-02, 4.37776059e-01,
          4.37776059e-01, 4.37776059e-01, 1.08314499e-01, 6.87774122e-02,
          4.37776059e-01, 4.90154356e-01, 2.52801161e-02, 2.71012280e-02,
          4.90154356e-01, 4.90154356e-01, 1.47496089e-01, 5.31446375e-02,
          9.02570859e-02, 4.90154356e-01, 3.70584160e-01, 3.70584160e-01,
          3.70584160e-01, 3.23170006e-01, 3.70584160e-01, 8.38170201e-02,
          3.70584160e-01, 2.46653393e-01, 3.70584160e-01, 3.90785635e-01,
          1.82656884e-01, 2.31670260e-01, 3.90785635e-01, 3.90785635e-01,
          9.63868946e-02, 3.90785635e-01, 3.69058162e-01, 3.90785635e-01,
          1.15345113e-01, 1.33990973e-01, 2.86981434e-01, 5.97199142e-01,
          5.97199142e-01, 2.92416692e-01, 2.55441010e-01, 8.33705813e-02,
          9.70491990e-02, 1.72059700e-01, 7.35475123e-02, 1.35486349e-01,
          5.96570730e-01, 5.96570730e-01, 9.68519449e-02, 1.03651807e-01,
          5.55711128e-02, 4.53505665e-01, 1.04549542e-01, 4.60304588e-01,
          4.60304588e-01, 2.11357027e-01, 4.48349506e-01, 1.07616983e-01,
          4.60304588e-01, 2.51935095e-01, 1.67596996e-01, 2.66565830e-01,
          1.66807249e-01, 2.87381679e-01, 4.04520601e-01, 4.04520601e-01,
          1.70608833e-01, 4.04520601e-01, 3.61709237e-01, 4.04520601e-01 ]
      - [ 5.85324943e-01, 1.32150516e-01, 3.81623030e-01, 0.,
          2.69642454e-02, 0., 2.40452260e-01, 2.95466751e-01,
          5.85324943e-01, 4.92462307e-01, 4.92462307e-01, 3.60147595e-01,
          1.25109896e-01, 1.47029102e-01, 2.55155772e-01, 1.13414682e-01,
          1.50268167e-01, 4.92462307e-01, 4.19541270e-01, 4.19541270e-01,
          2.92937011e-01, 8.52732807e-02, 1.81699693e-01, 4.19541270e-01,
          4.19541270e-01, 2.87965864e-01, 2.87622601e-01, 4.43930537e-01,
          4.43930537e-01, 1.26917034e-01, 2.96814870e-02, 5.81938364e-02,
          1.82943180e-01, 4.43930537e-01, 4.43930537e-01, 3.91694814e-01,
          4.67652082e-01, 2.91348547e-01, 8.37847963e-02, 1.01542577e-01,
          4.67652082e-01, 4.67652082e-01, 9.83426943e-02, 9.29998606e-02,
          4.67652082e-01, 4.74685729e-01, 4.59147483e-01, 3.19153927e-02,
          2.70587876e-02, 4.74685729e-01, 4.74685729e-01, 2.35051066e-02,
          2.68629231e-02, 3.24712038e-01, 4.16607767e-01, 4.16607767e-01,
          4.16607767e-01, 5.55445217e-02, 3.19616258e-01, 4.16607767e-01,
          4.16607767e-01, 1.34063259e-01, 6.93932697e-02, 2.44889200e-01,
          4.62872982e-01, 3.89792055e-01, 4.09491993e-02, 6.83182776e-02,
          4.29522663e-01, 4.62872982e-01, 3.69023532e-01, 1.67191178e-01,
          4.47400630e-01, 1.00172058e-01, 7.19001815e-02, 4.47400630e-01,
          4.47400630e-01, 3.99954617e-01, 1.12515569e-01, 8.38705525e-02,
          4.47400630e-01, 4.58107233e-01, 1.93590745e-01, 8.59665498e-02,
          3.71001601e-01, 4.58107233e-01, 4.22545403e-01, 4.88300771e-02,
          4.89761792e-02, 4.58107233e-01, 3.68260503e-01, 3.68260503e-01,
          3.68260503e-01, 1.64129466e-01, 3.68260503e-01, 3.68260503e-01,
          3.68260503e-01, 1.41674846e-01, 3.68260503e-01, 4.12969649e-01,
          1.20795675e-01, 5.75426221e-02, 4.12969649e-01, 4.12969649e-01,
          2.39180863e-01, 3.85062248e-01, 3.00525814e-01, 4.12969649e-01,
          9.75671113e-02, 1.09198667e-01, 2.51853168e-01, 6.27853572e-01,
          6.27853572e-01, 2.50298351e-01, 1.64323673e-01, 3.39313969e-02,
          1.72205046e-01, 3.85825723e-01, 3.85825723e-01, 3.85825723e-01,
          3.85825723e-01, 3.85825723e-01, 3.85825723e-01, 2.78493971e-01,
          5.68053164e-02, 1.48965806e-01, 3.15743744e-01, 4.02033538e-01,
          3.85885954e-01, 2.58780092e-01, 4.02033538e-01, 4.02033538e-01,
          4.02033538e-01, 1.52867705e-01, 1.02578200e-01, 3.22589785e-01,
          1.43123686e-01, 2.07242280e-01, 3.91377658e-01, 3.91377658e-01,
          3.91377658e-01, 3.90091598e-01, 2.52417684e-01, 3.91377658e-01 ]
      - [ 1.53564095e-01, 4.02281612e-01, 4.02281612e-01, 4.02281612e-01,
          4.02281612e-01, 4.02281612e-01, 4.02281612e-01, 2.36962140e-02,
          2.92384662e-02, 1.65763944e-01, 2.79583782e-01, 3.96331638e-01,
          3.96331638e-01, 3.96331638e-01, 3.34347934e-01, 2.24130303e-01,
          3.96331638e-01, 3.16319257e-01, 6.24537803e-02, 1.83554575e-01,
          4.49936450e-01, 4.49936450e-01, 7.76812583e-02, 6.43904582e-02,
          4.49936450e-01, 4.49936450e-01, 3.71431440e-01, 1.62533075e-01,
          5.19152880e-02, 1.40002310e-01, 3.58681343e-02, 1.35869667e-01,
          2.49849439e-01, 6.31044567e-01, 6.31044567e-01, 2.57644266e-01,
          4.07169789e-01, 4.07169789e-01, 4.07169789e-01, 1.27102986e-01,
          1.73395589e-01, 4.07169789e-01, 3.26685816e-01, 1.27759680e-01,
          4.04371440e-01, 4.18639004e-01, 4.18639004e-01, 2.80663550e-01,
          1.26598582e-01, 4.18639004e-01, 4.18639004e-01, 1.32367596e-01,
          8.48793536e-02, 4.18639004e-01, 3.93202513e-01, 3.93202513e-01,
          3.93202513e-01, 1.71042264e-01, 1.77424029e-01, 3.93202513e-01,
          3.93202513e-01, 3.93202513e-01, 8.76802504e-02, 7.53112882e-02,
          9.87837687e-02, 2.43163466e-01, 1.53806563e-02, 1.04461744e-01,
          5.11103451e-01, 5.66214561e-01, 5.66214561e-01, 7.88290873e-02,
          4.05232877e-01, 4.22079414e-01, 4.22079414e-01, 1.88279167e-01,
          1.22221977e-01, 4.22079414e-01, 4.22079414e-01, 2.54814476e-01,
          6.04010560e-02, 4.10454273e-01, 4.10454273e-01, 2.72100359e-01,
          6.57393485e-02, 4.10454273e-01, 4.10454273e-01, 4.10454273e-01,
          2.00824633e-01, 1.86669052e-01, 4.30434048e-01, 4.30434048e-01,
          1.21893920e-01, 1.59997031e-01, 4.30434048e-01, 4.30434048e-01,
          4.30434048e-01, 1.23319216e-01, 1.16910733e-01, 2.42922515e-01,
          1.03334934e-01, 5.99338003e-02, 3.34446520e-01, 4.51991171e-01,
          4.51991171e-01, 4.51991171e-01, 4.23290670e-01, 1.35226846e-01,
          1.18985929e-01, 3.49519670e-01, 4.53445435e-01, 4.53445435e-01,
          1.35112271e-01, 1.56443506e-01, 4.09039617e-01, 4.53445435e-01,
          1.79631501e-01, 2.06890017e-01, 1.03688598e-01, 4.21812356e-01,
          4.21812356e-01, 2.14749217e-01, 8.05361494e-02, 4.21812356e-01,
          4.21812356e-01, 4.21812356e-01, 4.59865957e-01, 1.11141086e-01,
          8.55249241e-02, 1.30659983e-01, 3.21083933e-01, 9.83157828e-02,
          4.59865957e-01, 4.59865957e-01, 4.59865957e-01, 3.51220995e-01,
          6.46472275e-02, 1.45250158e-02, 6.83237836e-02, 1.94608301e-01,
          7.86831826e-02, 6.96179330e-01, 5.08679628e-01, 2.70466119e-01 ]
      - [ 3.28294545e-01, 3.68486047e-01, 3.68486047e-01, 3.68486047e-01,
          3.40589792e-01, 2.71716148e-01, 3.33174825e-01, 3.68486047e-01,
          2.11132094e-01, 2.54556030e-01, 3.42306316e-01, 3.42306316e-01,
          3.42306316e-01, 3.42306316e-01, 3.42306316e-01, 3.34014803e-01,
          3.42306316e-01, 3.42306316e-01, 1.58083335e-01, 1.86723217e-01,
          3.93765062e-01, 3.93765062e-01, 3.93765062e-01, 7.68436566e-02,
          3.93765062e-01, 3.93765062e-01, 3.93765062e-01, 1.52332991e-01,
          2.65962392e-01, 4.21800107e-01, 3.91556531e-01, 1.61006838e-01,
          2.27151290e-01, 4.21800107e-01, 4.21800107e-01, 3.70488405e-01,
          3.76900017e-01, 3.76900017e-01, 3.76900017e-01, 3.76900017e-01,
          3.76900017e-01, 3.10560375e-01, 1.56496674e-01, 2.52420723e-01,
          3.18294346e-01, 3.53918016e-01, 3.53918016e-01, 2.66528547e-01,
          3.53918016e-01, 3.53918016e-01, 3.53918016e-01, 2.20501184e-01,
          3.53918016e-01, 3.53918016e-01, 4.35285956e-01, 4.35285956e-01,
          3.64842355e-01, 9.22010615e-02, 2.27366745e-01, 4.35285956e-01,
          4.35285956e-01, 1.55896217e-01, 1.41936988e-01, 3.86907250e-01,
          3.88021022e-01, 3.88021022e-01, 1.09607682e-01, 2.59439439e-01,
          3.88021022e-01, 3.88021022e-01, 3.88021022e-01, 1.19591720e-01,
          3.68190885e-01, 3.68190885e-01, 3.68190885e-01, 3.68190885e-01,
          1.58150703e-01, 3.68190885e-01, 3.37729096e-01, 3.68190885e-01,
          2.09431827e-01, 3.65975469e-01, 3.65975469e-01, 2.43856221e-01,
          3.04712921e-01, 3.65975469e-01, 3.65975469e-01, 2.00996101e-01,
          3.65975469e-01, 3.65975469e-01, 4.43031639e-01, 4.43031639e-01,
          1.29515857e-01, 1.13219470e-01, 4.43031639e-01, 4.43031639e-01,
          2.86777467e-01, 1.79026216e-01, 2.58034229e-01, 3.93300503e-01,
          2.57320255e-01, 1.70698881e-01, 2.39747569e-01, 3.93300503e-01,
          3.93300503e-01, 3.93300503e-01, 3.93300503e-01, 2.64223188e-01,
          1.32213429e-01, 3.98431480e-01, 3.98431480e-01, 3.98431480e-01,
          3.98431480e-01, 2.36437589e-01, 2.15095937e-01, 3.98431480e-01,
          2.87458122e-01, 9.46067497e-02, 8.43029320e-02, 2.08588764e-01,
          4.80220228e-01, 4.80220228e-01, 8.18810388e-02, 8.05388987e-02,
          4.80220228e-01, 4.80220228e-01, 3.27639312e-01, 7.07636774e-02,
          9.05306488e-02, 4.60485697e-01, 4.60485697e-01, 9.94257554e-02,
          1.29521370e-01, 4.60485697e-01, 4.60485697e-01, 3.36772561e-01,
          4.26237993e-02, 8.29168782e-02, 4.03731883e-01, 4.03731883e-01,
          2.42614523e-01, 4.03731883e-01, 4.03731883e-01, 4.03731883e-01 ]
      - [ 4.31289911e-01, 4.31289911e-01, 4.31289911e-01, 1.13581367e-01,
          9.41060036e-02, 4.31289911e-01, 4.31289911e-01, 1.99052170e-01,
          6.52565956e-02, 3.73250812e-01, 3.73250812e-01, 9.24141407e-02,
          3.73250812e-01, 3.73250812e-01, 3.73250812e-01, 3.73250812e-01,
          1.11881129e-01, 3.73250812e-01, 3.30654263e-01, 1.06504127e-01,
          3.26769263e-01, 4.46849883e-01, 4.46849883e-01, 9.17295888e-02,
          6.87064826e-02, 3.94871712e-01, 4.46849883e-01, 6.75241724e-02,
          6.99136034e-02, 4.74314660e-01, 4.74314660e-01, 1.70221150e-01,
          2.65086014e-02, 2.37148643e-01, 4.74314660e-01, 4.74314660e-01,
          2.13752791e-01, 3.65252256e-01, 4.01385158e-01, 4.01385158e-01,
          1.72593981e-01, 1.14708602e-01, 4.01385158e-01, 4.01385158e-01,
          3.59866381e-01, 3.95163655e-01, 6.63746670e-02, 2.58817643e-01,
          3.82801026e-01, 3.47618937e-01, 1.80741116e-01, 3.95163655e-01,
          3.95163655e-01, 3.95163655e-01, 4.39068615e-01, 2.62349457e-01,
          4.39068615e-01, 3.91762465e-01, 3.05363685e-01, 7.21450150e-02,
          1.58555686e-01, 2.67158389e-01, 4.39068615e-01, 1.83996886e-01,
          3.25078785e-01, 4.53714043e-01, 4.53714043e-01, 5.88877909e-02,
          2.68284120e-02, 4.53714043e-01, 4.53714043e-01, 1.68296069e-01,
          3.41197640e-01, 3.41197640e-01, 3.41197640e-01, 3.41197640e-01,
          3.41197640e-01, 2.55468935e-01, 3.41197640e-01, 3.41197640e-01,
          3.41197640e-01, 5.05442679e-01, 2.02375464e-02, 3.24762911e-02,
          4.25283432e-01, 5.05442679e-01, 1.57524943e-01, 7.90004507e-02,
          1.23083785e-01, 5.05442679e-01, 4.76462185e-01, 1.53777257e-01,
          7.52339363e-02, 4.65628594e-01, 4.76462185e-01, 2.49031231e-01,
          3.53285931e-02, 6.93554953e-02, 4.76462185e-01, 3.61710578e-01,
          3.61710578e-01, 3.61710578e-01, 2.05652475e-01, 3.61710578e-01,
          3.61710578e-01, 3.61710578e-01, 2.15832531e-01, 3.50003093e-01,
          7.36949965e-02, 8.29259530e-02, 4.67954606e-01, 4.67954606e-01,
          2.29539767e-01, 3.79108340e-02, 2.30144650e-01, 4.67954606e-01,
          4.67954606e-01, 4.21998471e-01, 1.38687164e-01, 1.24800719e-01,
          4.21998471e-01, 4.21998471e-01, 2.48918593e-01, 9.27421898e-02,
          4.21998471e-01, 4.21998471e-01, 4.65745836e-01, 4.65745836e-01,
          8.98265913e-02, 9.77767482e-02, 4.65745836e-01, 4.65745836e-01,
          9.41120908e-02, 3.68963294e-02, 3.15948933e-01, 4.70609725e-01,
          4.70609725e-01, 9.06811282e-02, 1.04363978e-01, 2.82312065e-01,
          4.70609725e-01, 4.70609725e-01, 8.86038169e-02, 5.23434132e-02 ]
      - [ 3.60620379e-01, 3.60620379e-01, 3.60620379e-01, 3.60620379e-01,
          3.60620379e-01, 3.60620379e-01, 2.17045158e-01, 1.97380811e-01,
          3.60620379e-01, 4.75004733e-01, 2.31783912e-01, 3.14147286e-02,
          1.13225512e-01, 4.75004733e-01, 4.75004733e-01, 9.28137526e-02,
          1.28812551e-01, 4.75004733e-01, 4.74000901e-01, 1.04828067e-01,
          2.04263136e-01, 1.78159878e-01, 4.74000901e-01, 4.74000901e-01,
          9.83323976e-02, 1.65066957e-01, 4.47063118e-01, 2.10820585e-01,
          1.14392996e-01, 2.58618057e-01, 1.94935322e-01, 4.08290863e-01,
          4.08290863e-01, 4.08290863e-01, 4.08290863e-01, 4.08290863e-01,
          3.83125752e-01, 3.15561056e-01, 3.83125752e-01, 3.83125752e-01,
          3.83125752e-01, 1.94380119e-01, 2.16295078e-01, 2.79463649e-01,
          3.83125752e-01, 4.38358694e-01, 4.00805585e-02, 5.16840629e-02,
          4.38358694e-01, 4.38358694e-01, 1.68179438e-01, 4.76188734e-02,
          4.38358694e-01, 4.38358694e-01, 4.38215315e-01, 3.92006375e-02,
          8.69153738e-02, 4.38215315e-01, 4.38215315e-01, 1.23375036e-01,
          1.05579413e-01, 4.38215315e-01, 4.38215315e-01, 3.94512177e-01,
          9.57544222e-02, 2.40142092e-01, 1.83490679e-01, 3.68733615e-01,
          3.70174199e-01, 3.94512177e-01, 3.94512177e-01, 3.94512177e-01,
          3.68532866e-01, 3.68532866e-01, 3.68532866e-01, 3.68532866e-01,
          3.68532866e-01, 1.45401880e-01, 1.56400129e-01, 3.68532866e-01,
          3.68532866e-01, 4.49650049e-01, 3.76490504e-02, 3.67122591e-02,
          4.49650049e-01, 4.49650049e-01, 2.66653985e-01, 4.71911319e-02,
          3.32672775e-01, 4.49650049e-01, 4.28356320e-01, 5.88025711e-02,
          1.34666696e-01, 4.28356320e-01, 4.28356320e-01, 4.28356320e-01,
          1.40053719e-01, 1.92529142e-01, 4.28356320e-01, 3.48216087e-01,
          1.60337180e-01, 2.00197145e-01, 2.14103356e-01, 3.90695632e-01,
          3.90695632e-01, 3.90695632e-01, 3.90695632e-01, 3.90695632e-01,
          6.03923425e-02, 1.10803813e-01, 2.77777106e-01, 4.92049187e-01,
          4.92049187e-01, 8.06899145e-02, 5.33184372e-02, 4.29711640e-01,
          4.73043472e-01, 2.23931015e-01, 2.21110750e-02, 7.56832138e-02,
          4.81729329e-01, 4.81729329e-01, 9.61565226e-02, 3.64418700e-02,
          4.81729329e-01, 4.81729329e-01, 2.76786029e-01, 4.34148572e-02,
          7.00147226e-02, 4.92921323e-01, 4.92921323e-01, 7.42888004e-02,
          9.36781019e-02, 4.10452008e-01, 4.92921323e-01, 3.43165338e-01,
          1.04758486e-01, 1.00440234e-01, 3.78020823e-01, 3.78020823e-01,
          3.78020823e-01, 3.78020823e-01, 3.78020823e-01, 3.78020823e-01 ]
      - [ 4.98230755e-01, 4.98230755e-01, 4.21566337e-01, 8.09954852e-02,
          1.33545369e-01, 5.42182177e-02, 1.57170981e-01, 1.43411860e-01,
          4.98230755e-01, 5.25227249e-01, 5.25227249e-01, 1.90318465e-01,
          9.09976661e-02, 1.83315337e-01, 5.25227249e-01, 1.57655030e-01,
          1.07094914e-01, 2.29636803e-01, 4.29502249e-01, 4.29502249e-01,
          4.29502249e-01, 4.16406803e-02, 1.87881157e-01, 4.29502249e-01,
          4.29502249e-01, 1.77358121e-01, 6.97093457e-02, 1.61727160e-01,
          4.67365712e-01, 2.81967610e-01, 1.11196321e-02, 6.55584261e-02,
          4.67365712e-01, 4.67365712e-01, 4.61689442e-01, 1.29613817e-01,
          4.18535918e-01, 4.18535918e-01, 1.60342142e-01, 2.51326352e-01,
          4.18535918e-01, 4.18535918e-01, 1.37199655e-01, 1.10721037e-01,
          4.18535918e-01, 4.40767258e-01, 4.40767258e-01, 5.87126054e-02,
          9.48021114e-02, 4.40767258e-01, 4.40767258e-01, 8.66535529e-02,
          6.53833896e-02, 4.40767258e-01, 3.13608885e-01, 4.26376313e-01,
          4.26376313e-01, 5.73306866e-02, 1.84183732e-01, 4.26376313e-01,
          4.26376313e-01, 2.99235553e-01, 2.08448768e-01, 2.54882783e-01,
          3.38685423e-01, 4.40879583e-01, 2.47620493e-02, 9.79364440e-02,
          1.67985409e-01, 4.40879583e-01, 4.40879583e-01, 4.40879583e-01,
          4.24090832e-01, 2.83741891e-01, 2.09830329e-01, 4.24090832e-01,
          4.24090832e-01, 3.47277731e-01, 1.19124003e-01, 1.30464360e-01,
          4.24090832e-01, 4.70003694e-01, 9.29941610e-02, 1.00212485e-01,
          4.70003694e-01, 4.70003694e-01, 2.86922425e-01, 4.76223901e-02,
          9.16996226e-02, 4.70003694e-01, 3.56286258e-01, 3.56286258e-01,
          3.56286258e-01, 3.56286258e-01, 3.56286258e-01, 1.33688599e-01,
          3.56286258e-01, 2.99980462e-01, 3.56286258e-01, 3.10131907e-01,
          3.56598012e-02, 1.86662167e-01, 4.05818224e-01, 4.05818224e-01,
          2.00518414e-01, 4.05818224e-01, 4.05818224e-01, 4.05818224e-01,
          1.46535352e-01, 1.53375581e-01, 3.86830509e-01, 4.64752167e-01,
          4.64752167e-01, 3.98403645e-01, 2.29514971e-01, 2.19945520e-01,
          3.30084175e-01, 1.55059293e-01, 5.21465003e-01, 5.21465003e-01,
          2.92872071e-01, 5.21465003e-01, 2.03847811e-01, 1.20221563e-01,
          3.66905071e-02, 1.08831286e-01, 3.79652604e-02, 4.70525354e-01,
          4.70525354e-01, 2.24667251e-01, 2.05295503e-01, 1.18041508e-01,
          4.70525354e-01, 4.70525354e-01, 4.15572785e-02, 6.20188154e-02,
          8.87892470e-02, 3.89720887e-01, 4.01065975e-01, 4.01065975e-01,
          3.51685077e-01, 4.01065975e-01, 4.01065975e-01, 2.55505353e-01 ]
      - [ 2.85460651e-01, 3.72043878e-01, 3.72043878e-01, 3.72043878e-01,
          3.72043878e-01, 3.72043878e-01, 3.72043878e-01, 1.83906779e-01,
          2.24663526e-01, 1.76703468e-01, 3.75560403e-01, 3.75560403e-01,
          3.75560403e-01, 3.75560403e-01, 3.75560403e-01, 3.75560403e-01,
          3.17555040e-01, 1.33824334e-01, 5.41962609e-02, 2.37458199e-01,
          4.65654433e-01, 4.65654433e-01, 8.42581242e-02, 6.75299391e-02,
          4.65654433e-01, 4.65654433e-01, 2.38808528e-01, 5.81583083e-02,
          1.20604664e-01, 5.51622152e-01, 1.46651536e-01, 4.46998812e-02,
          1.11326806e-01, 5.51622152e-01, 5.51622152e-01, 1.66745737e-01,
          3.80525619e-01, 3.80525619e-01, 3.80525619e-01, 2.33873203e-01,
          3.80525619e-01, 2.23859966e-01, 2.92312026e-01, 2.86257654e-01,
          3.80525619e-01, 4.27832454e-01, 4.27832454e-01, 2.08296329e-01,
          8.44649449e-02, 4.27832454e-01, 4.27832454e-01, 1.35515571e-01,
          1.07874766e-01, 4.27832454e-01, 4.10019159e-01, 4.10019159e-01,
          4.10019159e-01, 7.54491538e-02, 1.65664703e-01, 4.10019159e-01,
          4.10019159e-01, 3.43045384e-01, 6.71411753e-02, 1.72250345e-02,
          3.86099786e-01, 4.54621851e-01, 1.78507958e-02, 4.01630029e-02,
          4.60895538e-01, 4.60895538e-01, 4.60895538e-01, 1.18282577e-02,
          4.06473011e-01, 4.06473011e-01, 4.06473011e-01, 2.25757986e-01,
          1.72701120e-01, 4.06473011e-01, 4.06473011e-01, 2.75634229e-01,
          1.14328980e-01, 4.32867438e-01, 4.32867438e-01, 1.82211250e-01,
          9.45520923e-02, 4.32867438e-01, 4.32867438e-01, 3.91360432e-01,
          1.66275933e-01, 1.52405798e-01, 4.21203464e-01, 4.21203464e-01,
          1.24550991e-01, 1.29358187e-01, 4.21203464e-01, 4.21203464e-01,
          4.21203464e-01, 1.76089540e-01, 2.13252321e-01, 1.94006652e-01,
          2.48811632e-01, 6.22754470e-02, 0., 4.45297033e-01,
          4.60967839e-01, 4.60967839e-01, 4.60967839e-01, 2.37082675e-01,
          1.25334099e-01, 4.25700873e-01, 4.25700873e-01, 4.25700873e-01,
          1.32166296e-01, 1.36007845e-01, 4.25700873e-01, 4.25700873e-01,
          1.94850639e-01, 2.22197160e-01, 1.32589787e-01, 4.18965429e-01,
          4.18965429e-01, 2.10147381e-01, 1.49980471e-01, 4.00098473e-01,
          4.18965429e-01, 4.18965429e-01, 3.45513910e-01, 3.45513910e-01,
          3.45513910e-01, 3.11672509e-01, 2.52486169e-01, 3.45513910e-01,
          3.45513910e-01, 3.45513910e-01, 3.45513910e-01, 3.49770695e-01,
          3.76090616e-01, 3.76090616e-01, 1.40749171e-01, 7.36744627e-02,
          3.76090616e-01, 3.76090616e-01, 3.76090616e-01, 3.76090616e-01 ]
      - [ 4.04559225e-01, 4.01011646e-01, 4.04559225e-01, 2.21495867e-01,
          4.04559225e-01, 9.38993767e-02, 2.39735559e-01, 2.55195647e-01,
          4.04559225e-01, 4.87178892e-01, 4.87178892e-01, 1.99467734e-01,
          1.41395226e-01, 1.65365443e-01, 4.10954416e-01, 1.04388155e-01,
          1.27271786e-01, 4.87178892e-01, 5.09562671e-01, 5.09562671e-01,
          1.76701143e-01, 5.17216586e-02, 1.81671545e-01, 5.09562671e-01,
          2.62990832e-01, 1.70065418e-01, 2.25741118e-01, 3.97252172e-01,
          3.97252172e-01, 1.55722708e-01, 6.10265546e-02, 1.45609036e-01,
          3.97252172e-01, 3.97252172e-01, 3.97252172e-01, 3.97252172e-01,
          4.38839257e-01, 4.38839257e-01, 1.88425511e-01, 7.80947432e-02,
          3.92182738e-01, 4.38839257e-01, 1.35883376e-01, 1.06875703e-01,
          4.38839257e-01, 5.20549178e-01, 5.20549178e-01, 4.73574176e-02,
          8.02212954e-02, 3.56778949e-01, 5.20549178e-01, 9.29858461e-02,
          5.59643880e-02, 1.84767976e-01, 4.51212853e-01, 4.51212853e-01,
          3.39798898e-01, 5.07778861e-02, 2.43709296e-01, 4.51212853e-01,
          4.51212853e-01, 4.58607450e-02, 3.97702269e-02, 2.74563402e-01,
          4.90537643e-01, 2.56445497e-01, 6.03552200e-02, 2.26691514e-01,
          4.90537643e-01, 4.90537643e-01, 2.46045664e-01, 1.28449947e-01,
          4.20842409e-01, 2.35453099e-01, 1.24760762e-01, 4.20842409e-01,
          4.20842409e-01, 4.20842409e-01, 1.19694836e-01, 1.57873511e-01,
          4.20842409e-01, 4.35235232e-01, 1.65903643e-01, 8.09529349e-02,
          4.35235232e-01, 4.35235232e-01, 4.35235232e-01, 6.59816861e-02,
          1.00364074e-01, 4.35235232e-01, 3.62650305e-01, 3.62650305e-01,
          3.62650305e-01, 1.83935210e-01, 3.62650305e-01, 3.31513882e-01,
          3.62650305e-01, 2.52094775e-01, 3.62650305e-01, 4.31160897e-01,
          1.79461524e-01, 9.60385352e-02, 3.03597659e-01, 4.31160897e-01,
          2.67711610e-01, 4.31160897e-01, 2.16386810e-01, 4.31160897e-01,
          1.84451208e-01, 1.56145722e-01, 2.71094829e-01, 5.41053414e-01,
          5.41053414e-01, 2.43819311e-01, 9.97287184e-02, 2.58959979e-01,
          3.75192136e-01, 2.74907529e-01, 2.82720834e-01, 4.40103203e-01,
          4.40103203e-01, 4.40103203e-01, 2.16291726e-01, 8.31649601e-02,
          1.07873753e-01, 4.40103203e-01, 1.45927921e-01, 3.97112936e-01,
          3.97112936e-01, 3.01090896e-01, 3.97112936e-01, 2.11008906e-01,
          3.97112936e-01, 3.88161004e-01, 2.41026223e-01, 4.23383713e-01,
          9.81884301e-02, 9.11657736e-02, 4.23383713e-01, 4.23383713e-01,
          2.74724692e-01, 3.89251739e-01, 1.83882803e-01, 4.23383713e-01 ]
      - [ 4.30306911e-01, 4.30306911e-01, 4.30306911e-01, 8.41322914e-02,
          1.01113081e-01, 4.30306911e-01, 4.30306911e-01, 2.24291965e-01,
          4.76709493e-02, 3.80667806e-01, 3.80667806e-01, 5.80685548e-02,
          3.80667806e-01, 3.80667806e-01, 3.80667806e-01, 3.39888424e-01,
          8.86171162e-02, 3.80667806e-01, 3.08793515e-01, 6.84094802e-02,
          3.01771849e-01, 4.58934397e-01, 4.58934397e-01, 9.78542939e-02,
          7.93048963e-02, 3.95713776e-01, 4.58934397e-01, 1.03049077e-01,
          7.08782971e-02, 4.65940803e-01, 4.65940803e-01, 1.71162531e-01,
          9.02855769e-02, 2.71756470e-01, 4.65940803e-01, 4.65940803e-01,
          2.31972396e-01, 3.25615078e-01, 4.05343592e-01, 4.05343592e-01,
          1.57962248e-01, 1.45961404e-01, 4.05343592e-01, 4.05343592e-01,
          3.64203095e-01, 3.86892647e-01, 1.11940689e-01, 2.66660243e-01,
          3.86892647e-01, 3.30064893e-01, 2.34785065e-01, 3.86892647e-01,
          3.86892647e-01, 3.86892647e-01, 5.55032432e-01, 1.66088313e-01,
          4.92472976e-01, 2.65798658e-01, 1.11225978e-01, 4.37358767e-02,
          9.12165269e-02, 1.22339435e-01, 5.55032432e-01, 2.07697153e-01,
          3.12369376e-01, 4.55161333e-01, 4.55161333e-01, 3.51753272e-02,
          2.94715278e-02, 4.55161333e-01, 4.55161333e-01, 1.54749960e-01,
          3.41166556e-01, 3.41166556e-01, 3.41166556e-01, 3.41166556e-01,
          3.41166556e-01, 2.77810544e-01, 3.23497087e-01, 3.41166556e-01,
          3.41166556e-01, 4.91885006e-01, 3.07274181e-02, 3.43517065e-02,
          4.43281710e-01, 4.91885006e-01, 2.20876247e-01, 7.80898854e-02,
          1.25408798e-01, 4.91885006e-01, 4.67575371e-01, 1.42202958e-01,
          4.75361906e-02, 4.67575371e-01, 4.67575371e-01, 3.09027821e-01,
          2.71637440e-02, 4.58847992e-02, 4.67575371e-01, 3.66254270e-01,
          3.66254270e-01, 3.66254270e-01, 1.86739653e-01, 3.66254270e-01,
          3.66254270e-01, 3.66254270e-01, 1.88603774e-01, 3.47914487e-01,
          9.20680910e-02, 8.54349881e-02, 4.67786759e-01, 4.67786759e-01,
          1.97962299e-01, 7.90723190e-02, 2.42513239e-01, 4.67786759e-01,
          4.67786759e-01, 4.23670262e-01, 1.24310538e-01, 8.38261768e-02,
          4.23670262e-01, 4.23670262e-01, 2.64579087e-01, 7.61805028e-02,
          4.23670262e-01, 4.23670262e-01, 4.71878678e-01, 4.71878678e-01,
          6.53033480e-02, 9.46002379e-02, 4.71878678e-01, 4.71878678e-01,
          8.83656964e-02, 2.06981506e-02, 2.88371682e-01, 4.67556328e-01,
          4.67556328e-01, 9.19324085e-02, 1.00937717e-01, 2.99407393e-01,
          4.67556328e-01, 4.67556328e-01, 7.85949901e-02, 8.02020058e-02 ]
      - [ 1.82191297e-01, 5.37977397e-01, 5.37977397e-01, 5.37977397e-01,
          2.67176867e-01, 0., 1.41053498e-01, 4.34868932e-02,
          2.03103037e-03, 3.16730350e-01, 3.49359721e-01, 3.49359721e-01,
          3.49359721e-01, 3.49359721e-01, 3.49359721e-01, 3.49359721e-01,
          3.49359721e-01, 2.04513714e-01, 9.14588720e-02, 3.43145013e-01,
          4.25176859e-01, 4.25176859e-01, 1.86387405e-01, 1.20585196e-01,
          4.25176859e-01, 4.25176859e-01, 3.11860561e-01, 3.29229720e-02,
          1.17011622e-01, 5.35883009e-01, 4.40240186e-03, 7.33249262e-02,
          1.33831739e-01, 5.66429734e-01, 5.66429734e-01, 1.65546075e-01,
          4.33335632e-01, 4.20477986e-01, 4.33335632e-01, 1.53885320e-01,
          4.33335632e-01, 6.59350902e-02, 1.78530514e-01, 8.85959566e-02,
          4.33335632e-01, 4.08638448e-01, 4.08638448e-01, 4.08638448e-01,
          6.00155853e-02, 3.92720938e-01, 4.08638448e-01, 3.29765677e-01,
          8.65535513e-02, 2.32180893e-01, 2.55689412e-01, 4.66265917e-01,
          4.66265917e-01, 3.41551155e-02, 8.52551833e-02, 4.66265917e-01,
          4.66265917e-01, 2.22376794e-01, 4.96357791e-02, 6.68469518e-02,
          1.63545966e-01, 2.44446710e-01, 3.26669179e-02, 8.27182978e-02,
          5.44697404e-01, 5.44697404e-01, 5.44697404e-01, 7.48022199e-02,
          3.64567429e-01, 3.64567429e-01, 3.64567429e-01, 2.16538861e-01,
          3.64567429e-01, 3.56903255e-01, 3.64567429e-01, 1.84258834e-01,
          3.51554096e-01, 4.86480623e-01, 4.86480623e-01, 1.49030641e-01,
          3.09299212e-02, 1.10415481e-01, 4.86480623e-01, 4.86480623e-01,
          9.78292152e-02, 5.96546270e-02, 4.72643971e-01, 4.91123259e-01,
          9.19468403e-02, 1.37400357e-02, 1.79322675e-01, 4.91123259e-01,
          4.91123259e-01, 7.28879347e-02, 4.45433892e-02, 1.21710695e-01,
          7.53331557e-02, 1.70047790e-01, 1.76220406e-02, 5.23504138e-01,
          5.23504138e-01, 5.23504138e-01, 3.15648228e-01, 1.52489424e-01,
          2.25004345e-01, 3.81793201e-01, 3.81793201e-01, 3.81793201e-01,
          3.36409390e-01, 2.23871797e-01, 3.81793201e-01, 3.81793201e-01,
          2.31168211e-01, 1.55248091e-01, 3.63919944e-01, 3.63919944e-01,
          3.63919944e-01, 2.12598667e-01, 3.63919944e-01, 3.63919944e-01,
          3.63919944e-01, 3.63919944e-01, 4.48914200e-01, 3.49173993e-02,
          3.83620299e-02, 4.48914200e-01, 4.48914200e-01, 1.44525290e-01,
          1.51013151e-01, 3.78201902e-01, 4.48914200e-01, 4.28587824e-01,
          2.46223733e-02, 7.04661980e-02, 1.20582432e-01, 4.28587824e-01,
          2.39100799e-01, 4.28587824e-01, 4.28587824e-01, 4.28587824e-01 ]
      - [ 3.87056082e-01, 3.53824854e-01, 3.87056082e-01, 2.66897917e-01,
          2.81819046e-01, 1.66551396e-01, 3.57206285e-01, 3.39870304e-01,
          3.87056082e-01, 5.15477061e-01, 5.15477061e-01, 2.59323597e-01,
          8.20046142e-02, 1.58505663e-01, 5.15477061e-01, 1.85699120e-01,
          8.90070871e-02, 2.37061605e-01, 4.30560350e-01, 4.30560350e-01,
          2.49306068e-01, 3.74267884e-02, 2.10362777e-01, 4.30560350e-01,
          4.30560350e-01, 3.40900302e-01, 1.73638687e-01, 3.87153983e-01,
          2.62799680e-01, 1.19587623e-01, 2.80648880e-02, 1.10285498e-01,
          3.41593564e-01, 5.22169530e-01, 5.22169530e-01, 2.94233441e-01,
          4.71851587e-01, 1.68439388e-01, 1.79388106e-01, 4.71851587e-01,
          4.71851587e-01, 1.96039379e-01, 5.50518520e-02, 5.19355051e-02,
          4.71851587e-01, 4.11318630e-01, 4.11318630e-01, 1.18622251e-01,
          2.62251079e-01, 4.11318630e-01, 4.11318630e-01, 2.39299417e-01,
          9.93215442e-02, 4.11318630e-01, 3.24815065e-01, 3.84251773e-01,
          3.84251773e-01, 1.15773432e-01, 3.23471189e-01, 3.84251773e-01,
          3.84251773e-01, 1.85397416e-01, 3.84251773e-01, 3.87313068e-01,
          2.11049706e-01, 1.48355454e-01, 2.56270230e-01, 3.66459161e-01,
          3.59954298e-01, 3.87313068e-01, 3.87313068e-01, 3.87313068e-01,
          3.54532659e-01, 8.48641917e-02, 1.68155849e-01, 4.94501501e-01,
          4.94501501e-01, 3.93064529e-01, 4.46992181e-02, 4.33615632e-02,
          4.31796432e-01, 2.39607304e-01, 3.94109458e-01, 3.94109458e-01,
          3.94109458e-01, 3.94109458e-01, 3.01421016e-01, 3.94109458e-01,
          1.10268936e-01, 2.42952868e-01, 1.60615414e-01, 3.66539359e-01,
          3.66539359e-01, 3.66539359e-01, 3.66539359e-01, 3.66539359e-01,
          3.66539359e-01, 1.73444033e-01, 3.66539359e-01, 2.10774928e-01,
          4.37635146e-02, 2.44098544e-01, 3.85189652e-01, 3.85189652e-01,
          3.85189652e-01, 3.85189652e-01, 3.85189652e-01, 3.85189652e-01,
          0., 3.52894098e-01, 8.82863462e-01, 5.28933182e-02,
          2.90535748e-01, 0., 0., 0., 0., 1.78035274e-01, 3.98290396e-01,
          3.98290396e-01, 3.98290396e-01, 3.98290396e-01, 3.98290396e-01,
          3.98290396e-01, 8.44852477e-02, 7.33166039e-02, 8.12133700e-02,
          4.44855452e-01, 3.89608502e-01, 1.99324116e-01, 3.87581408e-01,
          4.44855452e-01, 4.44855452e-01, 2.21472234e-01, 6.69132322e-02,
          8.90459642e-02, 1.42753407e-01, 3.48169923e-01, 4.72439200e-01,
          4.72439200e-01, 4.72439200e-01, 3.59318167e-01, 1.71449810e-01,
          1.32854283e-01 ]
      - [ 3.83327782e-01, 3.83327782e-01, 3.83327782e-01, 6.27851710e-02,
          3.01667541e-01, 1.39942527e-01, 3.83327782e-01, 3.83327782e-01,
          3.83327782e-01, 2.46924594e-01, 2.91197687e-01, 4.28497136e-01,
          4.28497136e-01, 2.73006409e-01, 9.68750939e-02, 2.29384661e-01,
          4.28497136e-01, 4.03221756e-01, 1.02056615e-01, 1.93396717e-01,
          4.40615982e-01, 4.40615982e-01, 5.82317971e-02, 6.02174550e-02,
          4.40615982e-01, 4.40615982e-01, 4.05208498e-01, 1.02828912e-01,
          9.86766666e-02, 3.07705522e-01, 3.09816524e-02, 1.43135935e-01,
          1.76839054e-01, 6.06879473e-01, 6.06879473e-01, 2.99368829e-01,
          3.81031305e-01, 3.81031305e-01, 3.81031305e-01, 1.67776734e-01,
          3.26895535e-01, 3.50342691e-01, 3.81031305e-01, 1.11889549e-01,
          3.81031305e-01, 4.03529853e-01, 4.03529853e-01, 1.52737603e-01,
          2.99044758e-01, 4.03529853e-01, 4.03529853e-01, 2.27183595e-01,
          1.31978288e-01, 4.03529853e-01, 3.85673374e-01, 3.85673374e-01,
          3.85673374e-01, 1.00859240e-01, 3.00839454e-01, 3.85673374e-01,
          3.85673374e-01, 3.67097765e-01, 1.30343720e-01, 1.06445745e-01,
          1.89682901e-01, 2.69313395e-01, 1.62872095e-02, 1.06839821e-01,
          5.33562839e-01, 5.33562839e-01, 5.33562839e-01, 9.53078344e-02,
          1.69004738e-01, 4.03370619e-01, 4.03370619e-01, 4.03370619e-01,
          1.67153507e-01, 3.19293052e-01, 4.03370619e-01, 4.03370619e-01,
          1.54855177e-01, 3.24016243e-01, 2.41307229e-01, 3.45033526e-01,
          3.45033526e-01, 3.45033526e-01, 3.45033526e-01, 3.45033526e-01,
          3.45033526e-01, 3.45033526e-01, 4.27693039e-01, 3.69632095e-01,
          1.98812559e-01, 1.68633774e-01, 4.27693039e-01, 4.27693039e-01,
          4.27693039e-01, 1.60743117e-01, 1.83336690e-01, 2.47579947e-01,
          3.10890377e-01, 1.26725405e-01, 9.75691527e-02, 4.44527715e-01,
          4.44527715e-01, 4.44527715e-01, 4.44527715e-01, 1.47011563e-01,
          6.62234724e-02, 3.91950101e-01, 4.55035746e-01, 4.55035746e-01,
          2.94752240e-01, 1.17826842e-01, 1.41421139e-01, 4.55035746e-01,
          3.09046477e-01, 4.77333628e-02, 7.57836476e-02, 4.84377056e-01,
          4.84377056e-01, 1.39492214e-01, 3.47618721e-02, 1.67300537e-01,
          4.84377056e-01, 4.84377056e-01, 3.06021422e-01, 1.25189900e-01,
          3.12503606e-01, 4.31093037e-01, 2.00709298e-01, 7.11659864e-02,
          4.31093037e-01, 4.31093037e-01, 4.31093037e-01, 4.65121210e-01,
          1.46216482e-01, 5.61557077e-02, 2.66009904e-02, 2.54920423e-01,
          1.16984233e-01, 6.86893940e-01, 2.50504911e-01, 3.71912926e-01 ]
      - [ 3.74468505e-01, 3.39438647e-01, 3.74468505e-01, 3.74468505e-01,
          3.74468505e-01, 8.82033110e-02, 2.14698777e-01, 3.55009377e-01,
          3.74468505e-01, 1.45139143e-01, 6.38583452e-02, 3.53998721e-01,
          4.56110299e-01, 4.56110299e-01, 3.92351523e-02, 1.06301039e-01,
          4.56110299e-01, 4.56110299e-01, 2.71242499e-01, 5.52238896e-02,
          1.41121104e-01, 4.72312033e-01, 4.72312033e-01, 6.39690310e-02,
          4.83586676e-02, 4.72312033e-01, 4.72312033e-01, 3.81208479e-01,
          9.02367085e-02, 7.18901083e-02, 4.03929561e-01, 4.03929561e-01,
          1.89948007e-01, 3.85509282e-01, 4.03929561e-01, 4.03929561e-01,
          3.48488063e-01, 3.48488063e-01, 3.28795046e-01, 3.48488063e-01,
          3.48488063e-01, 2.84152269e-01, 2.81080276e-01, 3.48488063e-01,
          3.48488063e-01, 4.49379355e-01, 4.59547155e-02, 1.74259290e-01,
          4.49379355e-01, 4.49379355e-01, 7.02574030e-02, 6.41109794e-02,
          3.82386595e-01, 4.49379355e-01, 2.28545263e-01, 9.33583900e-02,
          3.82996410e-01, 4.31671143e-01, 4.31671143e-01, 9.51816291e-02,
